booster[0]:
0:[looper_jet1Pt<41.6301155] yes=1,no=2,missing=1
	1:[looper_jet1Pt<31.1463432] yes=3,no=4,missing=3
		3:[looper_vecsum_pt_4l<78.1815567] yes=7,no=8,missing=7
			7:leaf=0.188810989
			8:leaf=0.175286099
		4:[looper_minDRJetToLep4<2.58240509] yes=9,no=10,missing=9
			9:leaf=0.0554372482
			10:leaf=0.122247808
	2:[looper_minDRJetToLep3<2.04866743] yes=5,no=6,missing=5
		5:[looper_minDRJetToLep4<2.12047338] yes=11,no=12,missing=11
			11:leaf=-0.151530728
			12:leaf=-0.0808824897
		6:[looper_minDRJetToLep4<2.10511208] yes=13,no=14,missing=13
			13:leaf=-0.0520429723
			14:leaf=0.0557469018
booster[1]:
0:[looper_jet1Pt<45.2347412] yes=1,no=2,missing=1
	1:[looper_jet1Pt<31.5075073] yes=3,no=4,missing=3
		3:[looper_jet1Pt<30.0346909] yes=7,no=8,missing=7
			7:leaf=0.167867661
			8:leaf=0.131695777
		4:[looper_minDRJetToLep3<2.48396683] yes=9,no=10,missing=9
			9:leaf=0.0302528329
			10:leaf=0.102979958
	2:[looper_minDRJetToLep3<1.93524015] yes=5,no=6,missing=5
		5:[looper_minDRJetToLep4<2.44546652] yes=11,no=12,missing=11
			11:leaf=-0.137762472
			12:leaf=-0.0698781312
		6:[looper_minDRJetToLep4<2.34487963] yes=13,no=14,missing=13
			13:leaf=-0.047390867
			14:leaf=0.0525954328
booster[2]:
0:[looper_jet1Pt<41.4840851] yes=1,no=2,missing=1
	1:[looper_jet1Pt<31.2712078] yes=3,no=4,missing=3
		3:[looper_vecsum_pt_4l<78.1815567] yes=7,no=8,missing=7
			7:leaf=0.158475667
			8:leaf=0.145395964
		4:[looper_minDRJetToLep3<2.37490797] yes=9,no=10,missing=9
			9:leaf=0.0375517756
			10:leaf=0.0993456393
	2:[looper_minDRJetToLep3<2.24702072] yes=5,no=6,missing=5
		5:[looper_minDRJetToLep4<2.12047338] yes=11,no=12,missing=11
			11:leaf=-0.123050287
			12:leaf=-0.0595735312
		6:[looper_minDRJetToLep4<1.82315207] yes=13,no=14,missing=13
			13:leaf=-0.0445159636
			14:leaf=0.0456795506
booster[3]:
0:[looper_jet1Pt<45.2347412] yes=1,no=2,missing=1
	1:[looper_jet1Pt<31.5075073] yes=3,no=4,missing=3
		3:[looper_jet1Pt<30.0346909] yes=7,no=8,missing=7
			7:leaf=0.144144848
			8:leaf=0.109420493
		4:[looper_minDRJetToLep4<3.03723836] yes=9,no=10,missing=9
			9:leaf=0.0330943093
			10:leaf=0.0990342423
	2:[looper_minDRJetToLep3<1.84652185] yes=5,no=6,missing=5
		5:[looper_minDRJetToLep4<2.37917089] yes=11,no=12,missing=11
			11:leaf=-0.119139448
			12:leaf=-0.0634391755
		6:[looper_minDRJetToLep4<2.45984674] yes=13,no=14,missing=13
			13:leaf=-0.0389905684
			14:leaf=0.046240937
booster[4]:
0:[looper_jet1Pt<48.4256668] yes=1,no=2,missing=1
	1:[looper_jet1Pt<34.9000168] yes=3,no=4,missing=3
		3:[looper_jet1Pt<30.0346909] yes=7,no=8,missing=7
			7:leaf=0.135376677
			8:leaf=0.0940189511
		4:[looper_minDRJetToLep4<3.04218578] yes=9,no=10,missing=9
			9:leaf=0.0146446666
			10:leaf=0.0779954568
	2:[looper_minDRJetToLep3<2.31681156] yes=5,no=6,missing=5
		5:[looper_minDRJetToLep4<1.99563909] yes=11,no=12,missing=11
			11:leaf=-0.108624876
			12:leaf=-0.0555380471
		6:[looper_minDRJetToLep4<1.81845236] yes=13,no=14,missing=13
			13:leaf=-0.0374403708
			14:leaf=0.0376175754
booster[5]:
0:[looper_jet1Pt<38.2481041] yes=1,no=2,missing=1
	1:[looper_jet1Pt<30.5859871] yes=3,no=4,missing=3
		3:[looper_vecsum_pt_4l<78.2412415] yes=7,no=8,missing=7
			7:leaf=0.13281773
			8:leaf=0.118896104
		4:[looper_minDRJetToLep3<2.69786549] yes=9,no=10,missing=9
			9:leaf=0.0447935462
			10:leaf=0.0931854695
	2:[looper_minDRJetToLep3<1.84042406] yes=5,no=6,missing=5
		5:[looper_jet1Pt<58.9317589] yes=11,no=12,missing=11
			11:leaf=-0.0240564346
			12:leaf=-0.0981497541
		6:[looper_lep3Pt<113.084564] yes=13,no=14,missing=13
			13:leaf=-0.0222905874
			14:leaf=0.0592727475
booster[6]:
0:[looper_jet1Pt<38.425499] yes=1,no=2,missing=1
	1:[looper_jet1Pt<30.5859871] yes=3,no=4,missing=3
		3:[looper_vecsum_pt_4l<78.2412415] yes=7,no=8,missing=7
			7:leaf=0.126504228
			8:leaf=0.112377882
		4:[looper_minDRJetToLep3<2.69786549] yes=9,no=10,missing=9
			9:leaf=0.0400607958
			10:leaf=0.0852651522
	2:[looper_minDRJetToLep3<1.77792585] yes=5,no=6,missing=5
		5:[looper_minDRJetToLep4<2.66838884] yes=11,no=12,missing=11
			11:leaf=-0.0950231776
			12:leaf=-0.0352012627
		6:[looper_minDRJetToLep4<2.55751753] yes=13,no=14,missing=13
			13:leaf=-0.0288863182
			14:leaf=0.045287326
booster[7]:
0:[looper_jet1Pt<48.4256668] yes=1,no=2,missing=1
	1:[looper_jet1Pt<31.0413437] yes=3,no=4,missing=3
		3:[looper_vecsum_pt_4l<64.849411] yes=7,no=8,missing=7
			7:leaf=0.122067146
			8:leaf=0.107645132
		4:[looper_MllN<45.7256508] yes=9,no=10,missing=9
			9:leaf=0.0986557528
			10:leaf=0.0304604452
	2:[looper_minDRJetToLep3<2.40226841] yes=5,no=6,missing=5
		5:[looper_minDRJetToLep4<1.7787509] yes=11,no=12,missing=11
			11:leaf=-0.0924100801
			12:leaf=-0.0438023731
		6:[looper_jet1Pt<218.314789] yes=13,no=14,missing=13
			13:leaf=-0.00539657846
			14:leaf=0.0915868059
booster[8]:
0:[looper_jet1Pt<37.599556] yes=1,no=2,missing=1
	1:[looper_jet1Pt<30.0346909] yes=3,no=4,missing=3
		3:[looper_vecsum_pt_4l<79.677475] yes=7,no=8,missing=7
			7:leaf=0.116570406
			8:leaf=0.101627983
		4:[looper_minDRJetToLep4<2.1454916] yes=9,no=10,missing=9
			9:leaf=0.0256210454
			10:leaf=0.0762673616
	2:[looper_minDRJetToLep3<1.53097129] yes=5,no=6,missing=5
		5:[looper_jet1Pt<63.9803162] yes=11,no=12,missing=11
			11:leaf=-0.0266280118
			12:leaf=-0.0894264132
		6:[looper_lep3Pt<139.391998] yes=13,no=14,missing=13
			13:leaf=-0.02058639
			14:leaf=0.0702069476
booster[9]:
0:[looper_jet1Pt<51.1055031] yes=1,no=2,missing=1
	1:[looper_jet1Pt<31.0413437] yes=3,no=4,missing=3
		3:[looper_vecsum_pt_4l<64.849411] yes=7,no=8,missing=7
			7:leaf=0.112977639
			8:leaf=0.0974444672
		4:[looper_minDRJetToLep4<2.58239889] yes=9,no=10,missing=9
			9:leaf=0.0105987871
			10:leaf=0.0620894805
	2:[looper_minDRJetToLep3<1.66741562] yes=5,no=6,missing=5
		5:[looper_minDRJetToLep4<2.37917089] yes=11,no=12,missing=11
			11:leaf=-0.086881496
			12:leaf=-0.0390665233
		6:[looper_lep3Pt<100.068848] yes=13,no=14,missing=13
			13:leaf=-0.0323528685
			14:leaf=0.0393686146
booster[10]:
0:[looper_jet1Pt<35.5581436] yes=1,no=2,missing=1
	1:[looper_jet1Pt<30.0346909] yes=3,no=4,missing=3
		3:[looper_vecsum_pt_4l<79.677475] yes=7,no=8,missing=7
			7:leaf=0.108329237
			8:leaf=0.09211234
		4:[looper_vecsum_pt_4l<103.435455] yes=9,no=10,missing=9
			9:leaf=0.0720961392
			10:leaf=0.026522493
	2:[looper_minDRJetToLep3<2.48305368] yes=5,no=6,missing=5
		5:[looper_minDRJetToLep4<1.79700327] yes=11,no=12,missing=11
			11:leaf=-0.0749221966
			12:leaf=-0.0252283607
		6:[looper_minDRJetToLep4<1.65604615] yes=13,no=14,missing=13
			13:leaf=-0.0267993342
			14:leaf=0.0377360694
booster[11]:
0:[looper_jet1Pt<52.2983093] yes=1,no=2,missing=1
	1:[looper_jet1Pt<30.5859871] yes=3,no=4,missing=3
		3:[looper_vecsum_pt_4l<78.2412415] yes=7,no=8,missing=7
			7:leaf=0.104274645
			8:leaf=0.0872646198
		4:[looper_MllN<46.1354141] yes=9,no=10,missing=9
			9:leaf=0.0857629851
			10:leaf=0.0202249251
	2:[looper_minDRJetToLep3<1.50292349] yes=5,no=6,missing=5
		5:[looper_lep3Pt<280.173889] yes=11,no=12,missing=11
			11:leaf=-0.0751292631
			12:leaf=0.0759152099
		6:[looper_lep3Pt<112.195473] yes=13,no=14,missing=13
			13:leaf=-0.0290405285
			14:leaf=0.0434763432
booster[12]:
0:[looper_jet1Pt<35.0765381] yes=1,no=2,missing=1
	1:[looper_jet1Pt<30.0346909] yes=3,no=4,missing=3
		3:[looper_vecsum_pt_4l<64.849411] yes=7,no=8,missing=7
			7:leaf=0.103122823
			8:leaf=0.0858845264
		4:[looper_minDRJetToLep3<3.27551079] yes=9,no=10,missing=9
			9:leaf=0.0357012562
			10:leaf=0.0770632327
	2:[looper_minDRJetToLep4<2.10183787] yes=5,no=6,missing=5
		5:[looper_lep3Pt<186.960342] yes=11,no=12,missing=11
			11:leaf=-0.0568486713
			12:leaf=0.0319025032
		6:[looper_minDRJetToLep3<1.45504081] yes=13,no=14,missing=13
			13:leaf=-0.0365406461
			14:leaf=0.0284373052
booster[13]:
0:[looper_jet1Pt<54.8482819] yes=1,no=2,missing=1
	1:[looper_jet1Pt<30.0346909] yes=3,no=4,missing=3
		3:[looper_vecsum_pt_4l<79.677475] yes=7,no=8,missing=7
			7:leaf=0.0980408341
			8:leaf=0.0796102583
		4:[looper_MllN<42.3468475] yes=9,no=10,missing=9
			9:leaf=0.084397994
			10:leaf=0.0184665788
	2:[looper_minDRJetToLep3<1.40919375] yes=5,no=6,missing=5
		5:[looper_minDRJetToLep4<2.90278769] yes=11,no=12,missing=11
			11:leaf=-0.0750740767
			12:leaf=-0.0210415293
		6:[looper_jet1Pt<220.387466] yes=13,no=14,missing=13
			13:leaf=-0.0224568676
			14:leaf=0.0627611205
booster[14]:
0:[looper_jet1Pt<35.0765381] yes=1,no=2,missing=1
	1:[looper_jet1Pt<30.0346909] yes=3,no=4,missing=3
		3:[looper_vecsum_pt_4l<64.849411] yes=7,no=8,missing=7
			7:leaf=0.0970088169
			8:leaf=0.0781323835
		4:[looper_vecsum_pt_4l<90.1054688] yes=9,no=10,missing=9
			9:leaf=0.0631771609
			10:leaf=0.0200421643
	2:[looper_minDRJetToLep3<2.76581526] yes=5,no=6,missing=5
		5:[looper_minDRJetToLep4<1.65480959] yes=11,no=12,missing=11
			11:leaf=-0.0620878525
			12:leaf=-0.0155830039
		6:[looper_jet1Pt<218.191376] yes=13,no=14,missing=13
			13:leaf=0.01483016
			14:leaf=0.0858144388
booster[15]:
0:[looper_jet1Pt<54.911087] yes=1,no=2,missing=1
	1:[looper_jet1Pt<30.0346909] yes=3,no=4,missing=3
		3:[looper_vecsum_pt_4l<64.849411] yes=7,no=8,missing=7
			7:leaf=0.0940996855
			8:leaf=0.0744662061
		4:[looper_MllN<58.7594948] yes=9,no=10,missing=9
			9:leaf=0.0617021397
			10:leaf=0.012406799
	2:[looper_minDRJetToLep4<2.55763769] yes=5,no=6,missing=5
		5:[looper_lep3Pt<229.275177] yes=11,no=12,missing=11
			11:leaf=-0.0475437641
			12:leaf=0.0655006915
		6:[looper_jet1Pt<233.076996] yes=13,no=14,missing=13
			13:leaf=0.0046202885
			14:leaf=0.0931672081
booster[16]:
0:[looper_jet1Pt<34.9000168] yes=1,no=2,missing=1
	1:[looper_jet1Pt<30.0346909] yes=3,no=4,missing=3
		3:[looper_vecsum_pt_4l<94.2556305] yes=7,no=8,missing=7
			7:leaf=0.0874448046
			8:leaf=0.0651965663
		4:[looper_minDRJetToLep4<2.1435554] yes=9,no=10,missing=9
			9:leaf=0.0100374008
			10:leaf=0.0563468449
	2:[looper_minDRJetToLep3<1.53177631] yes=5,no=6,missing=5
		5:[looper_scalarsum_pt_4l<562.51062] yes=11,no=12,missing=11
			11:leaf=-0.0560463965
			12:leaf=0.0195571352
		6:[looper_scalarsum_pt_4l<453.03656] yes=13,no=14,missing=13
			13:leaf=-0.00683499081
			14:leaf=0.0769234821
booster[17]:
0:[looper_jet1Pt<54.911087] yes=1,no=2,missing=1
	1:[looper_jet1Pt<30.0346909] yes=3,no=4,missing=3
		3:[looper_MllN<48.9420319] yes=7,no=8,missing=7
			7:leaf=0.097066097
			8:leaf=0.0715619847
		4:[looper_MllN<41.0682602] yes=9,no=10,missing=9
			9:leaf=0.0753893256
			10:leaf=0.0150390491
	2:[looper_minDRJetToLep4<1.61629689] yes=5,no=6,missing=5
		5:[looper_lep3Pt<159.999847] yes=11,no=12,missing=11
			11:leaf=-0.0581413172
			12:leaf=-0.00228135544
		6:[looper_lep4Pt<56.2313461] yes=13,no=14,missing=13
			13:leaf=-0.0150978193
			14:leaf=0.0580712743
booster[18]:
0:[looper_jet1Pt<35.0765381] yes=1,no=2,missing=1
	1:[looper_jet1Pt<30.0346909] yes=3,no=4,missing=3
		3:[looper_vecsum_pt_4l<64.849411] yes=7,no=8,missing=7
			7:leaf=0.086204879
			8:leaf=0.0632764027
		4:[looper_minDRJetToLep3<3.27551079] yes=9,no=10,missing=9
			9:leaf=0.0181807261
			10:leaf=0.0610182285
	2:[looper_minDRJetToLep3<2.78435564] yes=5,no=6,missing=5
		5:[looper_lep3Pt<155.763824] yes=11,no=12,missing=11
			11:leaf=-0.037290398
			12:leaf=0.0279459991
		6:[looper_MllN<54.461937] yes=13,no=14,missing=13
			13:leaf=0.0613101013
			14:leaf=0.0113968588
booster[19]:
0:[looper_jet1Pt<57.140358] yes=1,no=2,missing=1
	1:[looper_jet1Pt<30.0346909] yes=3,no=4,missing=3
		3:[looper_vecsum_pt_4l<79.677475] yes=7,no=8,missing=7
			7:leaf=0.0808565766
			8:leaf=0.0569148175
		4:[looper_minDRJetToLep4<3.06476593] yes=9,no=10,missing=9
			9:leaf=0.00561872032
			10:leaf=0.0483504497
	2:[looper_minDRJetToLep3<1.27788508] yes=5,no=6,missing=5
		5:[looper_MllN<44.8106766] yes=11,no=12,missing=11
			11:leaf=-0.00690658391
			12:leaf=-0.0625759885
		6:[looper_lep3Pt<91.7867508] yes=13,no=14,missing=13
			13:leaf=-0.0251346119
			14:leaf=0.0294717997
booster[20]:
0:[looper_jet1Pt<34.9000168] yes=1,no=2,missing=1
	1:[looper_minDRJetToLep3<0.586557031] yes=3,no=4,missing=3
		3:[looper_MllN<48.9420319] yes=7,no=8,missing=7
			7:leaf=0.0907746181
			8:leaf=0.0611770637
		4:[looper_mt2<107.573227] yes=9,no=10,missing=9
			9:leaf=0.0340595357
			10:leaf=-0.153165385
	2:[looper_minDRJetToLep4<1.97180319] yes=5,no=6,missing=5
		5:[looper_MllN<47.6915588] yes=11,no=12,missing=11
			11:leaf=0.0153317228
			12:leaf=-0.0404066555
		6:[looper_lep4Pt<73.3781357] yes=13,no=14,missing=13
			13:leaf=0.00337523036
			14:leaf=0.0808089897
booster[21]:
0:[looper_jet1Pt<59.4049492] yes=1,no=2,missing=1
	1:[looper_jet1Pt<30.0346909] yes=3,no=4,missing=3
		3:[looper_vecsum_pt_4l<64.849411] yes=7,no=8,missing=7
			7:leaf=0.078531228
			8:leaf=0.0526936464
		4:[looper_MllN<40.8129654] yes=9,no=10,missing=9
			9:leaf=0.0723593906
			10:leaf=0.0099065816
	2:[looper_minDRJetToLep3<1.27788508] yes=5,no=6,missing=5
		5:[looper_scalarsum_pt_4l<616.812439] yes=11,no=12,missing=11
			11:leaf=-0.0570948385
			12:leaf=0.0104295788
		6:[looper_jet1Pt<190.502899] yes=13,no=14,missing=13
			13:leaf=-0.0172521994
			14:leaf=0.0482903309
booster[22]:
0:[looper_jet1Pt<59.4049492] yes=1,no=2,missing=1
	1:[looper_jet1Pt<30.0346909] yes=3,no=4,missing=3
		3:[looper_MllN<48.9420319] yes=7,no=8,missing=7
			7:leaf=0.0865083262
			8:leaf=0.0545452908
		4:[looper_scalarsum_pt_4l<451.064575] yes=9,no=10,missing=9
			9:leaf=0.0098373564
			10:leaf=0.0764915347
	2:[looper_minDRJetToLep4<1.54200149] yes=5,no=6,missing=5
		5:[looper_lep3Pt<243.74231] yes=11,no=12,missing=11
			11:leaf=-0.0465645865
			12:leaf=0.034311071
		6:[looper_lep4Pt<58.0057526] yes=13,no=14,missing=13
			13:leaf=-0.0101663619
			14:leaf=0.054722663
booster[23]:
0:[looper_jet1Pt<34.9000168] yes=1,no=2,missing=1
	1:[looper_vecsum_pt_4l<90.4266205] yes=3,no=4,missing=3
		3:[looper_minDRJetToLep4<0.569330752] yes=7,no=8,missing=7
			7:leaf=0.0683150217
			8:leaf=0.0423832051
		4:[looper_mt2<111.942291] yes=9,no=10,missing=9
			9:leaf=0.0319842361
			10:leaf=-0.142085254
	2:[looper_minDRJetToLep4<3.04270697] yes=5,no=6,missing=5
		5:[looper_lep3Pt<155.766571] yes=11,no=12,missing=11
			11:leaf=-0.0269747023
			12:leaf=0.0272739716
		6:[looper_MllN<57.7249832] yes=13,no=14,missing=13
			13:leaf=0.0639732406
			14:leaf=0.0178867374
booster[24]:
0:[looper_jet1Pt<60.4386597] yes=1,no=2,missing=1
	1:[looper_jet1Pt<30.0346909] yes=3,no=4,missing=3
		3:[looper_MllN<48.9420319] yes=7,no=8,missing=7
			7:leaf=0.0824274644
			8:leaf=0.0483217686
		4:[looper_vecsum_pt_4l<69.4949036] yes=9,no=10,missing=9
			9:leaf=0.0380650759
			10:leaf=-0.00175690057
	2:[looper_minDRJetToLep3<1.23199129] yes=5,no=6,missing=5
		5:[looper_MllN<57.9178619] yes=11,no=12,missing=11
			11:leaf=-0.0119347526
			12:leaf=-0.0572118871
		6:[looper_jet1Pt<217.78476] yes=13,no=14,missing=13
			13:leaf=-0.0122746369
			14:leaf=0.0549048185
booster[25]:
0:[looper_MllN<48.2898483] yes=1,no=2,missing=1
	1:[looper_scalarsum_pt_4l<228.206116] yes=3,no=4,missing=3
		3:[looper_jet1Pt<64.3734589] yes=7,no=8,missing=7
			7:leaf=0.049496036
			8:leaf=-0.0102105467
		4:[looper_lep4Pt<22.4374504] yes=9,no=10,missing=9
			9:leaf=0.0349111706
			10:leaf=0.0942792967
	2:[looper_lep3Pt<193.145172] yes=5,no=6,missing=5
		5:[looper_jet1Pt<31.3540497] yes=11,no=12,missing=11
			11:leaf=0.0397135392
			12:leaf=-0.0215076488
		6:[looper_scalarsum_pt_4l<644.893921] yes=13,no=14,missing=13
			13:leaf=0.0376903228
			14:leaf=0.0939692631
booster[26]:
0:[looper_jet1Pt<63.9806824] yes=1,no=2,missing=1
	1:[looper_vecsum_pt_4l<94.5488129] yes=3,no=4,missing=3
		3:[looper_MllN<68.1639862] yes=7,no=8,missing=7
			7:leaf=0.0596061759
			8:leaf=0.0269939359
		4:[looper_scalarsum_pt_4l<451.043396] yes=9,no=10,missing=9
			9:leaf=-0.0113038821
			10:leaf=0.0586191379
	2:[looper_minDRJetToLep4<1.38761568] yes=5,no=6,missing=5
		5:[looper_minDRJetToLep3<1.42309141] yes=11,no=12,missing=11
			11:leaf=-0.0606571808
			12:leaf=-0.0283172224
		6:[looper_jet1Pt<252.059814] yes=13,no=14,missing=13
			13:leaf=-0.00684705144
			14:leaf=0.0640379116
booster[27]:
0:[looper_MllN<57.7113113] yes=1,no=2,missing=1
	1:[looper_scalarsum_pt_4l<219.47937] yes=3,no=4,missing=3
		3:[looper_jet1Pt<64.5610809] yes=7,no=8,missing=7
			7:leaf=0.0363464355
			8:leaf=-0.015273829
		4:[looper_vecsum_pt_4l<154.591095] yes=9,no=10,missing=9
			9:leaf=0.0789438263
			10:leaf=0.0274876356
	2:[looper_lep3Pt<145.602051] yes=5,no=6,missing=5
		5:[looper_jet1Pt<32.5608673] yes=11,no=12,missing=11
			11:leaf=0.0302595533
			12:leaf=-0.0257589798
		6:[looper_lep3Pt<286.409424] yes=13,no=14,missing=13
			13:leaf=0.0222969782
			14:leaf=0.0868678987
booster[28]:
0:[looper_jet1Pt<30.5859871] yes=1,no=2,missing=1
	1:[looper_vecsum_pt_4l<63.223732] yes=3,no=4,missing=3
		3:[looper_ZPt<138.388916] yes=7,no=8,missing=7
			7:leaf=0.0587772802
			8:leaf=0.0887419656
		4:[looper_MllN<69.3281403] yes=9,no=10,missing=9
			9:leaf=0.0570820756
			10:leaf=0.0182070192
	2:[looper_minDRJetToLep3<2.84179044] yes=5,no=6,missing=5
		5:[looper_scalarsum_pt_4l<336.954468] yes=11,no=12,missing=11
			11:leaf=-0.028935438
			12:leaf=0.00874288846
		6:[looper_jet1Pt<214.341614] yes=13,no=14,missing=13
			13:leaf=0.0174065512
			14:leaf=0.0666127801
booster[29]:
0:[looper_MllN<48.2898483] yes=1,no=2,missing=1
	1:[looper_scalarsum_pt_4l<260.971619] yes=3,no=4,missing=3
		3:[looper_minDRJetToLep3<0.40573296] yes=7,no=8,missing=7
			7:leaf=0.068092607
			8:leaf=0.0114770094
		4:[looper_lep4Pt<24.3705177] yes=9,no=10,missing=9
			9:leaf=0.0321632959
			10:leaf=0.0948201641
	2:[looper_lep3Pt<102.47261] yes=5,no=6,missing=5
		5:[looper_jet1Pt<32.6920853] yes=11,no=12,missing=11
			11:leaf=0.0291704629
			12:leaf=-0.026531795
		6:[looper_lep4Pt<119.745102] yes=13,no=14,missing=13
			13:leaf=0.0101241218
			14:leaf=0.0720042884
booster[30]:
0:[looper_minDRJetToLep4<3.03791094] yes=1,no=2,missing=1
	1:[looper_jet1Pt<30.0345955] yes=3,no=4,missing=3
		3:[looper_vecsum_pt_4l<64.849411] yes=7,no=8,missing=7
			7:leaf=0.0594619997
			8:leaf=0.0274781231
		4:[looper_minDRJetToLep3<1.21653891] yes=9,no=10,missing=9
			9:leaf=-0.0433389954
			10:leaf=-0.00439926842
	2:[looper_jet1Pt<233.076996] yes=5,no=6,missing=5
		5:[looper_lep4Pt<85.049057] yes=11,no=12,missing=11
			11:leaf=0.0194328576
			12:leaf=0.0748838112
		6:[looper_minDRJetToLep3<0.804086804] yes=13,no=14,missing=13
			13:leaf=0.0041998052
			14:leaf=0.0943337753
booster[31]:
0:[looper_MllN<57.8244171] yes=1,no=2,missing=1
	1:[looper_lep4Pt<36.1804695] yes=3,no=4,missing=3
		3:[looper_jet1Pt<71.0390701] yes=7,no=8,missing=7
			7:leaf=0.0350180939
			8:leaf=0.00301234517
		4:[looper_lep3Pt<58.1275902] yes=9,no=10,missing=9
			9:leaf=0.0330563448
			10:leaf=0.0895371363
	2:[looper_lep4Pt<73.0378342] yes=5,no=6,missing=5
		5:[looper_jet1Pt<52.495369] yes=11,no=12,missing=11
			11:leaf=0.00779794483
			12:leaf=-0.0234975796
		6:[looper_minDRJetToLep4<1.27121973] yes=13,no=14,missing=13
			13:leaf=-0.000218273562
			14:leaf=0.0550387986
booster[32]:
0:[looper_scalarsum_pt_4l<576.391235] yes=1,no=2,missing=1
	1:[looper_MllN<68.3562927] yes=3,no=4,missing=3
		3:[looper_lep4Pt<34.6017456] yes=7,no=8,missing=7
			7:leaf=0.0106708109
			8:leaf=0.0560592413
		4:[looper_lep3Pt<92.2801666] yes=9,no=10,missing=9
			9:leaf=-0.0269401353
			10:leaf=0.00274647539
	2:[looper_minDRJetToLep3<1.04494667] yes=5,no=6,missing=5
		5:[looper_jet1Pt<31.8592224] yes=11,no=12,missing=11
			11:leaf=0.0737384781
			12:leaf=-0.0183856767
		6:[looper_minDRJetToLep4<1.11086965] yes=13,no=14,missing=13
			13:leaf=0.0254642814
			14:leaf=0.102920286
booster[33]:
0:[looper_minDRJetToLep4<3.18454885] yes=1,no=2,missing=1
	1:[looper_jet1Pt<30.0345955] yes=3,no=4,missing=3
		3:[looper_vecsum_pt_4l<64.849411] yes=7,no=8,missing=7
			7:leaf=0.0558808334
			8:leaf=0.0238398761
		4:[looper_minDRJetToLep3<1.21653891] yes=9,no=10,missing=9
			9:leaf=-0.0391328298
			10:leaf=-0.00311942003
	2:[looper_jet1Pt<180.549744] yes=5,no=6,missing=5
		5:[looper_vecsum_pt_4l<79.9370804] yes=11,no=12,missing=11
			11:leaf=0.0406020693
			12:leaf=0.00981205143
		6:[looper_minDRJetToLep3<0.964496434] yes=13,no=14,missing=13
			13:leaf=-0.00256374222
			14:leaf=0.078744255
booster[34]:
0:[looper_MllN<36.4479866] yes=1,no=2,missing=1
	1:[looper_ZPt<113.018234] yes=3,no=4,missing=3
		3:[looper_vecsum_pt_4l<71.2845459] yes=7,no=8,missing=7
			7:leaf=0.0432449393
			8:leaf=-0.00510932272
		4:[looper_vecsum_pt_4l<155.355133] yes=9,no=10,missing=9
			9:leaf=0.0919407159
			10:leaf=0.0242799204
	2:[looper_scalarsum_pt_4l<480.599243] yes=5,no=6,missing=5
		5:[looper_minDRJetToLep3<3.19762921] yes=11,no=12,missing=11
			11:leaf=-0.0161696505
			12:leaf=0.0184403565
		6:[looper_minDRJetToLep3<1.16454852] yes=13,no=14,missing=13
			13:leaf=0.000369788351
			14:leaf=0.057397753
booster[35]:
0:[looper_scalarsum_pt_4l<576.391235] yes=1,no=2,missing=1
	1:[looper_MllN<76.1176682] yes=3,no=4,missing=3
		3:[looper_scalarsum_pt_4l<280.510132] yes=7,no=8,missing=7
			7:leaf=0.00578596536
			8:leaf=0.0405185446
		4:[looper_lep3Pt<71.8715668] yes=9,no=10,missing=9
			9:leaf=-0.0331119932
			10:leaf=-0.00260473834
	2:[looper_minDRJetToLep3<1.04494667] yes=5,no=6,missing=5
		5:[looper_jet1Pt<99.084671] yes=11,no=12,missing=11
			11:leaf=0.054076191
			12:leaf=-0.0241681132
		6:[looper_minDRJetToLep4<1.17131364] yes=13,no=14,missing=13
			13:leaf=0.0214621872
			14:leaf=0.0917457864
booster[36]:
0:[looper_jet1Pt<63.9806824] yes=1,no=2,missing=1
	1:[looper_vecsum_pt_4l<110.067604] yes=3,no=4,missing=3
		3:[looper_scalarsum_pt_4l<350.812073] yes=7,no=8,missing=7
			7:leaf=0.0216665063
			8:leaf=0.059737213
		4:[looper_scalarsum_pt_4l<377.813965] yes=9,no=10,missing=9
			9:leaf=-0.0246506259
			10:leaf=0.023889469
	2:[looper_minDRJetToLep4<1.38761568] yes=5,no=6,missing=5
		5:[looper_minDRJetToLep3<1.44018006] yes=11,no=12,missing=11
			11:leaf=-0.0511304401
			12:leaf=-0.0218952727
		6:[looper_jet1Pt<179.44455] yes=13,no=14,missing=13
			13:leaf=-0.00757367909
			14:leaf=0.0373827592
booster[37]:
0:[looper_minDRJetToLep4<3.18454885] yes=1,no=2,missing=1
	1:[looper_jet1Pt<30.0345955] yes=3,no=4,missing=3
		3:[looper_vecsum_pt_4l<64.849411] yes=7,no=8,missing=7
			7:leaf=0.0521831773
			8:leaf=0.0211976841
		4:[looper_minDRJetToLep3<1.20667505] yes=9,no=10,missing=9
			9:leaf=-0.0347560644
			10:leaf=-0.00300708856
	2:[looper_jet1Pt<151.326904] yes=5,no=6,missing=5
		5:[looper_vecsum_pt_4l<136.77655] yes=11,no=12,missing=11
			11:leaf=0.0268155169
			12:leaf=-0.00765887043
		6:[looper_minDRJetToLep3<1.04609799] yes=13,no=14,missing=13
			13:leaf=-0.00745681906
			14:leaf=0.0630402267
booster[38]:
0:[looper_MllN<43.3317337] yes=1,no=2,missing=1
	1:[looper_scalarsum_pt_4l<218.882965] yes=3,no=4,missing=3
		3:[looper_vecsum_pt_4l<109.953392] yes=7,no=8,missing=7
			7:leaf=0.0220286828
			8:leaf=-0.0287743956
		4:[looper_vecsum_pt_4l<154.584869] yes=9,no=10,missing=9
			9:leaf=0.0716641843
			10:leaf=0.0233644843
	2:[looper_lep3Pt<100.036118] yes=5,no=6,missing=5
		5:[looper_MllN<147.150818] yes=11,no=12,missing=11
			11:leaf=-0.00792328827
			12:leaf=-0.0420466885
		6:[looper_lep3Pt<259.786682] yes=13,no=14,missing=13
			13:leaf=0.00783950556
			14:leaf=0.0584188476
booster[39]:
0:[looper_minDRJetToLep3<3.19762921] yes=1,no=2,missing=1
	1:[looper_jet1Pt<30.0345573] yes=3,no=4,missing=3
		3:[looper_vecsum_pt_4l<78.2412415] yes=7,no=8,missing=7
			7:leaf=0.0459057242
			8:leaf=0.0160968006
		4:[looper_minDRJetToLep4<1.52415287] yes=9,no=10,missing=9
			9:leaf=-0.0278231706
			10:leaf=0.000299475505
	2:[looper_jet1Pt<214.341614] yes=5,no=6,missing=5
		5:[looper_vecsum_pt_4l<126.506699] yes=11,no=12,missing=11
			11:leaf=0.0307473335
			12:leaf=-0.00605679955
		6:[looper_MllN<264.375061] yes=13,no=14,missing=13
			13:leaf=0.079331778
			14:leaf=0.000177026814
booster[40]:
0:[looper_lep4Pt<73.0378342] yes=1,no=2,missing=1
	1:[looper_MllN<76.1176682] yes=3,no=4,missing=3
		3:[looper_scalarsum_pt_4l<260.971619] yes=7,no=8,missing=7
			7:leaf=0.0031602371
			8:leaf=0.0315965265
		4:[looper_jet1Pt<306.753296] yes=9,no=10,missing=9
			9:leaf=-0.0174151119
			10:leaf=0.0324187502
	2:[looper_minDRJetToLep4<1.23597527] yes=5,no=6,missing=5
		5:[looper_jet1Pt<76.5978241] yes=11,no=12,missing=11
			11:leaf=0.0362514518
			12:leaf=-0.0309497602
		6:[looper_minDRJetToLep3<1.206828] yes=13,no=14,missing=13
			13:leaf=0.00433096616
			14:leaf=0.0602352917
booster[41]:
0:[looper_scalarsum_pt_4l<645.825317] yes=1,no=2,missing=1
	1:[looper_MllN<68.3565521] yes=3,no=4,missing=3
		3:[looper_lep4Pt<34.6017456] yes=7,no=8,missing=7
			7:leaf=0.0062634307
			8:leaf=0.0451903045
		4:[looper_lep4Pt<56.0387115] yes=9,no=10,missing=9
			9:leaf=-0.0163485389
			10:leaf=0.0098235039
	2:[looper_minDRJetToLep3<0.997051775] yes=5,no=6,missing=5
		5:[looper_scalarsum_pt_4l<867.658813] yes=11,no=12,missing=11
			11:leaf=-0.00733167399
			12:leaf=0.0763552561
		6:[looper_scalarsum_pt_4l<931.950928] yes=13,no=14,missing=13
			13:leaf=0.0738081336
			14:leaf=0.131774127
booster[42]:
0:[looper_minDRJetToLep4<2.87652254] yes=1,no=2,missing=1
	1:[looper_jet1Pt<30.0345955] yes=3,no=4,missing=3
		3:[looper_vecsum_pt_4l<63.223732] yes=7,no=8,missing=7
			7:leaf=0.0473233126
			8:leaf=0.0176959932
		4:[looper_minDRJetToLep3<1.90574217] yes=9,no=10,missing=9
			9:leaf=-0.0228892807
			10:leaf=0.00151453889
	2:[looper_jet1Pt<236.27652] yes=5,no=6,missing=5
		5:[looper_vecsum_pt_4l<105.897873] yes=11,no=12,missing=11
			11:leaf=0.0265442468
			12:leaf=0.00142744323
		6:[looper_MllN<201.983246] yes=13,no=14,missing=13
			13:leaf=0.0784091875
			14:leaf=0.0234372988
booster[43]:
0:[looper_lep3Pt<211.940323] yes=1,no=2,missing=1
	1:[looper_MllN<36.4479866] yes=3,no=4,missing=3
		3:[looper_ZPt<113.018234] yes=7,no=8,missing=7
			7:leaf=0.010356145
			8:leaf=0.047031682
		4:[looper_minDRJetToLep3<2.78395486] yes=9,no=10,missing=9
			9:leaf=-0.0125613334
			10:leaf=0.00990071427
	2:[looper_minDRJetToLep3<1.11362648] yes=5,no=6,missing=5
		5:[looper_jet1Pt<86.6566849] yes=11,no=12,missing=11
			11:leaf=0.0484287404
			12:leaf=-0.0286864024
		6:[looper_minDRJetToLep4<0.946708977] yes=13,no=14,missing=13
			13:leaf=0.00265849405
			14:leaf=0.0641159043
booster[44]:
0:[looper_scalarsum_pt_4l<645.825317] yes=1,no=2,missing=1
	1:[looper_minDRJetToLep3<3.59572506] yes=3,no=4,missing=3
		3:[looper_jet1Pt<30.0345573] yes=7,no=8,missing=7
			7:leaf=0.0264830645
			8:leaf=-0.0090206638
		4:[looper_vecsum_pt_4l<114.98233] yes=9,no=10,missing=9
			9:leaf=0.0331756733
			10:leaf=0.00699690217
	2:[looper_minDRJetToLep3<0.997051775] yes=5,no=6,missing=5
		5:[looper_scalarsum_pt_4l<879.060303] yes=11,no=12,missing=11
			11:leaf=-0.00532890297
			12:leaf=0.0738668591
		6:[looper_scalarsum_pt_4l<931.950928] yes=13,no=14,missing=13
			13:leaf=0.0658837482
			14:leaf=0.123464361
booster[45]:
0:[looper_minDRJetToLep4<3.70931268] yes=1,no=2,missing=1
	1:[looper_jet1Pt<307.377563] yes=3,no=4,missing=3
		3:[looper_jet1Pt<63.9828033] yes=7,no=8,missing=7
			7:leaf=0.00886533316
			8:leaf=-0.0138622392
		4:[looper_minDRJetToLep3<0.902101278] yes=9,no=10,missing=9
			9:leaf=-0.0293018799
			10:leaf=0.0557754524
	2:[looper_minDRJetToLep4<5.8777566] yes=5,no=6,missing=5
		5:[looper_mt2<66.6027298] yes=11,no=12,missing=11
			11:leaf=0.0265203323
			12:leaf=-0.00626428938
		6:[looper_minDRJetToLep4<6.45773411] yes=13,no=14,missing=13
			13:leaf=0.0594076812
			14:leaf=0.120587938
booster[46]:
0:[looper_lep4Pt<84.9430161] yes=1,no=2,missing=1
	1:[looper_MllN<84.7538605] yes=3,no=4,missing=3
		3:[looper_scalarsum_pt_4l<281.534485] yes=7,no=8,missing=7
			7:leaf=0.00224992144
			8:leaf=0.0286892634
		4:[looper_lep3Pt<69.832428] yes=9,no=10,missing=9
			9:leaf=-0.0308674108
			10:leaf=-0.00374617684
	2:[looper_minDRJetToLep4<1.18889582] yes=5,no=6,missing=5
		5:[looper_jet1Pt<70.1279907] yes=11,no=12,missing=11
			11:leaf=0.0322534852
			12:leaf=-0.0278347917
		6:[looper_minDRJetToLep3<1.07636273] yes=13,no=14,missing=13
			13:leaf=0.00946949702
			14:leaf=0.0593981817
booster[47]:
0:[looper_MllN<36.1610832] yes=1,no=2,missing=1
	1:[looper_mt2<55.3096695] yes=3,no=4,missing=3
		3:[looper_scalarsum_pt_4l<234.743698] yes=7,no=8,missing=7
			7:leaf=0.0214742199
			8:leaf=0.0575329661
		4:[looper_lep4Pt<43.7992477] yes=9,no=10,missing=9
			9:leaf=-0.0076024197
			10:leaf=0.0679203495
	2:[looper_lep3Pt<92.5202942] yes=5,no=6,missing=5
		5:[looper_MllN<127.011749] yes=11,no=12,missing=11
			11:leaf=-0.00390882604
			12:leaf=-0.0336764306
		6:[looper_minDRJetToLep3<1.2035569] yes=13,no=14,missing=13
			13:leaf=-0.0110571999
			14:leaf=0.0181815606
booster[48]:
0:[looper_vecsum_pt_4l<64.8468781] yes=1,no=2,missing=1
	1:[looper_jet1Pt<72.6301422] yes=3,no=4,missing=3
		3:[looper_lep3Pt<175.049744] yes=7,no=8,missing=7
			7:leaf=0.0267295986
			8:leaf=0.0716235265
		4:[looper_minDRJetToLep3<1.97549486] yes=9,no=10,missing=9
			9:leaf=-0.026487032
			10:leaf=0.0111591285
	2:[looper_jet1Pt<253.284698] yes=5,no=6,missing=5
		5:[looper_minDRJetToLep4<3.70931268] yes=11,no=12,missing=11
			11:leaf=-0.0120677678
			12:leaf=0.0168097541
		6:[looper_minDRJetToLep3<1.01951456] yes=13,no=14,missing=13
			13:leaf=-0.0261732023
			14:leaf=0.0458539948
booster[49]:
0:[looper_lep4Pt<56.1719322] yes=1,no=2,missing=1
	1:[looper_MllN<105.339661] yes=3,no=4,missing=3
		3:[looper_jet1Pt<59.5016861] yes=7,no=8,missing=7
			7:leaf=0.0192851163
			8:leaf=-0.00236214022
		4:[looper_lep3Pt<79.2913055] yes=9,no=10,missing=9
			9:leaf=-0.0361881033
			10:leaf=-0.00814667623
	2:[looper_minDRJetToLep4<1.27840185] yes=5,no=6,missing=5
		5:[looper_jet1Pt<76.5672684] yes=11,no=12,missing=11
			11:leaf=0.0176090412
			12:leaf=-0.0289156474
		6:[looper_lep3Pt<272.981262] yes=13,no=14,missing=13
			13:leaf=0.0253289975
			14:leaf=0.0874356776
booster[50]:
0:[looper_jet1Pt<402.667969] yes=1,no=2,missing=1
	1:[looper_vecsum_pt_4l<100.110931] yes=3,no=4,missing=3
		3:[looper_jet1Pt<78.1653137] yes=7,no=8,missing=7
			7:leaf=0.0183427911
			8:leaf=-0.00635564188
		4:[looper_jet1Pt<151.210022] yes=9,no=10,missing=9
			9:leaf=-0.0173314456
			10:leaf=0.00673844898
	2:[looper_minDRJetToLep3<0.781151175] yes=5,no=6,missing=5
		5:[looper_ZPt<540.083984] yes=11,no=12,missing=11
			11:leaf=-0.0354770087
			12:leaf=0.104015402
		6:[looper_minDRJetToLep4<1.06655753] yes=13,no=14,missing=13
			13:leaf=0.0123972138
			14:leaf=0.0877259076
booster[51]:
0:[looper_minDRJetToLep4<2.73098469] yes=1,no=2,missing=1
	1:[looper_jet1Pt<30.0345955] yes=3,no=4,missing=3
		3:[looper_vecsum_pt_4l<135.204895] yes=7,no=8,missing=7
			7:leaf=0.0304456633
			8:leaf=-0.00463590771
		4:[looper_minDRJetToLep3<1.0561893] yes=9,no=10,missing=9
			9:leaf=-0.0306773316
			10:leaf=-0.00375161483
	2:[looper_lep4Pt<30.237318] yes=5,no=6,missing=5
		5:[looper_MllN<102.422112] yes=11,no=12,missing=11
			11:leaf=0.00975424238
			12:leaf=-0.03301825
		6:[looper_jet1Pt<130.070663] yes=13,no=14,missing=13
			13:leaf=0.0154796783
			14:leaf=0.0443682671
booster[52]:
0:[looper_scalarsum_pt_4l<614.26709] yes=1,no=2,missing=1
	1:[looper_MllN<36.1610832] yes=3,no=4,missing=3
		3:[looper_ZPt<113.018234] yes=7,no=8,missing=7
			7:leaf=0.00713405479
			8:leaf=0.0385083109
		4:[looper_minDRJetToLep3<2.64087582] yes=9,no=10,missing=9
			9:leaf=-0.0103084557
			10:leaf=0.00784137193
	2:[looper_lep3Pt<317.094788] yes=5,no=6,missing=5
		5:[looper_jet1Pt<398.028015] yes=11,no=12,missing=11
			11:leaf=0.0128765656
			12:leaf=0.0965120643
		6:[looper_lep4Pt<22.7762756] yes=13,no=14,missing=13
			13:leaf=0.00501236599
			14:leaf=0.0827671215
booster[53]:
0:[looper_scalarsum_pt_4l<453.069] yes=1,no=2,missing=1
	1:[looper_vecsum_pt_4l<100.110931] yes=3,no=4,missing=3
		3:[looper_jet1Pt<73.1941376] yes=7,no=8,missing=7
			7:leaf=0.0152808204
			8:leaf=-0.00571551826
		4:[looper_jet1Pt<133.109558] yes=9,no=10,missing=9
			9:leaf=-0.0221266281
			10:leaf=0.00636856025
	2:[looper_minDRJetToLep3<1.06930304] yes=5,no=6,missing=5
		5:[looper_jet1Pt<31.8592224] yes=11,no=12,missing=11
			11:leaf=0.0426155291
			12:leaf=-0.0169202629
		6:[looper_minDRJetToLep4<1.17376781] yes=13,no=14,missing=13
			13:leaf=-0.00247846125
			14:leaf=0.0456497483
booster[54]:
0:[looper_minDRJetToLep3<3.59572506] yes=1,no=2,missing=1
	1:[looper_scalarsum_pt_4l<378.30072] yes=3,no=4,missing=3
		3:[looper_jet1Pt<30.0345573] yes=7,no=8,missing=7
			7:leaf=0.0203375593
			8:leaf=-0.0103524551
		4:[looper_minDRJetToLep4<1.27133942] yes=9,no=10,missing=9
			9:leaf=-0.00693832571
			10:leaf=0.0251154359
	2:[looper_lep3Pt<223.030212] yes=5,no=6,missing=5
		5:[looper_ZPt<192.630066] yes=11,no=12,missing=11
			11:leaf=0.0214114487
			12:leaf=-0.0121224597
		6:[looper_MllN<111.524231] yes=13,no=14,missing=13
			13:leaf=-0.00602956442
			14:leaf=0.0883286223
booster[55]:
0:[looper_MllN<57.7113113] yes=1,no=2,missing=1
	1:[looper_ZPt<89.6051636] yes=3,no=4,missing=3
		3:[looper_vecsum_pt_4l<54.9532204] yes=7,no=8,missing=7
			7:leaf=0.0127062192
			8:leaf=-0.0171710737
		4:[looper_vecsum_pt_4l<126.207359] yes=9,no=10,missing=9
			9:leaf=0.0491268337
			10:leaf=0.00711482391
	2:[looper_lep3Pt<71.310318] yes=5,no=6,missing=5
		5:[looper_MllN<127.056137] yes=11,no=12,missing=11
			11:leaf=-0.00902705453
			12:leaf=-0.0406031758
		6:[looper_minDRJetToLep3<1.49118471] yes=13,no=14,missing=13
			13:leaf=-0.00966904499
			14:leaf=0.0102319848
booster[56]:
0:[looper_jet1Pt<402.667969] yes=1,no=2,missing=1
	1:[looper_vecsum_pt_4l<114.987717] yes=3,no=4,missing=3
		3:[looper_jet1Pt<78.1653137] yes=7,no=8,missing=7
			7:leaf=0.0135353804
			8:leaf=-0.00463106763
		4:[looper_jet1Pt<140.328247] yes=9,no=10,missing=9
			9:leaf=-0.0185375568
			10:leaf=0.00507868687
	2:[looper_minDRJetToLep3<0.781151175] yes=5,no=6,missing=5
		5:[looper_ZPt<540.083984] yes=11,no=12,missing=11
			11:leaf=-0.0314161889
			12:leaf=0.0877856016
		6:[looper_minDRJetToLep4<1.06655753] yes=13,no=14,missing=13
			13:leaf=0.0106202364
			14:leaf=0.0763707459
booster[57]:
0:[looper_minDRJetToLep4<2.17891979] yes=1,no=2,missing=1
	1:[looper_jet1Pt<30.0411911] yes=3,no=4,missing=3
		3:[looper_scalarsum_pt_4l<159.012421] yes=7,no=8,missing=7
			7:leaf=0.0630431995
			8:leaf=0.0167665482
		4:[looper_minDRJetToLep3<3.59520316] yes=9,no=10,missing=9
			9:leaf=-0.0133818043
			10:leaf=0.0191708747
	2:[looper_lep4Pt<25.9945869] yes=5,no=6,missing=5
		5:[looper_MllN<75.515358] yes=11,no=12,missing=11
			11:leaf=0.00254306383
			12:leaf=-0.0272480231
		6:[looper_jet1Pt<120.943665] yes=13,no=14,missing=13
			13:leaf=0.00830988679
			14:leaf=0.0376108959
booster[58]:
0:[looper_MllN<71.6874084] yes=1,no=2,missing=1
	1:[looper_lep4Pt<34.1228065] yes=3,no=4,missing=3
		3:[looper_minDRJetToLep3<4.23758554] yes=7,no=8,missing=7
			7:leaf=0.000372914044
			8:leaf=0.0411844924
		4:[looper_scalarsum_pt_4l<282.380066] yes=9,no=10,missing=9
			9:leaf=0.0144135682
			10:leaf=0.0599843673
	2:[looper_lep3Pt<201.522232] yes=5,no=6,missing=5
		5:[looper_minDRJetToLep3<2.05193496] yes=11,no=12,missing=11
			11:leaf=-0.0156405084
			12:leaf=0.00056259922
		6:[looper_scalarsum_pt_4l<881.687256] yes=13,no=14,missing=13
			13:leaf=0.0175643321
			14:leaf=0.0889919698
booster[59]:
0:[looper_lep4Pt<136.569672] yes=1,no=2,missing=1
	1:[looper_MllN<145.645172] yes=3,no=4,missing=3
		3:[looper_lep3Pt<62.4790039] yes=7,no=8,missing=7
			7:leaf=-0.00557840429
			8:leaf=0.0136028873
		4:[looper_lep4Pt<44.1931381] yes=9,no=10,missing=9
			9:leaf=-0.031900119
			10:leaf=-0.00301103061
	2:[looper_minDRJetToLep4<0.911950231] yes=5,no=6,missing=5
		5:[looper_jet1Pt<80.5146332] yes=11,no=12,missing=11
			11:leaf=0.0632469133
			12:leaf=-0.0384306572
		6:[looper_mt2<196.665283] yes=13,no=14,missing=13
			13:leaf=0.0671311319
			14:leaf=-0.123724319
booster[60]:
0:[looper_MllN<27.3654518] yes=1,no=2,missing=1
	1:[looper_ZPt<107.549713] yes=3,no=4,missing=3
		3:[looper_vecsum_pt_4l<121.754944] yes=7,no=8,missing=7
			7:leaf=0.0246276464
			8:leaf=-0.0363980755
		4:[looper_vecsum_pt_4l<167.460907] yes=9,no=10,missing=9
			9:leaf=0.069148086
			10:leaf=0.00705127744
	2:[looper_lep3Pt<79.4383087] yes=5,no=6,missing=5
		5:[looper_MllN<127.056137] yes=11,no=12,missing=11
			11:leaf=-0.00383653003
			12:leaf=-0.0301650558
		6:[looper_minDRJetToLep3<1.20246792] yes=13,no=14,missing=13
			13:leaf=-0.00940939877
			14:leaf=0.0118787289
booster[61]:
0:[looper_minDRJetToLep4<3.70931268] yes=1,no=2,missing=1
	1:[looper_jet1Pt<30.0345955] yes=3,no=4,missing=3
		3:[looper_scalarsum_pt_4l<159.012421] yes=7,no=8,missing=7
			7:leaf=0.0609245561
			8:leaf=0.016365869
		4:[looper_minDRJetToLep4<0.99866879] yes=9,no=10,missing=9
			9:leaf=-0.0236008447
			10:leaf=-0.000695935683
	2:[looper_minDRJetToLep4<5.8777566] yes=5,no=6,missing=5
		5:[looper_mt2<66.6027298] yes=11,no=12,missing=11
			11:leaf=0.0193288606
			12:leaf=-0.0119210519
		6:[looper_minDRJetToLep4<6.45773411] yes=13,no=14,missing=13
			13:leaf=0.0501900986
			14:leaf=0.114726521
booster[62]:
0:[looper_jet1Pt<268.857056] yes=1,no=2,missing=1
	1:[looper_vecsum_pt_4l<118.784012] yes=3,no=4,missing=3
		3:[looper_lep3Pt<231.92363] yes=7,no=8,missing=7
			7:leaf=0.00458787987
			8:leaf=0.0583832748
		4:[looper_lep4Pt<35.9289169] yes=9,no=10,missing=9
			9:leaf=-0.0195737015
			10:leaf=-0.00212765089
	2:[looper_minDRJetToLep3<1.01500225] yes=5,no=6,missing=5
		5:[looper_ZPt<306.474915] yes=11,no=12,missing=11
			11:leaf=-0.0340515599
			12:leaf=0.0213685464
		6:[looper_minDRJetToLep4<1.09333062] yes=13,no=14,missing=13
			13:leaf=0.00176960311
			14:leaf=0.047754176
booster[63]:
0:[looper_lep4Pt<17.7654495] yes=1,no=2,missing=1
	1:[looper_MllN<84.7062378] yes=3,no=4,missing=3
		3:[looper_lep3Pt<63.5175667] yes=7,no=8,missing=7
			7:leaf=-0.0149362106
			8:leaf=0.00676533952
		4:[looper_lep3Pt<128.97081] yes=9,no=10,missing=9
			9:leaf=-0.0554218553
			10:leaf=-0.00813594088
	2:[looper_MllN<70.6600189] yes=5,no=6,missing=5
		5:[looper_ZPt<112.61113] yes=11,no=12,missing=11
			11:leaf=0.000936653581
			12:leaf=0.0286372099
		6:[looper_minDRJetToLep4<1.83716679] yes=13,no=14,missing=13
			13:leaf=-0.0100551108
			14:leaf=0.00630387245
booster[64]:
0:[looper_scalarsum_pt_4l<876.892578] yes=1,no=2,missing=1
	1:[looper_vecsum_pt_4l<56.1408463] yes=3,no=4,missing=3
		3:[looper_jet1Pt<64.9061127] yes=7,no=8,missing=7
			7:leaf=0.0244806912
			8:leaf=-0.00294983736
		4:[looper_jet1Pt<236.577454] yes=9,no=10,missing=9
			9:leaf=-0.00620028237
			10:leaf=0.0174769908
	2:[looper_minDRJetToLep4<0.655121922] yes=5,no=6,missing=5
		5:[looper_jet1Pt<193.20636] yes=11,no=12,missing=11
			11:leaf=0.0618074201
			12:leaf=-0.0777007565
		6:[looper_minDRJetToLep3<0.526444972] yes=13,no=14,missing=13
			13:leaf=0.000403425045
			14:leaf=0.105758987
booster[65]:
0:[looper_MllN<36.3058548] yes=1,no=2,missing=1
	1:[looper_mt2<55.4441833] yes=3,no=4,missing=3
		3:[looper_scalarsum_pt_4l<203.672745] yes=7,no=8,missing=7
			7:leaf=0.00903169531
			8:leaf=0.0402882732
		4:[looper_scalarsum_pt_4l<349.129944] yes=9,no=10,missing=9
			9:leaf=-0.010979698
			10:leaf=0.0564896874
	2:[looper_lep4Pt<56.1719322] yes=5,no=6,missing=5
		5:[looper_MllN<157.696106] yes=11,no=12,missing=11
			11:leaf=-0.00153764326
			12:leaf=-0.0259261336
		6:[looper_minDRJetToLep4<1.43331671] yes=13,no=14,missing=13
			13:leaf=-0.00590792997
			14:leaf=0.0220634807
booster[66]:
0:[looper_jet1Pt<402.667969] yes=1,no=2,missing=1
	1:[looper_vecsum_pt_4l<97.0873566] yes=3,no=4,missing=3
		3:[looper_jet1Pt<78.1673889] yes=7,no=8,missing=7
			7:leaf=0.0120886145
			8:leaf=-0.00304248719
		4:[looper_jet1Pt<151.210022] yes=9,no=10,missing=9
			9:leaf=-0.0117412871
			10:leaf=0.00506887399
	2:[looper_vecsum_pt_4l<335.229797] yes=5,no=6,missing=5
		5:[looper_minDRJetToLep4<0.996480942] yes=11,no=12,missing=11
			11:leaf=-0.0312823951
			12:leaf=0.0280304942
		6:[looper_mt2<139.259247] yes=13,no=14,missing=13
			13:leaf=0.0714187548
			14:leaf=-0.0873300582
booster[67]:
0:[looper_lep4Pt<152.554016] yes=1,no=2,missing=1
	1:[looper_MllN<192.722961] yes=3,no=4,missing=3
		3:[looper_scalarsum_pt_4l<343.657715] yes=7,no=8,missing=7
			7:leaf=-0.0014797356
			8:leaf=0.0186031368
		4:[looper_lep4Pt<65.4137421] yes=9,no=10,missing=9
			9:leaf=-0.0301229339
			10:leaf=-0.000283919624
	2:[looper_minDRJetToLep4<0.981984735] yes=5,no=6,missing=5
		5:[looper_jet1Pt<61.2638092] yes=11,no=12,missing=11
			11:leaf=0.0787656307
			12:leaf=-0.0243221987
		6:[looper_jet1Pt<45.6284294] yes=13,no=14,missing=13
			13:leaf=0.0111061847
			14:leaf=0.0822530165
booster[68]:
0:[looper_minDRJetToLep4<3.23992467] yes=1,no=2,missing=1
	1:[looper_jet1Pt<30.0345955] yes=3,no=4,missing=3
		3:[looper_scalarsum_pt_4l<159.012421] yes=7,no=8,missing=7
			7:leaf=0.0575785339
			8:leaf=0.0150637077
		4:[looper_minDRJetToLep3<1.44760799] yes=9,no=10,missing=9
			9:leaf=-0.0175368022
			10:leaf=0.000360817241
	2:[looper_minDRJetToLep4<5.8777566] yes=5,no=6,missing=5
		5:[looper_jet1Pt<151.326904] yes=11,no=12,missing=11
			11:leaf=0.00641136989
			12:leaf=0.0321744122
		6:[looper_minDRJetToLep4<6.45773411] yes=13,no=14,missing=13
			13:leaf=0.0460138284
			14:leaf=0.110758148
booster[69]:
0:[looper_lep4Pt<34.4058418] yes=1,no=2,missing=1
	1:[looper_MllN<105.427368] yes=3,no=4,missing=3
		3:[looper_minDRJetToLep3<4.29900837] yes=7,no=8,missing=7
			7:leaf=-0.00233981176
			8:leaf=0.0324081928
		4:[looper_lep3Pt<124.288696] yes=9,no=10,missing=9
			9:leaf=-0.0332069807
			10:leaf=-0.000412907539
	2:[looper_minDRJetToLep4<1.28281546] yes=5,no=6,missing=5
		5:[looper_jet1Pt<80.2201233] yes=11,no=12,missing=11
			11:leaf=0.00825324189
			12:leaf=-0.0228854101
		6:[looper_jet1Pt<120.943527] yes=13,no=14,missing=13
			13:leaf=0.00343011064
			14:leaf=0.0315022059
booster[70]:
0:[looper_scalarsum_pt_4l<881.687256] yes=1,no=2,missing=1
	1:[looper_MllN<27.3654518] yes=3,no=4,missing=3
		3:[looper_vecsum_pt_4l<167.468109] yes=7,no=8,missing=7
			7:leaf=0.0323792472
			8:leaf=0.0012162443
		4:[looper_lep4Pt<16.592659] yes=9,no=10,missing=9
			9:leaf=-0.0202443078
			10:leaf=0.000536153384
	2:[looper_minDRJetToLep4<0.655121922] yes=5,no=6,missing=5
		5:[looper_vecsum_pt_4l<229.128769] yes=11,no=12,missing=11
			11:leaf=0.0876857564
			12:leaf=-0.0490996055
		6:[looper_minDRJetToLep3<0.725160241] yes=13,no=14,missing=13
			13:leaf=0.0283350833
			14:leaf=0.107213788
booster[71]:
0:[looper_scalarsum_pt_4l<645.00647] yes=1,no=2,missing=1
	1:[looper_MllN<84.7538605] yes=3,no=4,missing=3
		3:[looper_scalarsum_pt_4l<236.260803] yes=7,no=8,missing=7
			7:leaf=-0.00247277669
			8:leaf=0.0168883633
		4:[looper_lep3Pt<46.920372] yes=9,no=10,missing=9
			9:leaf=-0.0380034111
			10:leaf=-0.0033880074
	2:[looper_minDRJetToLep3<0.866951227] yes=5,no=6,missing=5
		5:[looper_jet1Pt<31.8592224] yes=11,no=12,missing=11
			11:leaf=0.0520987026
			12:leaf=-0.0206904132
		6:[looper_lep3Pt<259.051208] yes=13,no=14,missing=13
			13:leaf=0.0256608482
			14:leaf=0.0685841963
booster[72]:
0:[looper_vecsum_pt_4l<64.8468781] yes=1,no=2,missing=1
	1:[looper_jet1Pt<64.9061127] yes=3,no=4,missing=3
		3:[looper_lep4Pt<13.8092804] yes=7,no=8,missing=7
			7:leaf=-0.0233131126
			8:leaf=0.0215415917
		4:[looper_minDRJetToLep4<1.3511517] yes=9,no=10,missing=9
			9:leaf=-0.0206934344
			10:leaf=0.00605440279
	2:[looper_jet1Pt<268.857056] yes=5,no=6,missing=5
		5:[looper_vecsum_pt_4l<163.119385] yes=11,no=12,missing=11
			11:leaf=-0.000484611577
			12:leaf=-0.014423891
		6:[looper_minDRJetToLep3<0.78896606] yes=13,no=14,missing=13
			13:leaf=-0.0298202727
			14:leaf=0.0268107746
booster[73]:
0:[looper_minDRJetToLep3<3.19762921] yes=1,no=2,missing=1
	1:[looper_scalarsum_pt_4l<329.355499] yes=3,no=4,missing=3
		3:[looper_jet1Pt<30.6724319] yes=7,no=8,missing=7
			7:leaf=0.0157832354
			8:leaf=-0.0105393734
		4:[looper_MllN<129.737808] yes=9,no=10,missing=9
			9:leaf=0.0232095104
			10:leaf=-0.00223272899
	2:[looper_ZPt<96.7930603] yes=5,no=6,missing=5
		5:[looper_jet1Pt<113.360947] yes=11,no=12,missing=11
			11:leaf=0.0136812674
			12:leaf=0.052608069
		6:[looper_MllN<188.895447] yes=13,no=14,missing=13
			13:leaf=0.00843527168
			14:leaf=-0.029819956
booster[74]:
0:[looper_lep4Pt<168.279175] yes=1,no=2,missing=1
	1:[looper_MllN<192.722961] yes=3,no=4,missing=3
		3:[looper_lep3Pt<72.675827] yes=7,no=8,missing=7
			7:leaf=-0.00437009754
			8:leaf=0.0104838917
		4:[looper_lep3Pt<143.665436] yes=9,no=10,missing=9
			9:leaf=-0.0261824559
			10:leaf=0.00273163687
	2:[looper_minDRJetToLep4<1.07107139] yes=5,no=6,missing=5
		5:[looper_jet1Pt<61.2638092] yes=11,no=12,missing=11
			11:leaf=0.0762278661
			12:leaf=-0.00914240815
		6:[looper_jet1Pt<34.5788078] yes=13,no=14,missing=13
			13:leaf=-0.0586741045
			14:leaf=0.0844396949
booster[75]:
0:[looper_lep4Pt<17.8890648] yes=1,no=2,missing=1
	1:[looper_MllN<84.7062378] yes=3,no=4,missing=3
		3:[looper_vecsum_pt_4l<204.278839] yes=7,no=8,missing=7
			7:leaf=-0.00128088426
			8:leaf=-0.0280064624
		4:[looper_lep3Pt<128.97081] yes=9,no=10,missing=9
			9:leaf=-0.0470549464
			10:leaf=-0.00729957223
	2:[looper_minDRJetToLep4<1.82615995] yes=5,no=6,missing=5
		5:[looper_jet1Pt<78.2086487] yes=11,no=12,missing=11
			11:leaf=0.00741774822
			12:leaf=-0.0133040342
		6:[looper_jet1Pt<153.567108] yes=13,no=14,missing=13
			13:leaf=0.00295468979
			14:leaf=0.0291258749
booster[76]:
0:[looper_MllN<46.0865898] yes=1,no=2,missing=1
	1:[looper_ZPt<113.018234] yes=3,no=4,missing=3
		3:[looper_vecsum_pt_4l<63.2880554] yes=7,no=8,missing=7
			7:leaf=0.013095649
			8:leaf=-0.0142411469
		4:[looper_vecsum_pt_4l<155.869843] yes=9,no=10,missing=9
			9:leaf=0.0504085533
			10:leaf=0.00283597736
	2:[looper_lep3Pt<102.47261] yes=5,no=6,missing=5
		5:[looper_MllN<154.541626] yes=11,no=12,missing=11
			11:leaf=-0.00278038229
			12:leaf=-0.0261603333
		6:[looper_minDRJetToLep3<1.2035569] yes=13,no=14,missing=13
			13:leaf=-0.00871875044
			14:leaf=0.0124426773
booster[77]:
0:[looper_vecsum_pt_4l<56.1408463] yes=1,no=2,missing=1
	1:[looper_jet1Pt<64.9061127] yes=3,no=4,missing=3
		3:[looper_MllN<30.6480236] yes=7,no=8,missing=7
			7:leaf=0.0587504469
			8:leaf=0.0168271493
		4:[looper_mt2<18.7843781] yes=9,no=10,missing=9
			9:leaf=-0.0195430946
			10:leaf=0.00851361733
	2:[looper_jet1Pt<402.667969] yes=5,no=6,missing=5
		5:[looper_lep3Pt<342.104126] yes=11,no=12,missing=11
			11:leaf=-0.00382840051
			12:leaf=0.0508653894
		6:[looper_vecsum_pt_4l<335.229797] yes=13,no=14,missing=13
			13:leaf=0.0107799498
			14:leaf=0.0572247617
booster[78]:
0:[looper_minDRJetToLep4<3.71726322] yes=1,no=2,missing=1
	1:[looper_lep3Pt<62.4791031] yes=3,no=4,missing=3
		3:[looper_jet1Pt<71.5685883] yes=7,no=8,missing=7
			7:leaf=0.00365144992
			8:leaf=-0.0186743662
		4:[looper_MllN<193.390167] yes=9,no=10,missing=9
			9:leaf=0.00747980876
			10:leaf=-0.00978312083
	2:[looper_minDRJetToLep4<6.18201065] yes=5,no=6,missing=5
		5:[looper_mt2<66.6027298] yes=11,no=12,missing=11
			11:leaf=0.0160411336
			12:leaf=-0.0131813167
		6:[looper_minDRJetToLep3<1.57472908] yes=13,no=14,missing=13
			13:leaf=-0.0312850885
			14:leaf=0.0911066458
booster[79]:
0:[looper_lep4Pt<90.8824768] yes=1,no=2,missing=1
	1:[looper_MllN<193.640991] yes=3,no=4,missing=3
		3:[looper_lep4Pt<34.4054985] yes=7,no=8,missing=7
			7:leaf=-0.00360181602
			8:leaf=0.00898769777
		4:[looper_ZPt<100.669174] yes=9,no=10,missing=9
			9:leaf=0.00189174456
			10:leaf=-0.0305056814
	2:[looper_mt2<175.797485] yes=5,no=6,missing=5
		5:[looper_minDRJetToLep4<0.988849282] yes=11,no=12,missing=11
			11:leaf=-0.00650015986
			12:leaf=0.0335529596
		6:leaf=-0.183163077
booster[80]:
0:[looper_MllN<57.7113113] yes=1,no=2,missing=1
	1:[looper_ZPt<89.6051636] yes=3,no=4,missing=3
		3:[looper_vecsum_pt_4l<71.3916473] yes=7,no=8,missing=7
			7:leaf=0.00233837264
			8:leaf=-0.018901391
		4:[looper_vecsum_pt_4l<154.622009] yes=9,no=10,missing=9
			9:leaf=0.0325363018
			10:leaf=-0.000684655912
	2:[looper_lep3Pt<193.145172] yes=5,no=6,missing=5
		5:[looper_minDRJetToLep3<2.05193496] yes=11,no=12,missing=11
			11:leaf=-0.0111197131
			12:leaf=0.00224565691
		6:[looper_vecsum_pt_4l<195.250702] yes=13,no=14,missing=13
			13:leaf=0.0283865333
			14:leaf=-0.000532636943
booster[81]:
0:[looper_lep4Pt<16.6546688] yes=1,no=2,missing=1
	1:[looper_MllN<75.2973633] yes=3,no=4,missing=3
		3:[looper_MllN<15.8337231] yes=7,no=8,missing=7
			7:leaf=0.0601615123
			8:leaf=-0.00781585276
		4:[looper_scalarsum_pt_4l<671.610229] yes=9,no=10,missing=9
			9:leaf=-0.0346730985
			10:leaf=0.10524831
	2:[looper_MllN<105.339661] yes=5,no=6,missing=5
		5:[looper_jet1Pt<172.136261] yes=11,no=12,missing=11
			11:leaf=0.00389829162
			12:leaf=0.0255055614
		6:[looper_lep3Pt<69.832428] yes=13,no=14,missing=13
			13:leaf=-0.0212439336
			14:leaf=0.000979175093
booster[82]:
0:[looper_vecsum_pt_4l<114.987717] yes=1,no=2,missing=1
	1:[looper_minDRJetToLep3<2.24619341] yes=3,no=4,missing=3
		3:[looper_jet1Pt<78.1653137] yes=7,no=8,missing=7
			7:leaf=0.00771913398
			8:leaf=-0.0137035996
		4:[looper_minDRJetToLep3<5.94944382] yes=9,no=10,missing=9
			9:leaf=0.0110054761
			10:leaf=0.0899621472
	2:[looper_jet1Pt<185.550385] yes=5,no=6,missing=5
		5:[looper_scalarsum_pt_4l<627.258911] yes=11,no=12,missing=11
			11:leaf=-0.0128420545
			12:leaf=0.0256736167
		6:[looper_minDRJetToLep3<1.00944686] yes=13,no=14,missing=13
			13:leaf=-0.0283376705
			14:leaf=0.0231257398
booster[83]:
0:[looper_mt2<150.711731] yes=1,no=2,missing=1
	1:[looper_lep4Pt<73.6438751] yes=3,no=4,missing=3
		3:[looper_MllN<191.596527] yes=7,no=8,missing=7
			7:leaf=0.000937770237
			8:leaf=-0.0203675907
		4:[looper_MllN<121.297852] yes=9,no=10,missing=9
			9:leaf=0.0750328824
			10:leaf=0.00984687824
	2:[looper_minDRJetToLep3<1.92548716] yes=5,no=6,missing=5
		5:[looper_MllN<104.244141] yes=11,no=12,missing=11
			11:leaf=-0.0961545557
			12:leaf=0.00202570483
		6:[looper_minDRJetToLep4<1.96154904] yes=13,no=14,missing=13
			13:leaf=-0.042571824
			14:leaf=-0.184009314
booster[84]:
0:[looper_scalarsum_pt_4l<881.687256] yes=1,no=2,missing=1
	1:[looper_MllN<27.3654518] yes=3,no=4,missing=3
		3:[looper_lep3Pt<36.6343307] yes=7,no=8,missing=7
			7:leaf=-0.000329253846
			8:leaf=0.0270171799
		4:[looper_lep4Pt<23.0829773] yes=9,no=10,missing=9
			9:leaf=-0.0101487702
			10:leaf=0.00150834862
	2:[looper_minDRJetToLep4<0.655121922] yes=5,no=6,missing=5
		5:[looper_vecsum_pt_4l<229.128769] yes=11,no=12,missing=11
			11:leaf=0.0825662464
			12:leaf=-0.0514868572
		6:[looper_minDRJetToLep3<0.789069533] yes=13,no=14,missing=13
			13:leaf=0.0291323569
			14:leaf=0.0971779451
booster[85]:
0:[looper_minDRJetToLep4<2.58199883] yes=1,no=2,missing=1
	1:[looper_minDRJetToLep3<3.5956583] yes=3,no=4,missing=3
		3:[looper_jet1Pt<30.0344887] yes=7,no=8,missing=7
			7:leaf=0.0149981622
			8:leaf=-0.00820886809
		4:[looper_jet1Pt<126.443848] yes=9,no=10,missing=9
			9:leaf=0.00651467312
			10:leaf=0.0523559041
	2:[looper_lep4Pt<20.0268097] yes=5,no=6,missing=5
		5:[looper_MllN<75.4077301] yes=11,no=12,missing=11
			11:leaf=-0.000588461466
			12:leaf=-0.0284058005
		6:[looper_jet1Pt<117.272888] yes=13,no=14,missing=13
			13:leaf=0.00548865367
			14:leaf=0.0240576975
booster[86]:
0:[looper_minDRJetToLep3<6.2058382] yes=1,no=2,missing=1
	1:[looper_jet1Pt<402.667969] yes=3,no=4,missing=3
		3:[looper_vecsum_pt_4l<146.137329] yes=7,no=8,missing=7
			7:leaf=0.00292015309
			8:leaf=-0.00819256064
		4:[looper_ZPt<524.741394] yes=9,no=10,missing=9
			9:leaf=0.0224853028
			10:leaf=0.100749128
	2:[looper_mt2<6.62468529] yes=5,no=6,missing=5
		5:leaf=-0.0270268805
		6:[looper_jet1Pt<31.4566917] yes=11,no=12,missing=11
			11:leaf=0.00624454999
			12:leaf=0.116116904
booster[87]:
0:[looper_scalarsum_pt_4l<991.336548] yes=1,no=2,missing=1
	1:[looper_MllN<77.3255844] yes=3,no=4,missing=3
		3:[looper_lep4Pt<66.8850555] yes=7,no=8,missing=7
			7:leaf=0.00430038758
			8:leaf=0.077993609
		4:[looper_lep3Pt<46.929657] yes=9,no=10,missing=9
			9:leaf=-0.0255530626
			10:leaf=-0.00161415769
	2:[looper_minDRJetToLep4<0.74928081] yes=5,no=6,missing=5
		5:[looper_jet1Pt<236.747314] yes=11,no=12,missing=11
			11:leaf=0.0628117472
			12:leaf=-0.0111635504
		6:[looper_mt2<95.2875366] yes=13,no=14,missing=13
			13:leaf=0.106306732
			14:leaf=0.00314305583
booster[88]:
0:[looper_mt2<150.711731] yes=1,no=2,missing=1
	1:[looper_lep4Pt<120.044495] yes=3,no=4,missing=3
		3:[looper_MllN<206.703354] yes=7,no=8,missing=7
			7:leaf=0.00154325541
			8:leaf=-0.0133836968
		4:[looper_minDRJetToLep4<0.911950231] yes=9,no=10,missing=9
			9:leaf=-0.00239666435
			10:leaf=0.0408050306
	2:[looper_MllN<113.511414] yes=5,no=6,missing=5
		5:[looper_jet1Pt<135.729736] yes=11,no=12,missing=11
			11:leaf=-0.17844893
			12:leaf=-0.0249406882
		6:[looper_jet1Pt<65.7363663] yes=13,no=14,missing=13
			13:leaf=0.0799295232
			14:leaf=-0.0803266391
booster[89]:
0:[looper_lep4Pt<34.4054985] yes=1,no=2,missing=1
	1:[looper_MllN<130.651505] yes=3,no=4,missing=3
		3:[looper_minDRJetToLep3<4.30683231] yes=7,no=8,missing=7
			7:leaf=-0.00280398782
			8:leaf=0.023982197
		4:[looper_minDRJetToLep3<3.8247664] yes=9,no=10,missing=9
			9:leaf=-0.0272727106
			10:leaf=0.0141189564
	2:[looper_minDRJetToLep4<1.28281546] yes=5,no=6,missing=5
		5:[looper_jet1Pt<90.8923492] yes=11,no=12,missing=11
			11:leaf=0.00398114882
			12:leaf=-0.0195762366
		6:[looper_jet1Pt<120.943527] yes=13,no=14,missing=13
			13:leaf=0.0019007161
			14:leaf=0.0262295548
booster[90]:
0:[looper_lep3Pt<145.602051] yes=1,no=2,missing=1
	1:[looper_MllN<123.912888] yes=3,no=4,missing=3
		3:[looper_scalarsum_pt_4l<262.434723] yes=7,no=8,missing=7
			7:leaf=-0.00204610988
			8:leaf=0.0114347404
		4:[looper_ZPt<96.2328491] yes=9,no=10,missing=9
			9:leaf=0.00323497294
			10:leaf=-0.0217180233
	2:[looper_mt2<119.712906] yes=5,no=6,missing=5
		5:[looper_minDRJetToLep3<1.07338417] yes=11,no=12,missing=11
			11:leaf=-0.00436315499
			12:leaf=0.0172339361
		6:[looper_ZPt<126.468979] yes=13,no=14,missing=13
			13:leaf=-0.110882618
			14:leaf=0.00404146919
booster[91]:
0:[looper_vecsum_pt_4l<35.8496857] yes=1,no=2,missing=1
	1:[looper_jet1Pt<88.5718994] yes=3,no=4,missing=3
		3:[looper_ZPt<65.9031143] yes=7,no=8,missing=7
			7:leaf=0.0318090431
			8:leaf=0.0100351442
		4:[looper_minDRJetToLep4<3.85410595] yes=9,no=10,missing=9
			9:leaf=-0.0137401391
			10:leaf=0.0595871583
	2:[looper_jet1Pt<402.667969] yes=5,no=6,missing=5
		5:[looper_MllN<68.3183746] yes=11,no=12,missing=11
			11:leaf=0.0047745863
			12:leaf=-0.00488999812
		6:[looper_minDRJetToLep3<1.17633319] yes=13,no=14,missing=13
			13:leaf=-0.00250324351
			14:leaf=0.041553542
booster[92]:
0:[looper_lep3Pt<92.2801666] yes=1,no=2,missing=1
	1:[looper_MllN<154.541626] yes=3,no=4,missing=3
		3:[looper_minDRJetToLep3<4.07575703] yes=7,no=8,missing=7
			7:leaf=-0.00256380229
			8:leaf=0.0184247568
		4:[looper_ZPt<100.741425] yes=9,no=10,missing=9
			9:leaf=-0.00188155368
			10:leaf=-0.0404634289
	2:[looper_minDRJetToLep3<1.20673549] yes=5,no=6,missing=5
		5:[looper_jet1Pt<91.6684036] yes=11,no=12,missing=11
			11:leaf=0.00970595423
			12:leaf=-0.0222453624
		6:[looper_jet1Pt<109.523117] yes=13,no=14,missing=13
			13:leaf=0.00260864873
			14:leaf=0.0196077395
booster[93]:
0:[looper_lep4Pt<13.8365669] yes=1,no=2,missing=1
	1:[looper_MllN<15.9261379] yes=3,no=4,missing=3
		3:[looper_vecsum_pt_4l<274.166992] yes=7,no=8,missing=7
			7:leaf=0.090270184
			8:leaf=-0.0313496962
		4:[looper_vecsum_pt_4l<144.189026] yes=9,no=10,missing=9
			9:leaf=-0.00939097907
			10:leaf=-0.032279443
	2:[looper_minDRJetToLep4<1.6491816] yes=5,no=6,missing=5
		5:[looper_jet1Pt<78.2013702] yes=11,no=12,missing=11
			11:leaf=0.0059411414
			12:leaf=-0.0120311072
		6:[looper_jet1Pt<153.567108] yes=13,no=14,missing=13
			13:leaf=0.000859983673
			14:leaf=0.0203013606
booster[94]:
0:[looper_lep4Pt<56.1719322] yes=1,no=2,missing=1
	1:[looper_MllN<123.885284] yes=3,no=4,missing=3
		3:[looper_scalarsum_pt_4l<262.434723] yes=7,no=8,missing=7
			7:leaf=-0.0023521469
			8:leaf=0.00840723235
		4:[looper_lep3Pt<145.598633] yes=9,no=10,missing=9
			9:leaf=-0.0170176718
			10:leaf=0.00452675391
	2:[looper_minDRJetToLep4<1.11403108] yes=5,no=6,missing=5
		5:[looper_jet1Pt<104.816704] yes=11,no=12,missing=11
			11:leaf=0.00749310246
			12:leaf=-0.023933921
		6:[looper_jet1Pt<70.4184418] yes=13,no=14,missing=13
			13:leaf=0.000293879857
			14:leaf=0.022143703
booster[95]:
0:[looper_vecsum_pt_4l<118.784012] yes=1,no=2,missing=1
	1:[looper_lep3Pt<231.92363] yes=3,no=4,missing=3
		3:[looper_MllN<32.4629669] yes=7,no=8,missing=7
			7:leaf=0.0236057341
			8:leaf=0.00144933478
		4:[looper_jet1Pt<139.882645] yes=9,no=10,missing=9
			9:leaf=0.0569875315
			10:leaf=-0.0286942013
	2:[looper_jet1Pt<185.550385] yes=5,no=6,missing=5
		5:[looper_scalarsum_pt_4l<480.599243] yes=11,no=12,missing=11
			11:leaf=-0.0128004765
			12:leaf=0.00850144494
		6:[looper_minDRJetToLep3<0.886189222] yes=13,no=14,missing=13
			13:leaf=-0.0297343265
			14:leaf=0.0179371741
booster[96]:
0:[looper_minDRJetToLep3<6.2058382] yes=1,no=2,missing=1
	1:[looper_jet1Pt<30.0346909] yes=3,no=4,missing=3
		3:[looper_scalarsum_pt_4l<159.012421] yes=7,no=8,missing=7
			7:leaf=0.0528503843
			8:leaf=0.0100838533
		4:[looper_minDRJetToLep4<0.99866879] yes=9,no=10,missing=9
			9:leaf=-0.0149954734
			10:leaf=0.000998269068
	2:[looper_mt2<6.62468529] yes=5,no=6,missing=5
		5:leaf=-0.026321644
		6:[looper_jet1Pt<31.4790592] yes=11,no=12,missing=11
			11:leaf=0.00622756034
			12:leaf=0.111077286
booster[97]:
0:[looper_scalarsum_pt_4l<997.128296] yes=1,no=2,missing=1
	1:[looper_mt2<106.387299] yes=3,no=4,missing=3
		3:[looper_lep4Pt<28.9328766] yes=7,no=8,missing=7
			7:leaf=-0.00490874005
			8:leaf=0.00349154486
		4:[looper_vecsum_pt_4l<101.242905] yes=9,no=10,missing=9
			9:leaf=0.0585356429
			10:leaf=-0.0626680776
	2:[looper_ZPt<205.034592] yes=5,no=6,missing=5
		5:leaf=0.0179836266
		6:[looper_minDRJetToLep3<0.77950567] yes=11,no=12,missing=11
			11:leaf=0.0391669124
			12:leaf=0.108243026
booster[98]:
0:[looper_minDRJetToLep4<3.77756] yes=1,no=2,missing=1
	1:[looper_lep3Pt<62.4791031] yes=3,no=4,missing=3
		3:[looper_jet1Pt<77.5660858] yes=7,no=8,missing=7
			7:leaf=0.00194493996
			8:leaf=-0.0160122551
		4:[looper_MllN<192.663116] yes=9,no=10,missing=9
			9:leaf=0.00642889971
			10:leaf=-0.00823461544
	2:[looper_minDRJetToLep3<2.97214484] yes=5,no=6,missing=5
		5:[looper_jet1Pt<125.919052] yes=11,no=12,missing=11
			11:leaf=0.0142608611
			12:leaf=0.0471393801
		6:[looper_mt2<66.6512756] yes=13,no=14,missing=13
			13:leaf=0.0085768206
			14:leaf=-0.042087201
booster[99]:
0:[looper_lep4Pt<11.013361] yes=1,no=2,missing=1
	1:[looper_MllN<35.2886658] yes=3,no=4,missing=3
		3:[looper_vecsum_pt_4l<165.908859] yes=7,no=8,missing=7
			7:leaf=0.0327092335
			8:leaf=-0.045256488
		4:[looper_ZPt<194.044098] yes=9,no=10,missing=9
			9:leaf=-0.0535875745
			10:leaf=0.00257174531
	2:[looper_minDRJetToLep4<5.74524307] yes=5,no=6,missing=5
		5:[looper_MllN<61.3390732] yes=11,no=12,missing=11
			11:leaf=0.00682147592
			12:leaf=-0.0021316451
		6:[looper_mt2<1.74557483] yes=13,no=14,missing=13
			13:leaf=-0.106288888
			14:leaf=0.057069134
booster[100]:
0:[looper_lep3Pt<366.219208] yes=1,no=2,missing=1
	1:[looper_vecsum_pt_4l<146.137329] yes=3,no=4,missing=3
		3:[looper_minDRJetToLep3<2.24666142] yes=7,no=8,missing=7
			7:leaf=-0.00215756311
			8:leaf=0.00853617117
		4:[looper_jet1Pt<185.550385] yes=9,no=10,missing=9
			9:leaf=-0.0134832999
			10:leaf=0.00916340481
	2:[looper_mt2<121.289749] yes=5,no=6,missing=5
		5:[looper_minDRJetToLep3<0.866763473] yes=11,no=12,missing=11
			11:leaf=0.0138542727
			12:leaf=0.065755114
		6:leaf=-0.0877790675
booster[101]:
0:[looper_minDRJetToLep3<6.2058382] yes=1,no=2,missing=1
	1:[looper_lep4Pt<22.5214825] yes=3,no=4,missing=3
		3:[looper_mt2<21.5849113] yes=7,no=8,missing=7
			7:leaf=-0.0177279338
			8:leaf=-0.00116179499
		4:[looper_MllN<60.9388657] yes=9,no=10,missing=9
			9:leaf=0.0131314462
			10:leaf=-0.000324657711
	2:[looper_mt2<6.62468529] yes=5,no=6,missing=5
		5:leaf=-0.0253258329
		6:[looper_jet1Pt<31.5051041] yes=11,no=12,missing=11
			11:leaf=0.00644459063
			12:leaf=0.106389783
booster[102]:
0:[looper_jet1Pt<30.0346909] yes=1,no=2,missing=1
	1:[looper_mt2<93.1862793] yes=3,no=4,missing=3
		3:[looper_scalarsum_pt_4l<159.012421] yes=7,no=8,missing=7
			7:leaf=0.0501801446
			8:leaf=0.0110016419
		4:[looper_ZPt<29.491291] yes=9,no=10,missing=9
			9:leaf=-0.245184615
			10:leaf=-0.0231027119
	2:[looper_minDRJetToLep4<0.99866879] yes=5,no=6,missing=5
		5:[looper_mt2<54.9021606] yes=11,no=12,missing=11
			11:leaf=-0.0189310946
			12:leaf=0.00596971856
		6:[looper_lep4Pt<34.5685883] yes=13,no=14,missing=13
			13:leaf=-0.00421364838
			14:leaf=0.00665965071
booster[103]:
0:[looper_scalarsum_pt_4l<881.687256] yes=1,no=2,missing=1
	1:[looper_vecsum_pt_4l<56.1408463] yes=3,no=4,missing=3
		3:[looper_minDRJetToLep3<2.77732515] yes=7,no=8,missing=7
			7:leaf=0.00262382184
			8:leaf=0.0190229695
		4:[looper_scalarsum_pt_4l<192.05162] yes=9,no=10,missing=9
			9:leaf=-0.0126702217
			10:leaf=-0.000145517231
	2:[looper_minDRJetToLep4<0.655121922] yes=5,no=6,missing=5
		5:[looper_vecsum_pt_4l<229.128769] yes=11,no=12,missing=11
			11:leaf=0.077869758
			12:leaf=-0.0487151593
		6:[looper_minDRJetToLep3<0.789069533] yes=13,no=14,missing=13
			13:leaf=0.0235115029
			14:leaf=0.0846166015
booster[104]:
0:[looper_lep4Pt<168.279175] yes=1,no=2,missing=1
	1:[looper_MllN<217.919632] yes=3,no=4,missing=3
		3:[looper_scalarsum_pt_4l<344.897583] yes=7,no=8,missing=7
			7:leaf=-0.00149360276
			8:leaf=0.0120893633
		4:[looper_ZPt<82.9493103] yes=9,no=10,missing=9
			9:leaf=0.00869708508
			10:leaf=-0.0186202656
	2:[looper_minDRJetToLep3<4.88114262] yes=5,no=6,missing=5
		5:[looper_minDRJetToLep3<0.926096082] yes=11,no=12,missing=11
			11:leaf=0.0059057246
			12:leaf=0.0618084148
		6:leaf=-0.0708728954
booster[105]:
0:[looper_mt2<150.711731] yes=1,no=2,missing=1
	1:[looper_lep4Pt<84.9430161] yes=3,no=4,missing=3
		3:[looper_MllN<191.599731] yes=7,no=8,missing=7
			7:leaf=0.0011163312
			8:leaf=-0.0141536193
		4:[looper_MllN<117.294708] yes=9,no=10,missing=9
			9:leaf=0.0990818292
			10:leaf=0.0099101644
	2:[looper_MllN<113.511414] yes=5,no=6,missing=5
		5:[looper_jet1Pt<135.729736] yes=11,no=12,missing=11
			11:leaf=-0.14955698
			12:leaf=-0.0199889541
		6:[looper_jet1Pt<65.7363663] yes=13,no=14,missing=13
			13:leaf=0.0816210657
			14:leaf=-0.0690890476
booster[106]:
0:[looper_minDRJetToLep4<5.8777566] yes=1,no=2,missing=1
	1:[looper_MllN<27.3654518] yes=3,no=4,missing=3
		3:[looper_ZPt<112.86409] yes=7,no=8,missing=7
			7:leaf=0.00163947081
			8:leaf=0.0274389517
		4:[looper_lep3Pt<77.9913025] yes=9,no=10,missing=9
			9:leaf=-0.00517193461
			10:leaf=0.00304689165
	2:[looper_minDRJetToLep4<6.45773411] yes=5,no=6,missing=5
		5:[looper_minDRJetToLep4<5.99950552] yes=11,no=12,missing=11
			11:leaf=0.0843079612
			12:leaf=0.00759026874
		6:[looper_jet1Pt<32.9732971] yes=13,no=14,missing=13
			13:leaf=0.00542991515
			14:leaf=0.115326218
booster[107]:
0:[looper_minDRJetToLep3<6.2058382] yes=1,no=2,missing=1
	1:[looper_mt2<106.387299] yes=3,no=4,missing=3
		3:[looper_lep3Pt<342.104126] yes=7,no=8,missing=7
			7:leaf=-0.000194434411
			8:leaf=0.0408458002
		4:[looper_ZPt<130.029434] yes=9,no=10,missing=9
			9:leaf=-0.0676470548
			10:leaf=0.0134764807
	2:[looper_mt2<6.62468529] yes=5,no=6,missing=5
		5:leaf=-0.02406702
		6:[looper_lep4Pt<53.6009445] yes=11,no=12,missing=11
			11:leaf=0.108182929
			12:leaf=0.0293293744
booster[108]:
0:[looper_vecsum_pt_4l<146.137329] yes=1,no=2,missing=1
	1:[looper_lep3Pt<286.919281] yes=3,no=4,missing=3
		3:[looper_minDRJetToLep3<2.24666142] yes=7,no=8,missing=7
			7:leaf=-0.0021904395
			8:leaf=0.00754385954
		4:[looper_jet1Pt<123.43187] yes=9,no=10,missing=9
			9:leaf=0.0698248893
			10:leaf=0.00925046485
	2:[looper_jet1Pt<200.029648] yes=5,no=6,missing=5
		5:[looper_lep4Pt<76.4853516] yes=11,no=12,missing=11
			11:leaf=-0.0139193824
			12:leaf=0.0156670902
		6:[looper_minDRJetToLep3<0.787881672] yes=13,no=14,missing=13
			13:leaf=-0.0322025008
			14:leaf=0.0164252948
booster[109]:
0:[looper_jet1Pt<30.0346909] yes=1,no=2,missing=1
	1:[looper_scalarsum_pt_4l<159.012421] yes=3,no=4,missing=3
		3:[looper_scalarsum_pt_4l<135.87326] yes=7,no=8,missing=7
			7:leaf=-0.00542836823
			8:leaf=0.0666317418
		4:[looper_lep3Pt<299.325989] yes=9,no=10,missing=9
			9:leaf=0.00753977895
			10:leaf=0.0906619206
	2:[looper_minDRJetToLep3<1.05639148] yes=5,no=6,missing=5
		5:[looper_jet1Pt<87.2529221] yes=11,no=12,missing=11
			11:leaf=0.0171311479
			12:leaf=-0.0258171745
		6:[looper_jet1Pt<133.179718] yes=13,no=14,missing=13
			13:leaf=-0.00364345429
			14:leaf=0.0125891194
booster[110]:
0:[looper_lep4Pt<11.013361] yes=1,no=2,missing=1
	1:[looper_MllN<35.2886658] yes=3,no=4,missing=3
		3:[looper_vecsum_pt_4l<165.908859] yes=7,no=8,missing=7
			7:leaf=0.0305223819
			8:leaf=-0.0409871042
		4:[looper_ZPt<194.044098] yes=9,no=10,missing=9
			9:leaf=-0.0478419177
			10:leaf=0.00356937572
	2:[looper_MllN<84.7654724] yes=5,no=6,missing=5
		5:[looper_ZPt<108.112373] yes=11,no=12,missing=11
			11:leaf=-0.00359565462
			12:leaf=0.0125758648
		6:[looper_lep3Pt<46.920372] yes=13,no=14,missing=13
			13:leaf=-0.0261149053
			14:leaf=-0.000980316428
booster[111]:
0:[looper_vecsum_pt_4l<100.110931] yes=1,no=2,missing=1
	1:[looper_mt2<19.4063225] yes=3,no=4,missing=3
		3:[looper_minDRJetToLep4<2.88378048] yes=7,no=8,missing=7
			7:leaf=-0.00927509926
			8:leaf=0.0115716336
		4:[looper_minDRJetToLep3<5.83830118] yes=9,no=10,missing=9
			9:leaf=0.00731101586
			10:leaf=0.0888169035
	2:[looper_jet1Pt<130.601318] yes=5,no=6,missing=5
		5:[looper_scalarsum_pt_4l<375.587097] yes=11,no=12,missing=11
			11:leaf=-0.0130547704
			12:leaf=0.00757508958
		6:[looper_minDRJetToLep3<1.02818847] yes=13,no=14,missing=13
			13:leaf=-0.0251017995
			14:leaf=0.0115517937
booster[112]:
0:[looper_MllN<145.693848] yes=1,no=2,missing=1
	1:[looper_scalarsum_pt_4l<360.55365] yes=3,no=4,missing=3
		3:[looper_vecsum_pt_4l<159.766205] yes=7,no=8,missing=7
			7:leaf=0.00281002349
			8:leaf=-0.0105378097
		4:[looper_vecsum_pt_4l<219.800934] yes=9,no=10,missing=9
			9:leaf=0.0335674509
			10:leaf=0.000502333452
	2:[looper_ZPt<98.6715698] yes=5,no=6,missing=5
		5:[looper_minDRJetToLep3<3.20821762] yes=11,no=12,missing=11
			11:leaf=-0.00295167929
			12:leaf=0.0301687699
		6:[looper_lep3Pt<140.147125] yes=13,no=14,missing=13
			13:leaf=-0.021593336
			14:leaf=0.00137496588
booster[113]:
0:[looper_jet1Pt<493.03125] yes=1,no=2,missing=1
	1:[looper_vecsum_pt_4l<195.191544] yes=3,no=4,missing=3
		3:[looper_lep3Pt<231.934143] yes=7,no=8,missing=7
			7:leaf=0.000657882309
			8:leaf=0.0316487253
		4:[looper_jet1Pt<236.425797] yes=9,no=10,missing=9
			9:leaf=-0.014676543
			10:leaf=0.00931828748
	2:[looper_lep4Pt<23.6146584] yes=5,no=6,missing=5
		5:[looper_minDRJetToLep4<2.43156815] yes=11,no=12,missing=11
			11:leaf=0.0111629795
			12:leaf=-0.0914055407
		6:[looper_minDRJetToLep3<0.723469079] yes=13,no=14,missing=13
			13:leaf=-0.0268456824
			14:leaf=0.0654091835
booster[114]:
0:[looper_minDRJetToLep4<6.18201065] yes=1,no=2,missing=1
	1:[looper_MllN<239.613495] yes=3,no=4,missing=3
		3:[looper_lep4Pt<57.3369827] yes=7,no=8,missing=7
			7:leaf=-0.00088956923
			8:leaf=0.0129306633
		4:[looper_ZPt<128.425415] yes=9,no=10,missing=9
			9:leaf=0.00508986833
			10:leaf=-0.0233332943
	2:[looper_minDRJetToLep3<1.57472908] yes=5,no=6,missing=5
		5:leaf=-0.0310022328
		6:[looper_lep4Pt<53.1377106] yes=11,no=12,missing=11
			11:leaf=0.0936307982
			12:leaf=0.0236178022
booster[115]:
0:[looper_scalarsum_pt_4l<997.128296] yes=1,no=2,missing=1
	1:[looper_minDRJetToLep4<2.10183787] yes=3,no=4,missing=3
		3:[looper_minDRJetToLep3<3.8828721] yes=7,no=8,missing=7
			7:leaf=-0.00455321232
			8:leaf=0.0209879559
		4:[looper_mt2<66.1988602] yes=9,no=10,missing=9
			9:leaf=0.00634007249
			10:leaf=-0.0134001793
	2:[looper_scalarsum_pt_4l<1126.82544] yes=5,no=6,missing=5
		5:[looper_scalarsum_pt_4l<1064.84424] yes=11,no=12,missing=11
			11:leaf=0.0977851152
			12:leaf=-0.0271894168
		6:[looper_lep3Pt<361.998657] yes=13,no=14,missing=13
			13:leaf=0.0311036613
			14:leaf=0.108569823
booster[116]:
0:[looper_jet1Pt<30.0346909] yes=1,no=2,missing=1
	1:[looper_mt2<93.1862793] yes=3,no=4,missing=3
		3:[looper_scalarsum_pt_4l<156.66243] yes=7,no=8,missing=7
			7:leaf=0.0482961051
			8:leaf=0.0101474132
		4:[looper_ZPt<25.7620583] yes=9,no=10,missing=9
			9:leaf=-0.22593157
			10:leaf=-0.017765047
	2:[looper_minDRJetToLep4<1.1146884] yes=5,no=6,missing=5
		5:[looper_mt2<54.1936874] yes=11,no=12,missing=11
			11:leaf=-0.0159194656
			12:leaf=0.00676251436
		6:[looper_jet1Pt<130.971375] yes=13,no=14,missing=13
			13:leaf=-0.00226885383
			14:leaf=0.00955862738
booster[117]:
0:[looper_vecsum_pt_4l<35.8496857] yes=1,no=2,missing=1
	1:[looper_jet1Pt<35.2600174] yes=3,no=4,missing=3
		3:[looper_lep4Pt<13.1566067] yes=7,no=8,missing=7
			7:leaf=-0.106208585
			8:leaf=0.0353511311
		4:[looper_minDRJetToLep3<2.61532974] yes=9,no=10,missing=9
			9:leaf=-0.00288964994
			10:leaf=0.0199144501
	2:[looper_scalarsum_pt_4l<185.88324] yes=5,no=6,missing=5
		5:[looper_minDRJetToLep3<3.81772733] yes=11,no=12,missing=11
			11:leaf=-0.0143164517
			12:leaf=0.0239325818
		6:[looper_MllN<59.0791855] yes=13,no=14,missing=13
			13:leaf=0.0108285761
			14:leaf=-0.00216157432
booster[118]:
0:[looper_lep4Pt<13.8365669] yes=1,no=2,missing=1
	1:[looper_MllN<21.9780045] yes=3,no=4,missing=3
		3:[looper_vecsum_pt_4l<167.337601] yes=7,no=8,missing=7
			7:leaf=0.061408218
			8:leaf=-0.0243193042
		4:[looper_minDRJetToLep4<4.67706728] yes=9,no=10,missing=9
			9:leaf=-0.017986225
			10:leaf=0.0341679417
	2:[looper_MllN<145.815155] yes=5,no=6,missing=5
		5:[looper_scalarsum_pt_4l<328.478333] yes=11,no=12,missing=11
			11:leaf=0.000738011615
			12:leaf=0.0131104784
		6:[looper_lep3Pt<100.034409] yes=13,no=14,missing=13
			13:leaf=-0.0150528401
			14:leaf=0.00111735449
booster[119]:
0:[looper_mt2<150.711731] yes=1,no=2,missing=1
	1:[looper_scalarsum_pt_4l<997.128296] yes=3,no=4,missing=3
		3:[looper_minDRJetToLep4<6.45773411] yes=7,no=8,missing=7
			7:leaf=-0.000108939515
			8:leaf=0.0957152322
		4:[looper_minDRJetToLep4<0.878446579] yes=9,no=10,missing=9
			9:leaf=0.0286286511
			10:leaf=0.0932195112
	2:[looper_minDRJetToLep3<1.62177837] yes=5,no=6,missing=5
		5:[looper_lep3Pt<135.885681] yes=11,no=12,missing=11
			11:leaf=-0.0625685528
			12:leaf=0.0366764031
		6:[looper_lep4Pt<63.5265045] yes=13,no=14,missing=13
			13:leaf=-0.0162901785
			14:leaf=-0.112027742
booster[120]:
0:[looper_minDRJetToLep3<6.2058382] yes=1,no=2,missing=1
	1:[looper_lep3Pt<36.6339264] yes=3,no=4,missing=3
		3:[looper_jet1Pt<64.3100433] yes=7,no=8,missing=7
			7:leaf=0.00795614533
			8:leaf=-0.0199998505
		4:[looper_MllN<31.7188644] yes=9,no=10,missing=9
			9:leaf=0.0157815572
			10:leaf=-4.17100928e-05
	2:[looper_jet1Pt<31.3951263] yes=5,no=6,missing=5
		5:leaf=-0.0436043367
		6:[looper_minDRJetToLep4<5.04327774] yes=11,no=12,missing=11
			11:leaf=0.118361644
			12:leaf=0.0102991778
booster[121]:
0:[looper_minDRJetToLep4<3.57740307] yes=1,no=2,missing=1
	1:[looper_minDRJetToLep3<2.98650408] yes=3,no=4,missing=3
		3:[looper_scalarsum_pt_4l<262.092621] yes=7,no=8,missing=7
			7:leaf=-0.00981609337
			8:leaf=0.00221820059
		4:[looper_ZPt<158.860733] yes=9,no=10,missing=9
			9:leaf=0.0132801132
			10:leaf=-0.0129529852
	2:[looper_minDRJetToLep3<2.97214484] yes=5,no=6,missing=5
		5:[looper_jet1Pt<40.2076797] yes=11,no=12,missing=11
			11:leaf=-0.00854447763
			12:leaf=0.0223758575
		6:[looper_mt2<66.6512756] yes=13,no=14,missing=13
			13:leaf=0.00235154084
			14:leaf=-0.0361693911
booster[122]:
0:[looper_vecsum_pt_4l<146.137329] yes=1,no=2,missing=1
	1:[looper_lep3Pt<286.919281] yes=3,no=4,missing=3
		3:[looper_MllN<84.7538605] yes=7,no=8,missing=7
			7:leaf=0.00689616427
			8:leaf=-0.00189760828
		4:[looper_jet1Pt<123.43187] yes=9,no=10,missing=9
			9:leaf=0.062823534
			10:leaf=0.00586545188
	2:[looper_scalarsum_pt_4l<240.481476] yes=5,no=6,missing=5
		5:[looper_minDRJetToLep3<4.22273445] yes=11,no=12,missing=11
			11:leaf=-0.0299760401
			12:leaf=0.0582686178
		6:[looper_jet1Pt<260.237] yes=13,no=14,missing=13
			13:leaf=-0.00475647952
			14:leaf=0.0127522796
booster[123]:
0:[looper_jet1Pt<30.0346909] yes=1,no=2,missing=1
	1:[looper_lep3Pt<44.7989578] yes=3,no=4,missing=3
		3:[looper_MllN<120.82959] yes=7,no=8,missing=7
			7:leaf=0.0368294679
			8:leaf=-0.0315532684
		4:[looper_lep3Pt<45.4231415] yes=9,no=10,missing=9
			9:leaf=-0.184948981
			10:leaf=0.00828889944
	2:[looper_minDRJetToLep4<0.998793483] yes=5,no=6,missing=5
		5:[looper_jet1Pt<95.1383362] yes=11,no=12,missing=11
			11:leaf=0.00132048258
			12:leaf=-0.0185490698
		6:[looper_lep4Pt<27.9368706] yes=13,no=14,missing=13
			13:leaf=-0.00495242607
			14:leaf=0.00439557247
booster[124]:
0:[looper_MllN<217.919632] yes=1,no=2,missing=1
	1:[looper_lep4Pt<57.3369827] yes=3,no=4,missing=3
		3:[looper_MllN<105.339661] yes=7,no=8,missing=7
			7:leaf=0.0022953127
			8:leaf=-0.00587494764
		4:[looper_mt2<152.658005] yes=9,no=10,missing=9
			9:leaf=0.0138432849
			10:leaf=-0.0893253461
	2:[looper_lep4Pt<95.9524384] yes=5,no=6,missing=5
		5:[looper_ZPt<90.1329041] yes=11,no=12,missing=11
			11:leaf=0.00452425517
			12:leaf=-0.0240143705
		6:[looper_minDRJetToLep4<0.988849282] yes=13,no=14,missing=13
			13:leaf=-0.0124047911
			14:leaf=0.0182781126
booster[125]:
0:[looper_jet1Pt<493.03125] yes=1,no=2,missing=1
	1:[looper_vecsum_pt_4l<223.882294] yes=3,no=4,missing=3
		3:[looper_lep3Pt<187.071899] yes=7,no=8,missing=7
			7:leaf=9.092455e-05
			8:leaf=0.0160065759
		4:[looper_jet1Pt<260.938782] yes=9,no=10,missing=9
			9:leaf=-0.0164046269
			10:leaf=0.0103712892
	2:[looper_MllN<70.0215836] yes=5,no=6,missing=5
		5:[looper_MllN<58.4968033] yes=11,no=12,missing=11
			11:leaf=0.0177595038
			12:leaf=-0.0903783888
		6:[looper_MllN<435.428833] yes=13,no=14,missing=13
			13:leaf=0.0534946024
			14:leaf=-0.0441599227
booster[126]:
0:[looper_MllN<193.640991] yes=1,no=2,missing=1
	1:[looper_lep3Pt<62.4790039] yes=3,no=4,missing=3
		3:[looper_minDRJetToLep3<4.30262852] yes=7,no=8,missing=7
			7:leaf=-0.00533415005
			8:leaf=0.0292284824
		4:[looper_jet1Pt<140.35791] yes=9,no=10,missing=9
			9:leaf=0.000863213849
			10:leaf=0.0150632737
	2:[looper_ZPt<84.6478729] yes=5,no=6,missing=5
		5:[looper_minDRJetToLep3<3.58739877] yes=11,no=12,missing=11
			11:leaf=0.002176465
			12:leaf=0.0374760777
		6:[looper_lep3Pt<229.250824] yes=13,no=14,missing=13
			13:leaf=-0.018316837
			14:leaf=0.0144621106
booster[127]:
0:[looper_mt2<106.387299] yes=1,no=2,missing=1
	1:[looper_lep3Pt<427.801208] yes=3,no=4,missing=3
		3:[looper_MllN<268.280701] yes=7,no=8,missing=7
			7:leaf=0.0010489258
			8:leaf=-0.0104978047
		4:[looper_minDRJetToLep4<0.54622072] yes=9,no=10,missing=9
			9:leaf=-0.0153908897
			10:leaf=0.0717660338
	2:[looper_vecsum_pt_4l<101.242905] yes=5,no=6,missing=5
		5:[looper_MllN<58.7361259] yes=11,no=12,missing=11
			11:leaf=-0.00511967111
			12:leaf=0.0687685534
		6:[looper_ZPt<317.354065] yes=13,no=14,missing=13
			13:leaf=-0.0590426102
			14:leaf=0.0608860552
booster[128]:
0:[looper_lep4Pt<11.013361] yes=1,no=2,missing=1
	1:[looper_MllN<41.1552353] yes=3,no=4,missing=3
		3:[looper_minDRJetToLep3<3.70111036] yes=7,no=8,missing=7
			7:leaf=-0.0102344407
			8:leaf=0.110404208
		4:[looper_ZPt<194.044098] yes=9,no=10,missing=9
			9:leaf=-0.0475005992
			10:leaf=0.00773770362
	2:[looper_MllN<77.3255844] yes=5,no=6,missing=5
		5:[looper_ZPt<108.112373] yes=11,no=12,missing=11
			11:leaf=-0.004679373
			12:leaf=0.0123864347
		6:[looper_ZPt<54.0668182] yes=13,no=14,missing=13
			13:leaf=0.00910288841
			14:leaf=-0.00419140933
booster[129]:
0:[looper_minDRJetToLep4<6.45773411] yes=1,no=2,missing=1
	1:[looper_jet1Pt<30.0346909] yes=3,no=4,missing=3
		3:[looper_lep3Pt<299.325989] yes=7,no=8,missing=7
			7:leaf=0.00863850955
			8:leaf=0.0885330737
		4:[looper_minDRJetToLep3<1.21653891] yes=9,no=10,missing=9
			9:leaf=-0.00904472452
			10:leaf=0.0010983001
	2:[looper_minDRJetToLep3<5.72157049] yes=5,no=6,missing=5
		5:leaf=0.106857873
		6:leaf=0.00540163834
booster[130]:
0:[looper_minDRJetToLep3<6.2058382] yes=1,no=2,missing=1
	1:[looper_lep4Pt<16.6546688] yes=3,no=4,missing=3
		3:[looper_mt2<17.3527584] yes=7,no=8,missing=7
			7:leaf=-0.0254047401
			8:leaf=-0.000965585001
		4:[looper_minDRJetToLep4<1.58800554] yes=9,no=10,missing=9
			9:leaf=-0.00334341126
			10:leaf=0.00386436633
	2:[looper_mt2<6.62468529] yes=5,no=6,missing=5
		5:leaf=-0.029071752
		6:[looper_lep4Pt<53.6009445] yes=11,no=12,missing=11
			11:leaf=0.0997969285
			12:leaf=0.0196896698
booster[131]:
0:[looper_vecsum_pt_4l<35.8496857] yes=1,no=2,missing=1
	1:[looper_jet1Pt<88.5718994] yes=3,no=4,missing=3
		3:[looper_ZPt<75.1835175] yes=7,no=8,missing=7
			7:leaf=0.0239208806
			8:leaf=0.00202827784
		4:[looper_minDRJetToLep4<3.85410595] yes=9,no=10,missing=9
			9:leaf=-0.0116936499
			10:leaf=0.0490862317
	2:[looper_scalarsum_pt_4l<181.140198] yes=5,no=6,missing=5
		5:[looper_minDRJetToLep3<4.21837568] yes=11,no=12,missing=11
			11:leaf=-0.0122773508
			12:leaf=0.0310373958
		6:[looper_MllN<59.0791855] yes=13,no=14,missing=13
			13:leaf=0.00840584096
			14:leaf=-0.00181434012
booster[132]:
0:[looper_scalarsum_pt_4l<1126.82544] yes=1,no=2,missing=1
	1:[looper_minDRJetToLep4<5.8777566] yes=3,no=4,missing=3
		3:[looper_mt2<106.387299] yes=7,no=8,missing=7
			7:leaf=-2.1839176e-05
			8:leaf=-0.0313652381
		4:[looper_ZPt<99.5071106] yes=9,no=10,missing=9
			9:leaf=0.0667422339
			10:leaf=0.0158849116
	2:[looper_lep3Pt<361.998657] yes=5,no=6,missing=5
		5:leaf=0.0262852516
		6:leaf=0.101883411
booster[133]:
0:[looper_lep4Pt<74.5411453] yes=1,no=2,missing=1
	1:[looper_MllN<191.596527] yes=3,no=4,missing=3
		3:[looper_jet1Pt<164.495636] yes=7,no=8,missing=7
			7:leaf=-0.00131892692
			8:leaf=0.00834688917
		4:[looper_ZPt<100.815002] yes=9,no=10,missing=9
			9:leaf=0.00157439616
			10:leaf=-0.0203563143
	2:[looper_MllN<74.7336731] yes=5,no=6,missing=5
		5:[looper_scalarsum_pt_4l<300.406006] yes=11,no=12,missing=11
			11:leaf=-0.00715850014
			12:leaf=0.0989256874
		6:[looper_minDRJetToLep3<1.20720267] yes=13,no=14,missing=13
			13:leaf=-0.0094807921
			14:leaf=0.0132918907
booster[134]:
0:[looper_jet1Pt<30.0346909] yes=1,no=2,missing=1
	1:[looper_scalarsum_pt_4l<156.66243] yes=3,no=4,missing=3
		3:[looper_scalarsum_pt_4l<135.87326] yes=7,no=8,missing=7
			7:leaf=-0.0104801496
			8:leaf=0.0686853603
		4:[looper_vecsum_pt_4l<12.8038712] yes=9,no=10,missing=9
			9:leaf=0.0687758103
			10:leaf=0.00563931791
	2:[looper_minDRJetToLep4<0.74325645] yes=5,no=6,missing=5
		5:[looper_jet1Pt<101.366081] yes=11,no=12,missing=11
			11:leaf=0.00200849934
			12:leaf=-0.0250625052
		6:[looper_lep4Pt<39.7645874] yes=13,no=14,missing=13
			13:leaf=-0.00286715431
			14:leaf=0.0047993809
booster[135]:
0:[looper_lep3Pt<118.444122] yes=1,no=2,missing=1
	1:[looper_MllN<154.54184] yes=3,no=4,missing=3
		3:[looper_minDRJetToLep4<3.70864677] yes=7,no=8,missing=7
			7:leaf=-0.00103442976
			8:leaf=0.011964771
		4:[looper_mt2<42.0170822] yes=9,no=10,missing=9
			9:leaf=-0.0190393534
			10:leaf=0.00112646469
	2:[looper_minDRJetToLep4<4.47209883] yes=5,no=6,missing=5
		5:[looper_minDRJetToLep3<1.06930304] yes=11,no=12,missing=11
			11:leaf=-0.00563945295
			12:leaf=0.0108864382
		6:[looper_minDRJetToLep3<2.35178185] yes=13,no=14,missing=13
			13:leaf=0.0182566009
			14:leaf=-0.0463086702
booster[136]:
0:[looper_minDRJetToLep4<6.45773411] yes=1,no=2,missing=1
	1:[looper_lep3Pt<36.6339264] yes=3,no=4,missing=3
		3:[looper_vecsum_pt_4l<185.439606] yes=7,no=8,missing=7
			7:leaf=-0.00237073633
			8:leaf=-0.0332873538
		4:[looper_MllN<27.1730537] yes=9,no=10,missing=9
			9:leaf=0.016877031
			10:leaf=0.000122279613
	2:[looper_jet1Pt<33.8517227] yes=5,no=6,missing=5
		5:leaf=0.00532516418
		6:leaf=0.102652252
booster[137]:
0:[looper_vecsum_pt_4l<66.5883179] yes=1,no=2,missing=1
	1:[looper_mt2<17.5041752] yes=3,no=4,missing=3
		3:[looper_lep4Pt<17.7150307] yes=7,no=8,missing=7
			7:leaf=-0.035413824
			8:leaf=0.000974731054
		4:[looper_minDRJetToLep3<5.94566727] yes=9,no=10,missing=9
			9:leaf=0.00870687049
			10:leaf=0.101752155
	2:[looper_scalarsum_pt_4l<213.967072] yes=5,no=6,missing=5
		5:[looper_minDRJetToLep3<2.62814236] yes=11,no=12,missing=11
			11:leaf=-0.0161222462
			12:leaf=0.00162066449
		6:[looper_MllN<46.1373634] yes=13,no=14,missing=13
			13:leaf=0.0129608307
			14:leaf=-0.00104549131
booster[138]:
0:[looper_jet1Pt<30.0346909] yes=1,no=2,missing=1
	1:[looper_lep3Pt<57.2981339] yes=3,no=4,missing=3
		3:[looper_lep4Pt<10.242382] yes=7,no=8,missing=7
			7:leaf=-0.128938913
			8:leaf=0.0239927676
		4:[looper_lep3Pt<59.9088402] yes=9,no=10,missing=9
			9:leaf=-0.0663950741
			10:leaf=0.00638541952
	2:[looper_minDRJetToLep4<1.58800554] yes=5,no=6,missing=5
		5:[looper_minDRJetToLep3<2.12523842] yes=11,no=12,missing=11
			11:leaf=-0.0131636756
			12:leaf=0.00406095432
		6:[looper_jet1Pt<115.413086] yes=13,no=14,missing=13
			13:leaf=-0.00213377783
			14:leaf=0.00970546156
booster[139]:
0:[looper_vecsum_pt_4l<146.137329] yes=1,no=2,missing=1
	1:[looper_lep3Pt<156.14476] yes=3,no=4,missing=3
		3:[looper_MllN<145.686615] yes=7,no=8,missing=7
			7:leaf=0.0034700986
			8:leaf=-0.00803405326
		4:[looper_mt2<72.2784729] yes=9,no=10,missing=9
			9:leaf=0.0106769521
			10:leaf=0.0504990295
	2:[looper_scalarsum_pt_4l<240.481476] yes=5,no=6,missing=5
		5:[looper_jet1Pt<114.353439] yes=11,no=12,missing=11
			11:leaf=-0.0409286767
			12:leaf=-0.00717282062
		6:[looper_lep4Pt<36.6676445] yes=13,no=14,missing=13
			13:leaf=-0.00730158901
			14:leaf=0.00532575836
booster[140]:
0:[looper_scalarsum_pt_4l<1126.82544] yes=1,no=2,missing=1
	1:[looper_MllN<239.613495] yes=3,no=4,missing=3
		3:[looper_scalarsum_pt_4l<560.958618] yes=7,no=8,missing=7
			7:leaf=0.000220153976
			8:leaf=0.0229652859
		4:[looper_ZPt<158.093414] yes=9,no=10,missing=9
			9:leaf=0.00207521627
			10:leaf=-0.0231839791
	2:[looper_lep3Pt<361.998657] yes=5,no=6,missing=5
		5:leaf=0.0252547543
		6:leaf=0.098851569
booster[141]:
0:[looper_vecsum_pt_4l<203.882812] yes=1,no=2,missing=1
	1:[looper_lep3Pt<313.962769] yes=3,no=4,missing=3
		3:[looper_MllN<83.7442322] yes=7,no=8,missing=7
			7:leaf=0.00542318122
			8:leaf=-0.00231735921
		4:[looper_lep4Pt<22.3576012] yes=9,no=10,missing=9
			9:leaf=-0.0439737551
			10:leaf=0.0595422387
	2:[looper_jet1Pt<253.917236] yes=5,no=6,missing=5
		5:[looper_jet1Pt<76.1534805] yes=11,no=12,missing=11
			11:leaf=0.0109441644
			12:leaf=-0.0186029673
		6:[looper_MllN<243.508484] yes=13,no=14,missing=13
			13:leaf=0.0182436034
			14:leaf=-0.0218047351
booster[142]:
0:[looper_mt2<128.667358] yes=1,no=2,missing=1
	1:[looper_lep4Pt<120.044495] yes=3,no=4,missing=3
		3:[looper_MllN<268.280701] yes=7,no=8,missing=7
			7:leaf=0.00058377086
			8:leaf=-0.0132215414
		4:[looper_MllN<265.120667] yes=9,no=10,missing=9
			9:leaf=0.0912096277
			10:leaf=0.00972977187
	2:[looper_MllN<96.827713] yes=5,no=6,missing=5
		5:[looper_jet1Pt<34.4099426] yes=11,no=12,missing=11
			11:leaf=-0.159572229
			12:leaf=-0.0511833131
		6:[looper_lep3Pt<143.880127] yes=13,no=14,missing=13
			13:leaf=0.0646487176
			14:leaf=-0.0480096713
booster[143]:
0:[looper_minDRJetToLep3<6.2058382] yes=1,no=2,missing=1
	1:[looper_lep4Pt<11.013361] yes=3,no=4,missing=3
		3:[looper_MllN<41.1552353] yes=7,no=8,missing=7
			7:leaf=0.00146059401
			8:leaf=-0.0323482864
		4:[looper_jet1Pt<493.03125] yes=9,no=10,missing=9
			9:leaf=-4.81181996e-05
			10:leaf=0.026414467
	2:[looper_jet1Pt<31.4365425] yes=5,no=6,missing=5
		5:leaf=-0.0437966995
		6:[looper_minDRJetToLep4<5.04327774] yes=11,no=12,missing=11
			11:leaf=0.112003639
			12:leaf=0.000306809292
booster[144]:
0:[looper_minDRJetToLep4<6.45773411] yes=1,no=2,missing=1
	1:[looper_lep4Pt<56.1719322] yes=3,no=4,missing=3
		3:[looper_MllN<123.885284] yes=7,no=8,missing=7
			7:leaf=0.00106056791
			8:leaf=-0.00802073721
		4:[looper_minDRJetToLep4<1.59609461] yes=9,no=10,missing=9
			9:leaf=-0.00243559689
			10:leaf=0.0106951809
	2:[looper_minDRJetToLep3<5.55123425] yes=5,no=6,missing=5
		5:leaf=0.100204147
		6:leaf=0.00476598134
booster[145]:
0:[looper_lep3Pt<46.9336472] yes=1,no=2,missing=1
	1:[looper_jet1Pt<78.5420227] yes=3,no=4,missing=3
		3:[looper_lep3Pt<44.7886658] yes=7,no=8,missing=7
			7:leaf=0.00815172121
			8:leaf=-0.0221519284
		4:[looper_minDRJetToLep4<3.72139001] yes=9,no=10,missing=9
			9:leaf=-0.0167795662
			10:leaf=0.017884763
	2:[looper_minDRJetToLep3<1.49123168] yes=5,no=6,missing=5
		5:[looper_jet1Pt<90.0364151] yes=11,no=12,missing=11
			11:leaf=0.00445072353
			12:leaf=-0.0113627343
		6:[looper_jet1Pt<106.880959] yes=13,no=14,missing=13
			13:leaf=-0.00223537209
			14:leaf=0.0123272855
booster[146]:
0:[looper_scalarsum_pt_4l<973.532715] yes=1,no=2,missing=1
	1:[looper_vecsum_pt_4l<203.882812] yes=3,no=4,missing=3
		3:[looper_lep3Pt<187.071899] yes=7,no=8,missing=7
			7:leaf=0.000233877217
			8:leaf=0.0144119551
		4:[looper_jet1Pt<211.415375] yes=9,no=10,missing=9
			9:leaf=-0.0132502643
			10:leaf=0.00601540599
	2:[looper_minDRJetToLep4<0.74928081] yes=5,no=6,missing=5
		5:[looper_scalarsum_pt_4l<1069.78125] yes=11,no=12,missing=11
			11:leaf=-0.0317049734
			12:leaf=0.0480421335
		6:[looper_mt2<73.5957794] yes=13,no=14,missing=13
			13:leaf=0.0816100165
			14:leaf=0.00116332003
booster[147]:
0:[looper_mt2<189.215363] yes=1,no=2,missing=1
	1:[looper_lep3Pt<537.28833] yes=3,no=4,missing=3
		3:[looper_MllN<262.763184] yes=7,no=8,missing=7
			7:leaf=0.000750423584
			8:leaf=-0.00772362808
		4:[looper_minDRJetToLep3<2.95992947] yes=9,no=10,missing=9
			9:leaf=0.105908573
			10:leaf=0.0168083888
	2:[looper_minDRJetToLep3<2.01444864] yes=5,no=6,missing=5
		5:leaf=0.0162159111
		6:leaf=-0.115477696
booster[148]:
0:[looper_scalarsum_pt_4l<328.735718] yes=1,no=2,missing=1
	1:[looper_vecsum_pt_4l<159.767029] yes=3,no=4,missing=3
		3:[looper_minDRJetToLep3<2.48450041] yes=7,no=8,missing=7
			7:leaf=-0.00309797027
			8:leaf=0.00581455417
		4:[looper_jet1Pt<127.414948] yes=9,no=10,missing=9
			9:leaf=-0.0271095987
			10:leaf=0.00307829631
	2:[looper_minDRJetToLep4<4.4743166] yes=5,no=6,missing=5
		5:[looper_minDRJetToLep3<1.05638385] yes=11,no=12,missing=11
			11:leaf=-0.0054587964
			12:leaf=0.00907844398
		6:[looper_minDRJetToLep3<2.56340337] yes=13,no=14,missing=13
			13:leaf=0.0117296986
			14:leaf=-0.0462475978
booster[149]:
0:[looper_minDRJetToLep4<6.18201065] yes=1,no=2,missing=1
	1:[looper_jet1Pt<30.0346909] yes=3,no=4,missing=3
		3:[looper_MllN<309.538574] yes=7,no=8,missing=7
			7:leaf=0.00589248165
			8:leaf=0.0424624346
		4:[looper_jet1Pt<32.1657562] yes=9,no=10,missing=9
			9:leaf=-0.0262438357
			10:leaf=-0.000389682245
	2:[looper_scalarsum_pt_4l<164.72438] yes=5,no=6,missing=5
		5:leaf=-0.034393508
		6:[looper_lep4Pt<53.1377106] yes=11,no=12,missing=11
			11:leaf=0.092859827
			12:leaf=0.00544728898
booster[150]:
0:[looper_MllN<15.8355112] yes=1,no=2,missing=1
	1:[looper_minDRJetToLep4<2.50068164] yes=3,no=4,missing=3
		3:[looper_ZPt<145.697174] yes=7,no=8,missing=7
			7:leaf=0.0272933524
			8:leaf=0.0930433869
		4:[looper_mt2<57.9364548] yes=9,no=10,missing=9
			9:leaf=0.012800335
			10:leaf=-0.087526232
	2:[looper_MllN<16.3368053] yes=5,no=6,missing=5
		5:[looper_vecsum_pt_4l<54.43153] yes=11,no=12,missing=11
			11:leaf=0.0253431536
			12:leaf=-0.0836251006
		6:[looper_minDRJetToLep4<2.87652254] yes=13,no=14,missing=13
			13:leaf=-0.00154559175
			14:leaf=0.00451141689
booster[151]:
0:[looper_minDRJetToLep3<6.2058382] yes=1,no=2,missing=1
	1:[looper_lep4Pt<17.7236938] yes=3,no=4,missing=3
		3:[looper_mt2<21.7057686] yes=7,no=8,missing=7
			7:leaf=-0.018029049
			8:leaf=0.00047115385
		4:[looper_minDRJetToLep4<5.74524307] yes=9,no=10,missing=9
			9:leaf=0.000621173996
			10:leaf=0.0406526141
	2:[looper_mt2<6.62468529] yes=5,no=6,missing=5
		5:leaf=-0.0296825618
		6:[looper_minDRJetToLep4<4.49360657] yes=11,no=12,missing=11
			11:leaf=0.104461275
			12:leaf=0.0316710882
booster[152]:
0:[looper_MllN<43.3317337] yes=1,no=2,missing=1
	1:[looper_mt2<55.4228821] yes=3,no=4,missing=3
		3:[looper_ZPt<60.0070267] yes=7,no=8,missing=7
			7:leaf=-0.0189378317
			8:leaf=0.0214270651
		4:[looper_minDRJetToLep3<2.47117305] yes=9,no=10,missing=9
			9:leaf=-0.000432053814
			10:leaf=-0.0422988161
	2:[looper_lep3Pt<46.9570351] yes=5,no=6,missing=5
		5:[looper_jet1Pt<77.0719147] yes=11,no=12,missing=11
			11:leaf=0.00105587312
			12:leaf=-0.0170797706
		6:[looper_minDRJetToLep3<1.85767424] yes=13,no=14,missing=13
			13:leaf=-0.00336790993
			14:leaf=0.0036505654
booster[153]:
0:[looper_mt2<106.387299] yes=1,no=2,missing=1
	1:[looper_lep3Pt<458.947296] yes=3,no=4,missing=3
		3:[looper_MllN<270.214966] yes=7,no=8,missing=7
			7:leaf=0.000867349037
			8:leaf=-0.00854156818
		4:[looper_minDRJetToLep4<0.54622072] yes=9,no=10,missing=9
			9:leaf=-0.0344829932
			10:leaf=0.0801047981
	2:[looper_vecsum_pt_4l<101.242905] yes=5,no=6,missing=5
		5:[looper_MllN<231.237762] yes=11,no=12,missing=11
			11:leaf=0.0672043562
			12:leaf=-0.00157719688
		6:[looper_ZPt<317.354065] yes=13,no=14,missing=13
			13:leaf=-0.0497388169
			14:leaf=0.0578675047
booster[154]:
0:[looper_vecsum_pt_4l<35.8496857] yes=1,no=2,missing=1
	1:[looper_scalarsum_pt_4l<387.225983] yes=3,no=4,missing=3
		3:[looper_ZPt<166.470901] yes=7,no=8,missing=7
			7:leaf=0.0068849274
			8:leaf=-0.0703738555
		4:[looper_lep3Pt<189.702972] yes=9,no=10,missing=9
			9:leaf=0.0726098195
			10:leaf=0.0167137869
	2:[looper_scalarsum_pt_4l<181.140198] yes=5,no=6,missing=5
		5:[looper_minDRJetToLep3<4.21837568] yes=11,no=12,missing=11
			11:leaf=-0.0109409131
			12:leaf=0.0264839884
		6:[looper_MllN<77.3105469] yes=13,no=14,missing=13
			13:leaf=0.005586165
			14:leaf=-0.00206201128
booster[155]:
0:[looper_lep4Pt<22.5214825] yes=1,no=2,missing=1
	1:[looper_vecsum_pt_4l<249.111252] yes=3,no=4,missing=3
		3:[looper_mt2<21.5849113] yes=7,no=8,missing=7
			7:leaf=-0.0136687104
			8:leaf=0.00486155367
		4:[looper_ZPt<295.852539] yes=9,no=10,missing=9
			9:leaf=-0.0419379324
			10:leaf=-0.0068759094
	2:[looper_minDRJetToLep4<1.80270267] yes=5,no=6,missing=5
		5:[looper_MllN<31.0212555] yes=11,no=12,missing=11
			11:leaf=0.02356622
			12:leaf=-0.00340361823
		6:[looper_jet1Pt<115.647049] yes=13,no=14,missing=13
			13:leaf=-0.000739446376
			14:leaf=0.0162722468
booster[156]:
0:[looper_jet1Pt<30.0346909] yes=1,no=2,missing=1
	1:[looper_lep3Pt<299.325989] yes=3,no=4,missing=3
		3:[looper_mt2<93.1797485] yes=7,no=8,missing=7
			7:leaf=0.00832402334
			8:leaf=-0.0546835959
		4:leaf=0.0866219848
	2:[looper_minDRJetToLep4<0.74325645] yes=5,no=6,missing=5
		5:[looper_jet1Pt<101.366081] yes=9,no=10,missing=9
			9:leaf=0.00275209616
			10:leaf=-0.0219481066
		6:[looper_lep4Pt<85.0429535] yes=11,no=12,missing=11
			11:leaf=-0.000758224225
			12:leaf=0.0121709658
booster[157]:
0:[looper_minDRJetToLep4<6.45773411] yes=1,no=2,missing=1
	1:[looper_ZPt<544.024963] yes=3,no=4,missing=3
		3:[looper_vecsum_pt_4l<224.53421] yes=7,no=8,missing=7
			7:leaf=0.000794540159
			8:leaf=-0.00669271359
		4:[looper_minDRJetToLep3<1.02358603] yes=9,no=10,missing=9
			9:leaf=-0.00548463408
			10:leaf=0.0612577461
	2:[looper_minDRJetToLep3<5.5117588] yes=5,no=6,missing=5
		5:leaf=0.0947349742
		6:leaf=0.0043505691
booster[158]:
0:[looper_scalarsum_pt_4l<328.735718] yes=1,no=2,missing=1
	1:[looper_mt2<89.8386993] yes=3,no=4,missing=3
		3:[looper_minDRJetToLep3<2.46916723] yes=7,no=8,missing=7
			7:leaf=-0.00446336297
			8:leaf=0.00431375671
		4:[looper_vecsum_pt_4l<33.024147] yes=9,no=10,missing=9
			9:leaf=0.102416776
			10:leaf=-0.0353276096
	2:[looper_MllN<239.6409] yes=5,no=6,missing=5
		5:[looper_lep3Pt<71.5017166] yes=11,no=12,missing=11
			11:leaf=-0.00716610346
			12:leaf=0.0106628751
		6:[looper_ZPt<115.371902] yes=13,no=14,missing=13
			13:leaf=0.0117217274
			14:leaf=-0.0149842352
booster[159]:
0:[looper_jet1Pt<493.03125] yes=1,no=2,missing=1
	1:[looper_vecsum_pt_4l<228.226639] yes=3,no=4,missing=3
		3:[looper_scalarsum_pt_4l<375.655243] yes=7,no=8,missing=7
			7:leaf=-0.000493776228
			8:leaf=0.00869322103
		4:[looper_jet1Pt<76.1534805] yes=9,no=10,missing=9
			9:leaf=0.0147184012
			10:leaf=-0.0105915284
	2:[looper_MllN<70.0215836] yes=5,no=6,missing=5
		5:[looper_mt2<45.7732124] yes=11,no=12,missing=11
			11:leaf=-0.0530620776
			12:leaf=0.0476907901
		6:[looper_minDRJetToLep4<0.66933465] yes=13,no=14,missing=13
			13:leaf=-0.0317316167
			14:leaf=0.0468686149
booster[160]:
0:[looper_scalarsum_pt_4l<1126.82544] yes=1,no=2,missing=1
	1:[looper_MllN<145.693848] yes=3,no=4,missing=3
		3:[looper_ZPt<108.224487] yes=7,no=8,missing=7
			7:leaf=-0.0026122944
			8:leaf=0.00511723384
		4:[looper_ZPt<54.9788322] yes=9,no=10,missing=9
			9:leaf=0.0103782406
			10:leaf=-0.0061919922
	2:[looper_lep3Pt<361.998657] yes=5,no=6,missing=5
		5:leaf=0.0186222587
		6:leaf=0.091544345
booster[161]:
0:[looper_lep4Pt<11.013361] yes=1,no=2,missing=1
	1:[looper_ZPt<194.631653] yes=3,no=4,missing=3
		3:[looper_vecsum_pt_4l<150.413116] yes=7,no=8,missing=7
			7:leaf=-0.0132093458
			8:leaf=-0.0618738346
		4:[looper_vecsum_pt_4l<188.491013] yes=9,no=10,missing=9
			9:leaf=0.0935342759
			10:leaf=-0.0130678518
	2:[looper_vecsum_pt_4l<66.5883179] yes=5,no=6,missing=5
		5:[looper_jet1Pt<103.916077] yes=11,no=12,missing=11
			11:leaf=0.00707577122
			12:leaf=-0.00647862954
		6:[looper_scalarsum_pt_4l<171.126358] yes=13,no=14,missing=13
			13:leaf=-0.0162661355
			14:leaf=-8.86331545e-05
booster[162]:
0:[looper_minDRJetToLep3<6.2058382] yes=1,no=2,missing=1
	1:[looper_mt2<189.215363] yes=3,no=4,missing=3
		3:[looper_vecsum_pt_4l<684.040833] yes=7,no=8,missing=7
			7:leaf=-8.70023869e-05
			8:leaf=0.0835824534
		4:[looper_minDRJetToLep3<2.01444864] yes=9,no=10,missing=9
			9:leaf=0.0181633662
			10:leaf=-0.105155937
	2:[looper_mt2<35.6806679] yes=5,no=6,missing=5
		5:[looper_minDRJetToLep3<6.45804596] yes=11,no=12,missing=11
			11:leaf=0.0799815878
			12:leaf=-0.0389820114
		6:leaf=0.0994859189
booster[163]:
0:[looper_vecsum_pt_4l<114.987717] yes=1,no=2,missing=1
	1:[looper_mt2<19.4069176] yes=3,no=4,missing=3
		3:[looper_minDRJetToLep4<3.83738542] yes=7,no=8,missing=7
			7:leaf=-0.00626552943
			8:leaf=0.0166046452
		4:[looper_minDRJetToLep3<5.83830118] yes=9,no=10,missing=9
			9:leaf=0.00454514939
			10:leaf=0.0725896284
	2:[looper_scalarsum_pt_4l<217.708923] yes=5,no=6,missing=5
		5:[looper_minDRJetToLep3<3.48692727] yes=11,no=12,missing=11
			11:leaf=-0.0252740271
			12:leaf=0.0133879725
		6:[looper_jet1Pt<130.52655] yes=13,no=14,missing=13
			13:leaf=-0.00430572219
			14:leaf=0.00474910671
booster[164]:
0:[looper_MllN<105.339661] yes=1,no=2,missing=1
	1:[looper_ZPt<95.1266479] yes=3,no=4,missing=3
		3:[looper_vecsum_pt_4l<50.380146] yes=7,no=8,missing=7
			7:leaf=0.00831312593
			8:leaf=-0.00992025435
		4:[looper_vecsum_pt_4l<180.524078] yes=9,no=10,missing=9
			9:leaf=0.0126298442
			10:leaf=-0.00442922069
	2:[looper_lep4Pt<38.3138428] yes=5,no=6,missing=5
		5:[looper_jet1Pt<35.358223] yes=11,no=12,missing=11
			11:leaf=0.0109290881
			12:leaf=-0.0131452102
		6:[looper_minDRJetToLep3<1.2394917] yes=13,no=14,missing=13
			13:leaf=-0.00902714115
			14:leaf=0.00603788672
booster[165]:
0:[looper_MllN<15.8355112] yes=1,no=2,missing=1
	1:[looper_minDRJetToLep4<2.50068164] yes=3,no=4,missing=3
		3:[looper_ZPt<145.697174] yes=7,no=8,missing=7
			7:leaf=0.0241809767
			8:leaf=0.0807789415
		4:[looper_MllN<14.5847969] yes=9,no=10,missing=9
			9:leaf=-0.0437366776
			10:leaf=0.0416401587
	2:[looper_MllN<16.3368053] yes=5,no=6,missing=5
		5:[looper_vecsum_pt_4l<54.43153] yes=11,no=12,missing=11
			11:leaf=0.0227248576
			12:leaf=-0.076765947
		6:[looper_lep4Pt<13.8365669] yes=13,no=14,missing=13
			13:leaf=-0.00894563179
			14:leaf=0.00052224932
booster[166]:
0:[looper_jet1Pt<30.0346909] yes=1,no=2,missing=1
	1:[looper_scalarsum_pt_4l<156.66243] yes=3,no=4,missing=3
		3:[looper_scalarsum_pt_4l<135.87326] yes=7,no=8,missing=7
			7:leaf=-0.0117728515
			8:leaf=0.065618597
		4:[looper_MllN<309.538574] yes=9,no=10,missing=9
			9:leaf=0.00264206878
			10:leaf=0.040298488
	2:[looper_jet1Pt<32.1657562] yes=5,no=6,missing=5
		5:[looper_mt2<23.8250122] yes=11,no=12,missing=11
			11:leaf=-0.0656518564
			12:leaf=0.00172438123
		6:[looper_minDRJetToLep3<6.03003693] yes=13,no=14,missing=13
			13:leaf=-0.000358589226
			14:leaf=0.0607106164
booster[167]:
0:[looper_MllN<217.919632] yes=1,no=2,missing=1
	1:[looper_scalarsum_pt_4l<344.897583] yes=3,no=4,missing=3
		3:[looper_mt2<88.9120941] yes=7,no=8,missing=7
			7:leaf=-0.000257851701
			8:leaf=-0.0272520985
		4:[looper_lep3Pt<71.2879105] yes=9,no=10,missing=9
			9:leaf=-0.00732907653
			10:leaf=0.0109722475
	2:[looper_lep3Pt<232.696136] yes=5,no=6,missing=5
		5:[looper_ZPt<158.782166] yes=11,no=12,missing=11
			11:leaf=-0.00132760033
			12:leaf=-0.0232377034
		6:[looper_lep4Pt<34.9464722] yes=13,no=14,missing=13
			13:leaf=-0.045277141
			14:leaf=0.018292645
booster[168]:
0:[looper_minDRJetToLep4<6.45773411] yes=1,no=2,missing=1
	1:[looper_MllN<46.0865898] yes=3,no=4,missing=3
		3:[looper_ZPt<113.018234] yes=7,no=8,missing=7
			7:leaf=-0.0066098622
			8:leaf=0.0152362613
		4:[looper_mt2<42.1996307] yes=9,no=10,missing=9
			9:leaf=-0.00338498759
			10:leaf=0.00318987179
	2:[looper_jet1Pt<34.9237747] yes=5,no=6,missing=5
		5:leaf=0.00417956291
		6:leaf=0.0919587836
booster[169]:
0:[looper_scalarsum_pt_4l<1126.82544] yes=1,no=2,missing=1
	1:[looper_vecsum_pt_4l<118.784012] yes=3,no=4,missing=3
		3:[looper_MllN<32.4629669] yes=7,no=8,missing=7
			7:leaf=0.0151552679
			8:leaf=0.000853083038
		4:[looper_scalarsum_pt_4l<239.744629] yes=9,no=10,missing=9
			9:leaf=-0.0138806319
			10:leaf=0.000423187943
	2:[looper_minDRJetToLep4<0.87923044] yes=5,no=6,missing=5
		5:leaf=0.0213158615
		6:leaf=0.0937106311
booster[170]:
0:[looper_mt2<189.215363] yes=1,no=2,missing=1
	1:[looper_vecsum_pt_4l<684.040833] yes=3,no=4,missing=3
		3:[looper_lep4Pt<91.2972107] yes=7,no=8,missing=7
			7:leaf=-0.00052822131
			8:leaf=0.00831214152
		4:[looper_MllN<171.335449] yes=9,no=10,missing=9
			9:leaf=0.104374245
			10:leaf=0.0352422334
	2:[looper_lep4Pt<110.563477] yes=5,no=6,missing=5
		5:[looper_minDRJetToLep4<1.76975513] yes=11,no=12,missing=11
			11:leaf=0.0336160474
			12:leaf=-0.0292090084
		6:leaf=-0.108917847
booster[171]:
0:[looper_MllN<262.763184] yes=1,no=2,missing=1
	1:[looper_scalarsum_pt_4l<560.958618] yes=3,no=4,missing=3
		3:[looper_jet1Pt<155.564392] yes=7,no=8,missing=7
			7:leaf=-0.0015413881
			8:leaf=0.00600526761
		4:[looper_mt2<42.8977966] yes=9,no=10,missing=9
			9:leaf=0.00547302747
			10:leaf=0.0359766744
	2:[looper_jet1Pt<153.236603] yes=5,no=6,missing=5
		5:[looper_MllN<262.92511] yes=11,no=12,missing=11
			11:leaf=-0.169248909
			12:leaf=0.0019453885
		6:[looper_lep4Pt<124.914917] yes=13,no=14,missing=13
			13:leaf=-0.034270186
			14:leaf=0.0184256714
booster[172]:
0:[looper_minDRJetToLep4<2.24622631] yes=1,no=2,missing=1
	1:[looper_minDRJetToLep3<2.98470783] yes=3,no=4,missing=3
		3:[looper_ZPt<132.728943] yes=7,no=8,missing=7
			7:leaf=-0.00930283777
			8:leaf=0.00172235572
		4:[looper_ZPt<114.013115] yes=9,no=10,missing=9
			9:leaf=0.0198704489
			10:leaf=-0.00445491029
	2:[looper_mt2<66.2457581] yes=5,no=6,missing=5
		5:[looper_lep4Pt<25.9945869] yes=11,no=12,missing=11
			11:leaf=-0.00192939362
			12:leaf=0.00851238053
		6:[looper_MllN<52.2134743] yes=13,no=14,missing=13
			13:leaf=-0.0530062392
			14:leaf=-0.000780442671
booster[173]:
0:[looper_MllN<123.885284] yes=1,no=2,missing=1
	1:[looper_mt2<100.392731] yes=3,no=4,missing=3
		3:[looper_lep4Pt<74.5396881] yes=7,no=8,missing=7
			7:leaf=0.00153829379
			8:leaf=0.05264562
		4:[looper_minDRJetToLep4<2.23529506] yes=9,no=10,missing=9
			9:leaf=0.00346474838
			10:leaf=-0.0778937489
	2:[looper_lep4Pt<38.3138428] yes=5,no=6,missing=5
		5:[looper_lep3Pt<124.745941] yes=11,no=12,missing=11
			11:leaf=-0.0186057631
			12:leaf=-0.000440752687
		6:[looper_minDRJetToLep4<1.58789515] yes=13,no=14,missing=13
			13:leaf=-0.00634111464
			14:leaf=0.00673484895
booster[174]:
