booster[0]:
0:[met_pt<57.9874191] yes=1,no=2,missing=1
	1:[looper_MllN<139.746368] yes=3,no=4,missing=3
		3:[looper_vecsum_pt_4l<29.8009758] yes=7,no=8,missing=7
			7:[looper_MllN<62.9983444] yes=15,no=16,missing=15
				15:[looper_pt_zeta_vis<83.8327332] yes=31,no=32,missing=31
					31:leaf=-0.149683133
					32:leaf=-0.0425926708
				16:[looper_MllN<114.617744] yes=33,no=34,missing=33
					33:leaf=-0.180156171
					34:leaf=-0.137952194
			8:[looper_MllN<62.373848] yes=17,no=18,missing=17
				17:[met_pt<36.1248512] yes=35,no=36,missing=35
					35:leaf=-0.0542846695
					36:leaf=0.0573864765
				18:[met_pt<38.0318756] yes=37,no=38,missing=37
					37:leaf=-0.138469651
					38:leaf=-0.0516633168
		4:[looper_vecsum_pt_4l<21.1619301] yes=9,no=10,missing=9
			9:[looper_vecsum_pt_4l<11.6634769] yes=19,no=20,missing=19
				19:[looper_m_4l<372.848938] yes=39,no=40,missing=39
					39:leaf=-0.148961708
					40:leaf=-0.0788831487
				20:[looper_m_4l<354.14563] yes=41,no=42,missing=41
					41:leaf=-0.0849620476
					42:leaf=-0.00133084273
			10:[met_pt<32.2002945] yes=21,no=22,missing=21
				21:[looper_m_4l<348.375946] yes=43,no=44,missing=43
					43:leaf=-0.0381488688
					44:leaf=0.0509710796
				22:[looper_m_4l<337.384216] yes=45,no=46,missing=45
					45:leaf=0.0634249747
					46:leaf=0.126326829
	2:[looper_vecsum_pt_4l<30.1593399] yes=5,no=6,missing=5
		5:[looper_MllN<136.12355] yes=11,no=12,missing=11
			11:[looper_vecsum_pt_4l<17.6149712] yes=23,no=24,missing=23
				23:[met_pt<115.853195] yes=47,no=48,missing=47
					47:leaf=-0.130453378
					48:leaf=0.078880012
				24:[looper_MllN<63.5807419] yes=49,no=50,missing=49
					49:leaf=0.0453513227
					50:leaf=-0.0665744767
			12:[looper_vecsum_pt_4l<14.9460745] yes=25,no=26,missing=25
				25:[met_pt<100.781693] yes=51,no=52,missing=51
					51:leaf=-0.0222476348
					52:leaf=0.120662808
				26:[met_pt<90.892746] yes=53,no=54,missing=53
					53:leaf=0.101452507
					54:leaf=0.163373902
		6:[met_pt<80.8189087] yes=13,no=14,missing=13
			13:[looper_MllN<124.114273] yes=27,no=28,missing=27
				27:[looper_MllN<67.6968842] yes=55,no=56,missing=55
					55:leaf=0.133643553
					56:leaf=0.0361649357
				28:[looper_m_4l<296.609009] yes=57,no=58,missing=57
					57:leaf=0.132938609
					58:leaf=0.17230171
			14:[looper_vecsum_pt_4l<54.4805527] yes=29,no=30,missing=29
				29:[looper_MllN<117.734718] yes=59,no=60,missing=59
					59:leaf=0.131291464
					60:leaf=0.179955497
				30:[met_pt<100.228783] yes=61,no=62,missing=61
					61:leaf=0.177024886
					62:leaf=0.194891021
booster[1]:
0:[met_pt<55.9496193] yes=1,no=2,missing=1
	1:[looper_MllN<138.474518] yes=3,no=4,missing=3
		3:[looper_vecsum_pt_4l<26.7654724] yes=7,no=8,missing=7
			7:[looper_MllN<65.4248657] yes=15,no=16,missing=15
				15:[looper_pt_zeta_vis<95.1553802] yes=31,no=32,missing=31
					31:leaf=-0.13861841
					32:leaf=-0.0322659351
				16:[looper_MllN<113.442192] yes=33,no=34,missing=33
					33:leaf=-0.16725193
					34:leaf=-0.133348525
			8:[looper_MllN<63.9048386] yes=17,no=18,missing=17
				17:[looper_mt2<26.0645065] yes=35,no=36,missing=35
					35:leaf=-0.0579221137
					36:leaf=0.0406448655
				18:[looper_MllN<112.203949] yes=37,no=38,missing=37
					37:leaf=-0.125514969
					38:leaf=-0.0364717953
		4:[looper_vecsum_pt_4l<25.1453018] yes=9,no=10,missing=9
			9:[looper_vecsum_pt_4l<12.5327101] yes=19,no=20,missing=19
				19:[looper_m_4l<372.842468] yes=39,no=40,missing=39
					39:leaf=-0.131811753
					40:leaf=-0.0690331087
				20:[looper_m_4l<359.856262] yes=41,no=42,missing=41
					41:leaf=-0.0672249123
					42:leaf=0.0106683951
			10:[met_pt<30.728466] yes=21,no=22,missing=21
				21:[looper_m_4l<378.262268] yes=43,no=44,missing=43
					43:leaf=-0.0245325919
					44:leaf=0.0512559712
				22:[looper_m_4l<322.597534] yes=45,no=46,missing=45
					45:leaf=0.0485055931
					46:leaf=0.111307286
	2:[looper_vecsum_pt_4l<33.789856] yes=5,no=6,missing=5
		5:[looper_m_4l<270.152649] yes=11,no=12,missing=11
			11:[looper_vecsum_pt_4l<18.8859673] yes=23,no=24,missing=23
				23:[met_pt<118.47406] yes=47,no=48,missing=47
					47:leaf=-0.130331263
					48:leaf=0.0732816681
				24:[met_pt<91.9847412] yes=49,no=50,missing=49
					49:leaf=-0.0506956652
					50:leaf=0.0827085301
			12:[looper_vecsum_pt_4l<17.1387615] yes=25,no=26,missing=25
				25:[looper_MllN<154.665482] yes=51,no=52,missing=51
					51:leaf=-0.0665818825
					52:leaf=0.0255398341
				26:[looper_MllN<131.604218] yes=53,no=54,missing=53
					53:leaf=0.0344965719
					54:leaf=0.118609689
		6:[met_pt<77.5796356] yes=13,no=14,missing=13
			13:[looper_MllN<127.60556] yes=27,no=28,missing=27
				27:[looper_MllN<66.4311066] yes=55,no=56,missing=55
					55:leaf=0.119714975
					56:leaf=0.0314847343
				28:[looper_m_4l<321.633301] yes=57,no=58,missing=57
					57:leaf=0.126629129
					58:leaf=0.157273889
			14:[met_pt<97.1825714] yes=29,no=30,missing=29
				29:[looper_vecsum_pt_4l<52.4965096] yes=59,no=60,missing=59
					59:leaf=0.112600647
					60:leaf=0.157139406
				30:[looper_vecsum_pt_4l<65.2488708] yes=61,no=62,missing=61
					61:leaf=0.160764083
					62:leaf=0.177258417
booster[2]:
0:[met_pt<59.4345474] yes=1,no=2,missing=1
	1:[looper_MllN<131.869446] yes=3,no=4,missing=3
		3:[looper_vecsum_pt_4l<32.6000519] yes=7,no=8,missing=7
			7:[looper_vecsum_pt_4l<16.0246124] yes=15,no=16,missing=15
				15:[looper_pt_zeta_vis<78.7506104] yes=31,no=32,missing=31
					31:leaf=-0.154817328
					32:leaf=-0.123551801
				16:[looper_MllN<60.9194946] yes=33,no=34,missing=33
					33:leaf=-0.0657114312
					34:leaf=-0.130518898
			8:[met_pt<35.5549393] yes=17,no=18,missing=17
				17:[looper_MllN<62.2075348] yes=35,no=36,missing=35
					35:leaf=-0.0454747491
					36:leaf=-0.121910058
				18:[looper_MllN<68.0691833] yes=37,no=38,missing=37
					37:leaf=0.0502155907
					38:leaf=-0.0519070104
		4:[looper_vecsum_pt_4l<21.1480484] yes=9,no=10,missing=9
			9:[looper_m_4l<341.312042] yes=19,no=20,missing=19
				19:[looper_vecsum_pt_4l<11.6908903] yes=39,no=40,missing=39
					39:leaf=-0.134429246
					40:leaf=-0.0778946802
				20:[looper_vecsum_pt_4l<9.3105278] yes=41,no=42,missing=41
					41:leaf=-0.0849756375
					42:leaf=-0.0139675764
			10:[met_pt<29.842432] yes=21,no=22,missing=21
				21:[looper_m_4l<336.992706] yes=43,no=44,missing=43
					43:leaf=-0.0473932289
					44:leaf=0.0322782472
				22:[looper_m_4l<322.752686] yes=45,no=46,missing=45
					45:leaf=0.0400524363
					46:leaf=0.100397982
	2:[looper_vecsum_pt_4l<28.5406284] yes=5,no=6,missing=5
		5:[looper_m_4l<286.221313] yes=11,no=12,missing=11
			11:[met_pt<104.875122] yes=23,no=24,missing=23
				23:[looper_MllN<64.4187546] yes=47,no=48,missing=47
					47:leaf=-0.0463745557
					48:leaf=-0.117696904
				24:[met_pt<146.256622] yes=49,no=50,missing=49
					49:leaf=0.0314448252
					50:leaf=0.160419434
			12:[looper_vecsum_pt_4l<12.95681] yes=25,no=26,missing=25
				25:[met_pt<84.657196] yes=51,no=52,missing=51
					51:leaf=-0.0641482994
					52:leaf=0.0350653157
				26:[met_pt<96.0608063] yes=53,no=54,missing=53
					53:leaf=0.0414418019
					54:leaf=0.135598972
		6:[met_pt<82.462471] yes=13,no=14,missing=13
			13:[looper_MllN<118.198601] yes=27,no=28,missing=27
				27:[looper_MllN<70.4866791] yes=55,no=56,missing=55
					55:leaf=0.111072257
					56:leaf=0.0200509634
				28:[looper_m_4l<292.799255] yes=57,no=58,missing=57
					57:leaf=0.108387664
					58:leaf=0.144801781
			14:[looper_vecsum_pt_4l<56.8589096] yes=29,no=30,missing=29
				29:[looper_m_4l<258.867065] yes=59,no=60,missing=59
					59:leaf=0.101838149
					60:leaf=0.14458181
				30:[met_pt<103.174332] yes=61,no=62,missing=61
					61:leaf=0.149896547
					62:leaf=0.164168552
booster[3]:
0:[met_pt<54.1905289] yes=1,no=2,missing=1
	1:[looper_MllN<147.985992] yes=3,no=4,missing=3
		3:[looper_vecsum_pt_4l<25.0471516] yes=7,no=8,missing=7
			7:[looper_pt_zeta_vis<79.5807037] yes=15,no=16,missing=15
				15:[looper_vecsum_pt_4l<14.5398521] yes=31,no=32,missing=31
					31:leaf=-0.14507845
					32:leaf=-0.120583825
				16:[looper_MllN<66.682724] yes=33,no=34,missing=33
					33:leaf=-0.0471127741
					34:leaf=-0.128072381
			8:[met_pt<32.8489265] yes=17,no=18,missing=17
				17:[looper_MllN<58.2660446] yes=35,no=36,missing=35
					35:leaf=-0.0477982424
					36:leaf=-0.110656142
				18:[looper_MllN<66.0380707] yes=37,no=38,missing=37
					37:leaf=0.0259030201
					38:leaf=-0.0533547699
		4:[looper_vecsum_pt_4l<19.8243332] yes=9,no=10,missing=9
			9:[looper_vecsum_pt_4l<10.6248779] yes=19,no=20,missing=19
				19:[looper_m_4l<420.057495] yes=39,no=40,missing=39
					39:leaf=-0.108324245
					40:leaf=-0.0537128262
				20:[looper_m_4l<412.319885] yes=41,no=42,missing=41
					41:leaf=-0.0541547798
					42:leaf=0.00221890002
			10:[met_pt<28.3269939] yes=21,no=22,missing=21
				21:[looper_m_4l<411.292175] yes=43,no=44,missing=43
					43:leaf=-0.015002667
					44:leaf=0.0434097424
				22:[looper_m_4l<375.267761] yes=45,no=46,missing=45
					45:leaf=0.047267098
					46:leaf=0.0932521895
	2:[looper_vecsum_pt_4l<37.9342422] yes=5,no=6,missing=5
		5:[looper_vecsum_pt_4l<19.0113964] yes=11,no=12,missing=11
			11:[looper_MllN<128.102158] yes=23,no=24,missing=23
				23:[looper_pt_zeta<128.776566] yes=47,no=48,missing=47
					47:leaf=-0.109252922
					48:leaf=5.69573967e-05
				24:[looper_vecsum_pt_4l<9.06444836] yes=49,no=50,missing=49
					49:leaf=-0.0509928055
					50:leaf=0.0357896537
			12:[looper_MllN<121.881622] yes=25,no=26,missing=25
				25:[looper_MllN<65.467926] yes=51,no=52,missing=51
					51:leaf=0.0484303795
					52:leaf=-0.0612715781
				26:[met_pt<86.5080872] yes=53,no=54,missing=53
					53:leaf=0.082963936
					54:leaf=0.136418879
		6:[met_pt<73.7757568] yes=13,no=14,missing=13
			13:[looper_MllN<121.190704] yes=27,no=28,missing=27
				27:[looper_MllN<70.4907684] yes=55,no=56,missing=55
					55:leaf=0.0958904475
					56:leaf=0.00823629368
				28:[looper_m_4l<283.999542] yes=57,no=58,missing=57
					57:leaf=0.088730529
					58:leaf=0.129854232
			14:[met_pt<95.093811] yes=29,no=30,missing=29
				29:[looper_MllN<124.104309] yes=59,no=60,missing=59
					59:leaf=0.114501275
					60:leaf=0.147594407
				30:[met_pt<119.503967] yes=61,no=62,missing=61
					61:leaf=0.144560903
					62:leaf=0.154819891
booster[4]:
0:[met_pt<61.4674606] yes=1,no=2,missing=1
	1:[looper_m_4l<283.978577] yes=3,no=4,missing=3
		3:[looper_mt2<33.6383362] yes=7,no=8,missing=7
			7:[looper_ZPt<97.9746246] yes=15,no=16,missing=15
				15:[looper_vecsum_pt_4l<19.8222466] yes=31,no=32,missing=31
					31:leaf=-0.133715898
					32:leaf=-0.097431615
				16:[met_pt<37.3122177] yes=33,no=34,missing=33
					33:leaf=-0.0553970709
					34:leaf=0.0338192545
			8:[looper_vecsum_pt_4l<27.5773754] yes=17,no=18,missing=17
				17:[looper_vecsum_pt_4l<15.4442892] yes=35,no=36,missing=35
					35:leaf=-0.11175517
					36:leaf=-0.0492872074
				18:[looper_MllN<70.7423553] yes=37,no=38,missing=37
					37:leaf=0.0429771021
					38:leaf=-0.0289179422
		4:[looper_vecsum_pt_4l<26.0333233] yes=9,no=10,missing=9
			9:[looper_MllN<168.216125] yes=19,no=20,missing=19
				19:[looper_MllN<63.0148849] yes=39,no=40,missing=39
					39:leaf=-0.014357564
					40:leaf=-0.102665029
				20:[looper_vecsum_pt_4l<12.2248802] yes=41,no=42,missing=41
					41:leaf=-0.0596319735
					42:leaf=0.00666917209
			10:[met_pt<39.1299438] yes=21,no=22,missing=21
				21:[looper_MllN<127.202209] yes=43,no=44,missing=43
					43:leaf=-0.0457537286
					44:leaf=0.0318189077
				22:[looper_MllN<121.277374] yes=45,no=46,missing=45
					45:leaf=0.0352067314
					46:leaf=0.0970420092
	2:[looper_vecsum_pt_4l<38.3725281] yes=5,no=6,missing=5
		5:[looper_vecsum_pt_4l<17.6149712] yes=11,no=12,missing=11
			11:[looper_m_4l<300.535553] yes=23,no=24,missing=23
				23:[met_pt<126.275146] yes=47,no=48,missing=47
					47:leaf=-0.0956445038
					48:leaf=0.0870003328
				24:[met_pt<110.604889] yes=49,no=50,missing=49
					49:leaf=-0.0127296969
					50:leaf=0.120852031
			12:[looper_m_4l<248.362366] yes=25,no=26,missing=25
				25:[looper_MllN<68.7460556] yes=51,no=52,missing=51
					51:leaf=0.0244063437
					52:leaf=-0.0679923072
				26:[met_pt<95.6763535] yes=53,no=54,missing=53
					53:leaf=0.0549403913
					54:leaf=0.127394095
		6:[met_pt<86.8948288] yes=13,no=14,missing=13
			13:[looper_MllN<115.933044] yes=27,no=28,missing=27
				27:[looper_MllN<71.5458069] yes=55,no=56,missing=55
					55:leaf=0.105739549
					56:leaf=0.0328420997
				28:[looper_m_4l<296.294556] yes=57,no=58,missing=57
					57:leaf=0.105083302
					58:leaf=0.131201401
			14:[looper_vecsum_pt_4l<68.5267868] yes=29,no=30,missing=29
				29:[looper_MllN<122.589523] yes=59,no=60,missing=59
					59:leaf=0.113262728
					60:leaf=0.142271146
				30:[met_pt<112.309631] yes=61,no=62,missing=61
					61:leaf=0.136803985
					62:leaf=0.146213099
booster[5]:
0:[met_pt<52.4985123] yes=1,no=2,missing=1
	1:[looper_m_4l<286.045746] yes=3,no=4,missing=3
		3:[looper_mt2<30.6307735] yes=7,no=8,missing=7
			7:[looper_ZPt<102.721924] yes=15,no=16,missing=15
				15:[looper_vecsum_pt_4l<19.8277321] yes=31,no=32,missing=31
					31:leaf=-0.12688908
					32:leaf=-0.0949836895
				16:[looper_MllN<68.3172455] yes=33,no=34,missing=33
					33:leaf=0.00945418142
					34:leaf=-0.0793232918
			8:[looper_vecsum_pt_4l<21.4583683] yes=17,no=18,missing=17
				17:[looper_vecsum_pt_4l<13.4420815] yes=35,no=36,missing=35
					35:leaf=-0.114930868
					36:leaf=-0.0712960437
				18:[looper_MllN<68.2484741] yes=37,no=38,missing=37
					37:leaf=0.0160401668
					38:leaf=-0.0488059819
		4:[looper_vecsum_pt_4l<18.0615425] yes=9,no=10,missing=9
			9:[looper_MllN<156.390778] yes=19,no=20,missing=19
				19:[looper_MllN<62.746666] yes=39,no=40,missing=39
					39:leaf=-0.0436553322
					40:leaf=-0.111605242
				20:[looper_vecsum_pt_4l<9.3105278] yes=41,no=42,missing=41
					41:leaf=-0.0711270198
					42:leaf=-0.0226899739
			10:[looper_MllN<121.481407] yes=21,no=22,missing=21
				21:[looper_MllN<68.4326019] yes=43,no=44,missing=43
					43:leaf=0.0523995645
					44:leaf=-0.0784171149
				22:[met_pt<28.3269939] yes=45,no=46,missing=45
					45:leaf=0.00587442471
					46:leaf=0.0626534447
	2:[looper_vecsum_pt_4l<38.7757797] yes=5,no=6,missing=5
		5:[looper_MllN<128.011536] yes=11,no=12,missing=11
			11:[looper_MllN<63.5801125] yes=23,no=24,missing=23
				23:[looper_m_4l<229.18811] yes=47,no=48,missing=47
					47:leaf=-0.0265270155
					48:leaf=0.0744222403
				24:[met_pt<105.846756] yes=49,no=50,missing=49
					49:leaf=-0.0862876698
					50:leaf=0.0619098023
			12:[looper_vecsum_pt_4l<15.1915388] yes=25,no=26,missing=25
				25:[looper_m_4l<339.673401] yes=51,no=52,missing=51
					51:leaf=-0.0574685894
					52:leaf=0.0259312037
				26:[met_pt<77.973587] yes=53,no=54,missing=53
					53:leaf=0.0675332174
					54:leaf=0.111865476
		6:[met_pt<75.1681519] yes=13,no=14,missing=13
			13:[looper_MllN<118.93103] yes=27,no=28,missing=27
				27:[looper_MllN<65.9943848] yes=55,no=56,missing=55
					55:leaf=0.0876054689
					56:leaf=0.00951402728
				28:[looper_MllN<158.561478] yes=57,no=58,missing=57
					57:leaf=0.0931369886
					58:leaf=0.117539287
			14:[met_pt<97.3086548] yes=29,no=30,missing=29
				29:[looper_MllN<124.104309] yes=59,no=60,missing=59
					59:leaf=0.101514615
					60:leaf=0.132212147
				30:[met_pt<119.503967] yes=61,no=62,missing=61
					61:leaf=0.129315436
					62:leaf=0.139252469
booster[6]:
0:[met_pt<63.8123169] yes=1,no=2,missing=1
	1:[looper_vecsum_pt_4l<32.934227] yes=3,no=4,missing=3
		3:[looper_MllN<130.325775] yes=7,no=8,missing=7
			7:[looper_MllN<67.248291] yes=15,no=16,missing=15
				15:[looper_pt_zeta_vis<80.0519714] yes=31,no=32,missing=31
					31:leaf=-0.0904317647
					32:leaf=-0.0106101297
				16:[looper_MllN<109.234818] yes=33,no=34,missing=33
					33:leaf=-0.122729681
					34:leaf=-0.088311322
			8:[looper_vecsum_pt_4l<14.5341053] yes=17,no=18,missing=17
				17:[looper_m_4l<409.058044] yes=35,no=36,missing=35
					35:leaf=-0.0843354911
					36:leaf=-0.0256373119
				18:[looper_MllN<196.973969] yes=37,no=38,missing=37
					37:leaf=-0.0238678772
					38:leaf=0.0279382616
		4:[met_pt<39.8734512] yes=9,no=10,missing=9
			9:[looper_MllN<122.86293] yes=19,no=20,missing=19
				19:[looper_MllN<68.2397919] yes=39,no=40,missing=39
					39:leaf=-0.0262840744
					40:leaf=-0.0987311527
				20:[looper_m_4l<348.491425] yes=41,no=42,missing=41
					41:leaf=-0.0121791651
					42:leaf=0.0414413996
			10:[looper_MllN<117.624084] yes=21,no=22,missing=21
				21:[looper_MllN<69.9384003] yes=43,no=44,missing=43
					43:leaf=0.0505853966
					44:leaf=-0.0420607291
				22:[looper_m_4l<334.741089] yes=45,no=46,missing=45
					45:leaf=0.0607414618
					46:leaf=0.0931114778
	2:[looper_vecsum_pt_4l<40.3598366] yes=5,no=6,missing=5
		5:[looper_vecsum_pt_4l<21.5923042] yes=11,no=12,missing=11
			11:[looper_m_4l<277.416718] yes=23,no=24,missing=23
				23:[met_pt<121.168549] yes=47,no=48,missing=47
					47:leaf=-0.0774080679
					48:leaf=0.0824556276
				24:[met_pt<81.784668] yes=49,no=50,missing=49
					49:leaf=-0.0210045893
					50:leaf=0.0507385544
			12:[looper_m_4l<248.568359] yes=25,no=26,missing=25
				25:[met_pt<103.729309] yes=51,no=52,missing=51
					51:leaf=-0.00939468946
					52:leaf=0.102644794
				26:[met_pt<96.0752106] yes=53,no=54,missing=53
					53:leaf=0.061416287
					54:leaf=0.117239393
		6:[met_pt<89.489975] yes=13,no=14,missing=13
			13:[looper_MllN<112.666122] yes=27,no=28,missing=27
				27:[looper_MllN<72.8044891] yes=55,no=56,missing=55
					55:leaf=0.0975793675
					56:leaf=0.0249563102
				28:[looper_m_4l<267.038574] yes=57,no=58,missing=57
					57:leaf=0.0856688842
					58:leaf=0.118287139
			14:[looper_vecsum_pt_4l<70.6496582] yes=29,no=30,missing=29
				29:[looper_mt2<27.7144089] yes=59,no=60,missing=59
					59:leaf=0.0923880339
					60:leaf=0.121421173
				30:[looper_lep3MT<27.8470135] yes=61,no=62,missing=61
					61:leaf=0.119068995
					62:leaf=0.132534266
booster[7]:
0:[met_pt<50.3911819] yes=1,no=2,missing=1
	1:[looper_m_4l<279.867737] yes=3,no=4,missing=3
		3:[looper_mt2<26.2721939] yes=7,no=8,missing=7
			7:[looper_ZPt<90.6283646] yes=15,no=16,missing=15
				15:[looper_vecsum_pt_4l<17.3834343] yes=31,no=32,missing=31
					31:leaf=-0.118489042
					32:leaf=-0.0908843502
				16:[looper_MllN<67.6319046] yes=33,no=34,missing=33
					33:leaf=-0.011469203
					34:leaf=-0.0807676837
			8:[looper_vecsum_pt_4l<19.0305824] yes=17,no=18,missing=17
				17:[looper_MllN<66.565094] yes=35,no=36,missing=35
					35:leaf=-0.0842984989
					36:leaf=-0.115771793
				18:[looper_MllN<70.8188171] yes=37,no=38,missing=37
					37:leaf=0.000881374755
					38:leaf=-0.0541099682
		4:[looper_vecsum_pt_4l<18.8100433] yes=9,no=10,missing=9
			9:[looper_MllN<197.266449] yes=19,no=20,missing=19
				19:[looper_MllN<62.1673279] yes=39,no=40,missing=39
					39:leaf=-0.0386217982
					40:leaf=-0.0917911977
				20:[looper_vecsum_pt_4l<5.69538689] yes=41,no=42,missing=41
					41:leaf=-0.0757308602
					42:leaf=-0.0119498363
			10:[looper_MllN<156.677002] yes=21,no=22,missing=21
				21:[looper_MllN<62.2597656] yes=43,no=44,missing=43
					43:leaf=0.0550874472
					44:leaf=-0.0428788923
				22:[met_pt<19.4055424] yes=45,no=46,missing=45
					45:leaf=-0.00137198332
					46:leaf=0.0504310206
	2:[looper_vecsum_pt_4l<44.3977432] yes=5,no=6,missing=5
		5:[looper_vecsum_pt_4l<17.5389328] yes=11,no=12,missing=11
			11:[looper_MllN<125.494339] yes=23,no=24,missing=23
				23:[looper_MllN<70.2987823] yes=47,no=48,missing=47
					47:leaf=-0.0476801954
					48:leaf=-0.107539751
				24:[looper_m_4l<376.258667] yes=49,no=50,missing=49
					49:leaf=-0.0293987244
					50:leaf=0.035923373
			12:[looper_m_4l<253.112183] yes=25,no=26,missing=25
				25:[looper_MllN<60.5127716] yes=51,no=52,missing=51
					51:leaf=0.0224714614
					52:leaf=-0.0528288074
				26:[looper_MllN<134.198303] yes=53,no=54,missing=53
					53:leaf=0.0320605934
					54:leaf=0.0833094046
		6:[met_pt<71.7050323] yes=13,no=14,missing=13
			13:[looper_m_4l<265.367584] yes=27,no=28,missing=27
				27:[looper_mt2<30.3561249] yes=55,no=56,missing=55
					55:leaf=-0.00103149784
					56:leaf=0.0645402372
				28:[looper_MllN<114.555634] yes=57,no=58,missing=57
					57:leaf=0.0640132725
					58:leaf=0.0971818119
			14:[met_pt<97.3086548] yes=29,no=30,missing=29
				29:[looper_MllN<132.009628] yes=59,no=60,missing=59
					59:leaf=0.0906028897
					60:leaf=0.121112466
				30:[looper_MllN<113.705582] yes=61,no=62,missing=61
					61:leaf=0.121044897
					62:leaf=0.130766317
booster[8]:
0:[met_pt<64.9351654] yes=1,no=2,missing=1
	1:[looper_vecsum_pt_4l<26.7059937] yes=3,no=4,missing=3
		3:[looper_MllN<134.081604] yes=7,no=8,missing=7
			7:[looper_MllN<67.5908737] yes=15,no=16,missing=15
				15:[looper_m_4l<234.012604] yes=31,no=32,missing=31
					31:leaf=-0.0879801139
					32:leaf=-0.0265417155
				16:[looper_MllN<113.442192] yes=33,no=34,missing=33
					33:leaf=-0.113888167
					34:leaf=-0.0753118992
			8:[looper_vecsum_pt_4l<11.0256443] yes=17,no=18,missing=17
				17:[looper_m_4l<372.848938] yes=35,no=36,missing=35
					35:leaf=-0.0856337771
					36:leaf=-0.0345883742
				18:[met_pt<26.0008926] yes=37,no=38,missing=37
					37:leaf=-0.0381427817
					38:leaf=0.00950430613
		4:[met_pt<32.4251213] yes=9,no=10,missing=9
			9:[looper_MllN<121.481293] yes=19,no=20,missing=19
				19:[looper_MllN<68.4658051] yes=39,no=40,missing=39
					39:leaf=-0.0347228386
					40:leaf=-0.0964226648
				20:[looper_MllN<184.665192] yes=41,no=42,missing=41
					41:leaf=-0.0164133906
					42:leaf=0.0314920172
			10:[looper_m_4l<255.484833] yes=21,no=22,missing=21
				21:[looper_MllN<69.8579712] yes=43,no=44,missing=43
					43:leaf=0.00845416822
					44:leaf=-0.0576269142
				22:[looper_MllN<118.723686] yes=45,no=46,missing=45
					45:leaf=0.022205824
					46:leaf=0.0661508441
	2:[looper_vecsum_pt_4l<47.1467972] yes=5,no=6,missing=5
		5:[looper_vecsum_pt_4l<23.1994514] yes=11,no=12,missing=11
			11:[looper_pt_zeta<139.919006] yes=23,no=24,missing=23
				23:[looper_MllN<119.91098] yes=47,no=48,missing=47
					47:leaf=-0.0618826523
					48:leaf=0.0184909459
				24:[met_pt<93.3686523] yes=49,no=50,missing=49
					49:leaf=0.0243335422
					50:leaf=0.104451753
			12:[looper_MllN<113.426109] yes=25,no=26,missing=25
				25:[looper_MllN<70.1976624] yes=51,no=52,missing=51
					51:leaf=0.0618464835
					52:leaf=-0.0303243604
				26:[looper_m_4l<333.239471] yes=53,no=54,missing=53
					53:leaf=0.065955095
					54:leaf=0.103298001
		6:[met_pt<92.3230286] yes=13,no=14,missing=13
			13:[looper_MllN<131.953384] yes=27,no=28,missing=27
				27:[looper_MllN<65.9459534] yes=55,no=56,missing=55
					55:leaf=0.0952972695
					56:leaf=0.0518194847
				28:[looper_mt2<132.049072] yes=57,no=58,missing=57
					57:leaf=0.111562192
					58:leaf=-0.109068595
			14:[met_pt<112.792412] yes=29,no=30,missing=29
				29:[looper_MllN<123.8536] yes=59,no=60,missing=59
					59:leaf=0.10294757
					60:leaf=0.123816505
				30:[looper_lep3MT<31.2052917] yes=61,no=62,missing=61
					61:leaf=0.112033844
					62:leaf=0.125439078
booster[9]:
0:[met_pt<65.8084106] yes=1,no=2,missing=1
	1:[looper_m_4l<265.515015] yes=3,no=4,missing=3
		3:[looper_mt2<33.1558304] yes=7,no=8,missing=7
			7:[looper_ZPt<89.7348328] yes=15,no=16,missing=15
				15:[looper_vecsum_pt_4l<17.3789902] yes=31,no=32,missing=31
					31:leaf=-0.108397119
					32:leaf=-0.0741291344
				16:[met_pt<26.7496796] yes=33,no=34,missing=33
					33:leaf=-0.061634995
					34:leaf=0.0106063867
			8:[looper_vecsum_pt_4l<21.6116714] yes=17,no=18,missing=17
				17:[looper_vecsum_pt_4l<10.6799154] yes=35,no=36,missing=35
					35:leaf=-0.0983761996
					36:leaf=-0.0457128435
				18:[met_pt<44.8816376] yes=37,no=38,missing=37
					37:leaf=-0.0103991488
					38:leaf=0.0381903201
		4:[met_pt<36.7995682] yes=9,no=10,missing=9
			9:[looper_vecsum_pt_4l<16.2215977] yes=19,no=20,missing=19
				19:[looper_MllN<166.016083] yes=39,no=40,missing=39
					39:leaf=-0.0915946588
					40:leaf=-0.040739011
				20:[looper_MllN<175.004578] yes=41,no=42,missing=41
					41:leaf=-0.0296999607
					42:leaf=0.0228414349
			10:[looper_vecsum_pt_4l<24.6222725] yes=21,no=22,missing=21
				21:[looper_vecsum_pt_4l<11.6192722] yes=43,no=44,missing=43
					43:leaf=-0.0580906272
					44:leaf=-0.000815152132
				22:[looper_MllN<55.7098083] yes=45,no=46,missing=45
					45:leaf=0.091855526
					46:leaf=0.0374021493
	2:[looper_vecsum_pt_4l<47.7945023] yes=5,no=6,missing=5
		5:[looper_vecsum_pt_4l<14.1793032] yes=11,no=12,missing=11
			11:[met_pt<126.429932] yes=23,no=24,missing=23
				23:[looper_m_4l<360.405396] yes=47,no=48,missing=47
					47:leaf=-0.0711997673
					48:leaf=0.00940487161
				24:[met_pt<155.620804] yes=49,no=50,missing=49
					49:leaf=0.0536615029
					50:leaf=0.147002563
			12:[met_pt<95.4660187] yes=25,no=26,missing=25
				25:[looper_MllN<131.261414] yes=51,no=52,missing=51
					51:leaf=0.00183802738
					52:leaf=0.0754065588
				26:[met_pt<120.761482] yes=53,no=54,missing=53
					53:leaf=0.0682900846
					54:leaf=0.118881181
		6:[met_pt<92.3230286] yes=13,no=14,missing=13
			13:[looper_MllN<110.798233] yes=27,no=28,missing=27
				27:[looper_MllN<73.8270798] yes=55,no=56,missing=55
					55:leaf=0.0870254561
					56:leaf=0.0163614564
				28:[looper_mt2<94.2806396] yes=57,no=58,missing=57
					57:leaf=0.104382657
					58:leaf=0.0312309992
			14:[met_pt<116.960426] yes=29,no=30,missing=29
				29:[looper_MllN<115.695366] yes=59,no=60,missing=59
					59:leaf=0.0990609154
					60:leaf=0.119212918
				30:[looper_lep3MT<30.8301697] yes=61,no=62,missing=61
					61:leaf=0.10827484
					62:leaf=0.122107759
booster[10]:
0:[met_pt<68.6854935] yes=1,no=2,missing=1
	1:[looper_vecsum_pt_4l<34.0276451] yes=3,no=4,missing=3
		3:[looper_m_4l<297.361511] yes=7,no=8,missing=7
			7:[looper_vecsum_pt_4l<13.4727955] yes=15,no=16,missing=15
				15:[looper_MllN<69.4723358] yes=31,no=32,missing=31
					31:leaf=-0.0927481875
					32:leaf=-0.110855162
				16:[looper_MllN<59.97966] yes=33,no=34,missing=33
					33:leaf=-0.0349885598
					34:leaf=-0.0825340822
			8:[looper_vecsum_pt_4l<12.5382786] yes=17,no=18,missing=17
				17:[looper_MllN<135.011383] yes=35,no=36,missing=35
					35:leaf=-0.0858950689
					36:leaf=-0.035552498
				18:[looper_lep4MT<59.4682541] yes=37,no=38,missing=37
					37:leaf=-0.0276621785
					38:leaf=0.0181164443
		4:[met_pt<42.5465317] yes=9,no=10,missing=9
			9:[looper_MllN<121.481293] yes=19,no=20,missing=19
				19:[looper_MllN<68.4408722] yes=39,no=40,missing=39
					39:leaf=-0.012017413
					40:leaf=-0.0786586851
				20:[met_pt<19.5713787] yes=41,no=42,missing=41
					41:leaf=-0.0122121228
					42:leaf=0.0324087106
			10:[looper_MllN<114.299973] yes=21,no=22,missing=21
				21:[looper_MllN<70.8376312] yes=43,no=44,missing=43
					43:leaf=0.0483520515
					44:leaf=-0.0329494886
				22:[looper_mt2<93.8844223] yes=45,no=46,missing=45
					45:leaf=0.0719409883
					46:leaf=-0.0932729691
	2:[looper_vecsum_pt_4l<50.768837] yes=5,no=6,missing=5
		5:[looper_vecsum_pt_4l<23.2020836] yes=11,no=12,missing=11
			11:[looper_pt_zeta<116.274292] yes=23,no=24,missing=23
				23:[looper_MllN<119.90287] yes=47,no=48,missing=47
					47:leaf=-0.0518154204
					48:leaf=0.019220883
				24:[met_pt<99.1400681] yes=49,no=50,missing=49
					49:leaf=0.0183154028
					50:leaf=0.0895991325
			12:[looper_MllN<113.112427] yes=25,no=26,missing=25
				25:[looper_MllN<73.2471085] yes=51,no=52,missing=51
					51:leaf=0.0580303371
					52:leaf=-0.0265893042
				26:[met_pt<88.3001328] yes=53,no=54,missing=53
					53:leaf=0.0729117468
					54:leaf=0.103378952
		6:[met_pt<96.3968658] yes=13,no=14,missing=13
			13:[looper_MllN<124.104309] yes=27,no=28,missing=27
				27:[looper_MllN<67.7812653] yes=55,no=56,missing=55
					55:leaf=0.0899722353
					56:leaf=0.0483643897
				28:[looper_ZPt<89.4646606] yes=57,no=58,missing=57
					57:leaf=0.0958985314
					58:leaf=0.111014009
			14:[looper_lep3MT<34.2753067] yes=29,no=30,missing=29
				29:[looper_lep4MT<62.6906013] yes=59,no=60,missing=59
					59:leaf=0.0763549507
					60:leaf=0.114311554
				30:[met_pt<117.726479] yes=61,no=62,missing=61
					61:leaf=0.108473077
					62:leaf=0.119136453
booster[11]:
0:[met_pt<48.1248474] yes=1,no=2,missing=1
	1:[looper_m_4l<260.871979] yes=3,no=4,missing=3
		3:[looper_mt2<21.7372265] yes=7,no=8,missing=7
			7:[looper_ZPt<65.4584351] yes=15,no=16,missing=15
				15:[looper_MllN<69.5374908] yes=31,no=32,missing=31
					31:leaf=-0.0800587237
					32:leaf=-0.100486055
				16:[looper_MllN<71.651123] yes=33,no=34,missing=33
					33:leaf=-0.0359779522
					34:leaf=-0.0836202502
			8:[looper_vecsum_pt_4l<19.0305824] yes=17,no=18,missing=17
				17:[looper_vecsum_pt_4l<9.05655479] yes=35,no=36,missing=35
					35:leaf=-0.102535069
					36:leaf=-0.0713246688
				18:[looper_MllN<70.892334] yes=37,no=38,missing=37
					37:leaf=-0.00586591056
					38:leaf=-0.0529713519
		4:[looper_vecsum_pt_4l<23.6700096] yes=9,no=10,missing=9
			9:[looper_MllN<166.518738] yes=19,no=20,missing=19
				19:[looper_MllN<62.1673279] yes=39,no=40,missing=39
					39:leaf=-0.017663179
					40:leaf=-0.0761498138
				20:[looper_m_4l<541.829468] yes=41,no=42,missing=41
					41:leaf=-0.0275857151
					42:leaf=0.0180843342
			10:[looper_MllN<57.5686188] yes=21,no=22,missing=21
				21:[looper_lep4Pt<19.1137276] yes=43,no=44,missing=43
					43:leaf=-0.00969311595
					44:leaf=0.0724984854
				22:[looper_MllN<112.695282] yes=45,no=46,missing=45
					45:leaf=-0.0554278009
					46:leaf=0.0180505514
	2:[looper_vecsum_pt_4l<44.9591064] yes=5,no=6,missing=5
		5:[looper_m_4l<243.288483] yes=11,no=12,missing=11
			11:[looper_MllN<67.2000885] yes=23,no=24,missing=23
				23:[looper_mt2<36.1703186] yes=47,no=48,missing=47
					47:leaf=-0.0342386179
					48:leaf=0.0300395619
				24:[looper_vecsum_pt_4l<22.3638134] yes=49,no=50,missing=49
					49:leaf=-0.0928238332
					50:leaf=-0.0495298244
			12:[looper_vecsum_pt_4l<11.1617947] yes=25,no=26,missing=25
				25:[looper_MllN<211.359283] yes=51,no=52,missing=51
					51:leaf=-0.054376103
					52:leaf=0.0226627383
				26:[looper_MllN<57.8822479] yes=53,no=54,missing=53
					53:leaf=0.0868432745
					54:leaf=0.0232392587
		6:[met_pt<80.8188171] yes=13,no=14,missing=13
			13:[looper_MllN<111.144287] yes=27,no=28,missing=27
				27:[looper_MllN<74.1282272] yes=55,no=56,missing=55
					55:leaf=0.0597513504
					56:leaf=-0.0183017924
				28:[looper_ZPt<67.8401642] yes=57,no=58,missing=57
					57:leaf=0.0620648079
					58:leaf=0.0869448259
			14:[met_pt<106.473526] yes=29,no=30,missing=29
				29:[looper_MllN<127.269753] yes=59,no=60,missing=59
					59:leaf=0.0805370584
					60:leaf=0.108925939
				30:[looper_lep3MT<33.7491989] yes=61,no=62,missing=61
					61:leaf=0.0990578756
					62:leaf=0.114549935
booster[12]:
0:[met_pt<69.8252716] yes=1,no=2,missing=1
	1:[looper_vecsum_pt_4l<23.0957336] yes=3,no=4,missing=3
		3:[looper_MllN<127.830597] yes=7,no=8,missing=7
			7:[looper_MllN<69.3628387] yes=15,no=16,missing=15
				15:[looper_pt_zeta_vis<94.1964722] yes=31,no=32,missing=31
					31:leaf=-0.0694603994
					32:leaf=0.00188515603
				16:[looper_MllN<109.259277] yes=33,no=34,missing=33
					33:leaf=-0.102924302
					34:leaf=-0.0704581439
			8:[looper_vecsum_pt_4l<7.35873032] yes=17,no=18,missing=17
				17:[looper_m_4l<328.087158] yes=35,no=36,missing=35
					35:leaf=-0.0903402418
					36:leaf=-0.0463661514
				18:[met_pt<32.7272644] yes=37,no=38,missing=37
					37:leaf=-0.0296971388
					38:leaf=0.0138935437
		4:[met_pt<27.7243805] yes=9,no=10,missing=9
			9:[looper_MllN<129.26236] yes=19,no=20,missing=19
				19:[looper_MllN<68.2563934] yes=39,no=40,missing=39
					39:leaf=-0.0314280689
					40:leaf=-0.0816421658
				20:[looper_m_4l<411.292175] yes=41,no=42,missing=41
					41:leaf=-0.0170260109
					42:leaf=0.0221011825
			10:[looper_m_4l<249.039307] yes=21,no=22,missing=21
				21:[looper_mt2<36.7293167] yes=43,no=44,missing=43
					43:leaf=-0.0331939869
					44:leaf=0.0259748343
				22:[looper_MllN<57.9157104] yes=45,no=46,missing=45
					45:leaf=0.0736308917
					46:leaf=0.0213728957
	2:[looper_vecsum_pt_4l<56.0209656] yes=5,no=6,missing=5
		5:[looper_vecsum_pt_4l<23.1753445] yes=11,no=12,missing=11
			11:[met_pt<112.984985] yes=23,no=24,missing=23
				23:[looper_pt_zeta_vis<53.8215675] yes=47,no=48,missing=47
					47:leaf=-0.0458131246
					48:leaf=0.00987681001
				24:[met_pt<148.443024] yes=49,no=50,missing=49
					49:leaf=0.0499473177
					50:leaf=0.129353926
			12:[looper_mt2<34.4357147] yes=25,no=26,missing=25
				25:[looper_MllN<110.399094] yes=51,no=52,missing=51
					51:leaf=-0.00293817744
					52:leaf=0.0745319724
				26:[met_pt<110.681015] yes=53,no=54,missing=53
					53:leaf=0.0631273836
					54:leaf=0.107954361
		6:[met_pt<96.3952408] yes=13,no=14,missing=13
			13:[looper_MllN<132.626556] yes=27,no=28,missing=27
				27:[looper_mt2<23.7697105] yes=55,no=56,missing=55
					55:leaf=0.0412022397
					56:leaf=0.0815535113
				28:[looper_mt2<132.049072] yes=57,no=58,missing=57
					57:leaf=0.100737631
					58:leaf=-0.116438024
			14:[looper_lep4MT<41.67519] yes=29,no=30,missing=29
				29:[looper_lep3MT<49.5075607] yes=59,no=60,missing=59
					59:leaf=0.0650926828
					60:leaf=0.105545856
				30:[met_pt<125.931633] yes=61,no=62,missing=61
					61:leaf=0.105086446
					62:leaf=0.115205958
booster[13]:
0:[met_pt<70.7801819] yes=1,no=2,missing=1
	1:[looper_vecsum_pt_4l<29.7619629] yes=3,no=4,missing=3
		3:[looper_MllN<123.87471] yes=7,no=8,missing=7
			7:[looper_MllN<69.3627319] yes=15,no=16,missing=15
				15:[looper_pt_zeta_vis<71.5294342] yes=31,no=32,missing=31
					31:leaf=-0.0631264672
					32:leaf=-0.00241074665
				16:[looper_MllN<108.612305] yes=33,no=34,missing=33
					33:leaf=-0.0969399884
					34:leaf=-0.0612601005
			8:[looper_vecsum_pt_4l<9.31058788] yes=17,no=18,missing=17
				17:[looper_m_4l<345.765991] yes=35,no=36,missing=35
					35:leaf=-0.0773677528
					36:leaf=-0.0316339359
				18:[met_pt<40.4787521] yes=37,no=38,missing=37
					37:leaf=-0.0174774136
					38:leaf=0.0238837507
		4:[met_pt<43.5734329] yes=9,no=10,missing=9
			9:[looper_m_4l<256.196655] yes=19,no=20,missing=19
				19:[looper_mt2<20.8491783] yes=39,no=40,missing=39
					39:leaf=-0.0657160804
					40:leaf=-0.0206441525
				20:[looper_MllN<57.8584099] yes=41,no=42,missing=41
					41:leaf=0.0464939065
					42:leaf=-0.0106568579
			10:[looper_MllN<119.66552] yes=21,no=22,missing=21
				21:[looper_MllN<63.8974838] yes=43,no=44,missing=43
					43:leaf=0.0440699793
					44:leaf=-0.0174961295
				22:[looper_m_4l<384.800415] yes=45,no=46,missing=45
					45:leaf=0.0490903966
					46:leaf=0.0749819428
	2:[looper_vecsum_pt_4l<59.2592087] yes=5,no=6,missing=5
		5:[met_pt<106.624771] yes=11,no=12,missing=11
			11:[looper_m_4l<248.786865] yes=23,no=24,missing=23
				23:[looper_mt2<34.4150314] yes=47,no=48,missing=47
					47:leaf=-0.0412610136
					48:leaf=0.0280495733
				24:[looper_vecsum_pt_4l<23.1842957] yes=49,no=50,missing=49
					49:leaf=0.00432153232
					50:leaf=0.0593510941
			12:[met_pt<139.999161] yes=25,no=26,missing=25
				25:[looper_vecsum_pt_4l<11.0350132] yes=51,no=52,missing=51
					51:leaf=-0.0166906603
					52:leaf=0.0746718124
				26:[met_pt<155.010788] yes=53,no=54,missing=53
					53:leaf=0.098866716
					54:leaf=0.122014083
		6:[met_pt<99.0607605] yes=13,no=14,missing=13
			13:[looper_MllN<127.269753] yes=27,no=28,missing=27
				27:[looper_MllN<70.2279968] yes=55,no=56,missing=55
					55:leaf=0.0826515928
					56:leaf=0.0447582193
				28:[looper_mt2<131.97995] yes=57,no=58,missing=57
					57:leaf=0.0982143581
					58:leaf=-0.109941937
			14:[looper_lep3MT<29.6346436] yes=29,no=30,missing=29
				29:[looper_lep4MT<66.9300842] yes=59,no=60,missing=59
					59:leaf=0.0626981929
					60:leaf=0.10794878
				30:[met_pt<122.738029] yes=61,no=62,missing=61
					61:leaf=0.101467788
					62:leaf=0.112076834
booster[14]:
0:[met_pt<71.7063904] yes=1,no=2,missing=1
	1:[looper_vecsum_pt_4l<19.2618866] yes=3,no=4,missing=3
		3:[looper_MllN<138.827209] yes=7,no=8,missing=7
			7:[looper_vecsum_pt_4l<10.5191364] yes=15,no=16,missing=15
				15:[looper_MllN<72.2836151] yes=31,no=32,missing=31
					31:leaf=-0.0814933702
					32:leaf=-0.101143025
				16:[looper_MllN<63.0344124] yes=33,no=34,missing=33
					33:leaf=-0.0320593975
					34:leaf=-0.0758606717
			8:[looper_m_4l<421.119263] yes=17,no=18,missing=17
				17:[looper_vecsum_pt_4l<5.721488] yes=35,no=36,missing=35
					35:leaf=-0.0727083683
					36:leaf=-0.025485212
				18:[met_pt<25.815752] yes=37,no=38,missing=37
					37:leaf=-0.017445948
					38:leaf=0.0219942499
		4:[met_pt<30.07691] yes=9,no=10,missing=9
			9:[looper_MllN<120.536034] yes=19,no=20,missing=19
				19:[looper_MllN<69.3371124] yes=39,no=40,missing=39
					39:leaf=-0.0252548214
					40:leaf=-0.0784900859
				20:[looper_m_4l<378.100708] yes=41,no=42,missing=41
					41:leaf=-0.0171416532
					42:leaf=0.0186488833
			10:[looper_MllN<110.856491] yes=21,no=22,missing=21
				21:[looper_MllN<73.088974] yes=43,no=44,missing=43
					43:leaf=0.0217204839
					44:leaf=-0.0545108728
				22:[looper_m_4l<405.869934] yes=45,no=46,missing=45
					45:leaf=0.0274317954
					46:leaf=0.0600904189
	2:[looper_vecsum_pt_4l<56.0043335] yes=5,no=6,missing=5
		5:[met_pt<106.624771] yes=11,no=12,missing=11
			11:[looper_MllN<138.084961] yes=23,no=24,missing=23
				23:[looper_MllN<61.6076736] yes=47,no=48,missing=47
					47:leaf=0.0387158766
					48:leaf=-0.0251023918
				24:[looper_vecsum_pt_4l<11.6173182] yes=49,no=50,missing=49
					49:leaf=-0.00461048307
					50:leaf=0.0723311603
			12:[met_pt<139.999161] yes=25,no=26,missing=25
				25:[looper_vecsum_pt_4l<11.0350132] yes=51,no=52,missing=51
					51:leaf=-0.0150461318
					52:leaf=0.0694963858
				26:[met_pt<170.163193] yes=53,no=54,missing=53
					53:leaf=0.099105671
					54:leaf=0.122353695
		6:[met_pt<103.174332] yes=13,no=14,missing=13
			13:[looper_MllN<117.171066] yes=27,no=28,missing=27
				27:[looper_MllN<70.2288666] yes=55,no=56,missing=55
					55:leaf=0.0788244456
					56:leaf=0.0333305262
				28:[looper_mt2<94.5381851] yes=57,no=58,missing=57
					57:leaf=0.0955342725
					58:leaf=0.0287138112
			14:[looper_lep3MT<27.4573021] yes=29,no=30,missing=29
				29:[looper_lep4MT<63.8616638] yes=59,no=60,missing=59
					59:leaf=0.0575231872
					60:leaf=0.105015278
				30:[looper_lep4MT<24.5243206] yes=61,no=62,missing=61
					61:leaf=0.0937561914
					62:leaf=0.108896591
booster[15]:
0:[met_pt<70.7816772] yes=1,no=2,missing=1
	1:[looper_m_4l<256.517792] yes=3,no=4,missing=3
		3:[looper_mt2<24.2682495] yes=7,no=8,missing=7
			7:[looper_ZPt<72.3748322] yes=15,no=16,missing=15
				15:[looper_vecsum_pt_4l<13.7931499] yes=31,no=32,missing=31
					31:leaf=-0.094256036
					32:leaf=-0.065924108
				16:[met_pt<25.2628098] yes=33,no=34,missing=33
					33:leaf=-0.0540061668
					34:leaf=-0.00281064748
			8:[looper_vecsum_pt_4l<17.1322346] yes=17,no=18,missing=17
				17:[looper_vecsum_pt_4l<8.41438675] yes=35,no=36,missing=35
					35:leaf=-0.0884877741
					36:leaf=-0.0506195314
				18:[met_pt<42.5510254] yes=37,no=38,missing=37
					37:leaf=-0.0188398119
					38:leaf=0.0202045813
		4:[met_pt<41.7145386] yes=9,no=10,missing=9
			9:[looper_vecsum_pt_4l<15.5323486] yes=19,no=20,missing=19
				19:[looper_MllN<150.587738] yes=39,no=40,missing=39
					39:leaf=-0.0695345625
					40:leaf=-0.0266360641
				20:[looper_MllN<59.5429764] yes=41,no=42,missing=41
					41:leaf=0.0370520689
					42:leaf=-0.0144345313
			10:[looper_vecsum_pt_4l<36.2811966] yes=21,no=22,missing=21
				21:[looper_MllN<55.4580307] yes=43,no=44,missing=43
					43:leaf=0.0612440184
					44:leaf=-0.00642215833
				22:[looper_MllN<157.71373] yes=45,no=46,missing=45
					45:leaf=0.0318450779
					46:leaf=0.0645626411
	2:[looper_vecsum_pt_4l<59.2592087] yes=5,no=6,missing=5
		5:[looper_vecsum_pt_4l<11.6098328] yes=11,no=12,missing=11
			11:[looper_pt_zeta<148.649002] yes=23,no=24,missing=23
				23:[looper_MllN<163.576294] yes=47,no=48,missing=47
					47:leaf=-0.0632504225
					48:leaf=0.0143938037
				24:[met_pt<84.6466217] yes=49,no=50,missing=49
					49:leaf=-0.0134771308
					50:leaf=0.0677748397
			12:[looper_mt2<34.9082146] yes=25,no=26,missing=25
				25:[looper_m_4l<297.945435] yes=51,no=52,missing=51
					51:leaf=-0.0110400347
					52:leaf=0.0565190315
				26:[met_pt<95.4904938] yes=53,no=54,missing=53
					53:leaf=0.0448802374
					54:leaf=0.0820657164
		6:[met_pt<96.3952408] yes=13,no=14,missing=13
			13:[looper_MllN<137.701416] yes=27,no=28,missing=27
				27:[looper_mt2<22.8186836] yes=55,no=56,missing=55
					55:leaf=0.0311051589
					56:leaf=0.0710477978
				28:[looper_ZPt<89.4194794] yes=57,no=58,missing=57
					57:leaf=0.0812236369
					58:leaf=0.0990722999
			14:[looper_MllN<114.405113] yes=29,no=30,missing=29
				29:[looper_mt2<17.7850571] yes=59,no=60,missing=59
					59:leaf=0.0680988058
					60:leaf=0.100438677
				30:[met_pt<116.24942] yes=61,no=62,missing=61
					61:leaf=0.103697143
					62:leaf=0.110740833
booster[16]:
0:[met_pt<74.3692932] yes=1,no=2,missing=1
	1:[looper_vecsum_pt_4l<35.9697342] yes=3,no=4,missing=3
		3:[looper_m_4l<297.33139] yes=7,no=8,missing=7
			7:[looper_vecsum_pt_4l<12.1808224] yes=15,no=16,missing=15
				15:[looper_MllN<70.7409668] yes=31,no=32,missing=31
					31:leaf=-0.0737882853
					32:leaf=-0.0942158103
				16:[looper_MllN<59.9546967] yes=33,no=34,missing=33
					33:leaf=-0.0186381415
					34:leaf=-0.0610011294
			8:[looper_vecsum_pt_4l<10.5795517] yes=17,no=18,missing=17
				17:[looper_MllN<135.011383] yes=35,no=36,missing=35
					35:leaf=-0.0676151067
					36:leaf=-0.0249367487
				18:[looper_lep4MT<41.8779984] yes=37,no=38,missing=37
					37:leaf=-0.0228792261
					38:leaf=0.011299192
		4:[met_pt<26.6555195] yes=9,no=10,missing=9
			9:[looper_scalarsum_pt_4l<247.218613] yes=19,no=20,missing=19
				19:[looper_MllN<110.752975] yes=39,no=40,missing=39
					39:leaf=-0.0577598885
					40:leaf=-0.0122828949
				20:[looper_vecsum_pt_4l<191.807526] yes=41,no=42,missing=41
					41:leaf=-0.0148080755
					42:leaf=0.0603116117
			10:[looper_ZPt<117.253952] yes=21,no=22,missing=21
				21:[looper_mt2<20.7954845] yes=43,no=44,missing=43
					43:leaf=-0.0228495356
					44:leaf=0.0211528782
				22:[looper_pt_zeta_vis<201.971512] yes=45,no=46,missing=45
					45:leaf=0.0526752472
					46:leaf=-0.00920762215
	2:[looper_vecsum_pt_4l<62.8517914] yes=5,no=6,missing=5
		5:[met_pt<120.761177] yes=11,no=12,missing=11
			11:[looper_MllN<115.632347] yes=23,no=24,missing=23
				23:[looper_MllN<71.6462936] yes=47,no=48,missing=47
					47:leaf=0.0368018188
					48:leaf=-0.0429925695
				24:[looper_vecsum_pt_4l<27.2614632] yes=49,no=50,missing=49
					49:leaf=0.0247237161
					50:leaf=0.0750117227
			12:[met_pt<155.010788] yes=25,no=26,missing=25
				25:[looper_vecsum_pt_4l<16.4217529] yes=51,no=52,missing=51
					51:leaf=0.0223156717
					52:leaf=0.082802467
				26:[looper_lep3MT<15.1294327] yes=53,no=54,missing=53
					53:leaf=0.0855552405
					54:leaf=0.113667302
		6:[met_pt<103.174332] yes=13,no=14,missing=13
			13:[looper_MllN<127.269753] yes=27,no=28,missing=27
				27:[looper_MllN<70.2290039] yes=55,no=56,missing=55
					55:leaf=0.0758600011
					56:leaf=0.0379317105
				28:[looper_mt2<131.97995] yes=57,no=58,missing=57
					57:leaf=0.0928415731
					58:leaf=-0.123261981
			14:[looper_lep3MT<34.1570892] yes=29,no=30,missing=29
				29:[looper_lep4MT<62.6906013] yes=59,no=60,missing=59
					59:leaf=0.0526704267
					60:leaf=0.102089457
				30:[looper_lep4MT<18.1910477] yes=61,no=62,missing=61
					61:leaf=0.0875409842
					62:leaf=0.105539121
booster[17]:
0:[met_pt<78.2325592] yes=1,no=2,missing=1
	1:[looper_lep4MT<53.5884209] yes=3,no=4,missing=3
		3:[looper_ZPt<113.927338] yes=7,no=8,missing=7
			7:[looper_MllN<119.810486] yes=15,no=16,missing=15
				15:[looper_MllN<71.6039886] yes=31,no=32,missing=31
					31:leaf=-0.0325902998
					32:leaf=-0.0768790543
				16:[met_pt<22.5855465] yes=33,no=34,missing=33
					33:leaf=-0.0293868612
					34:leaf=0.00929523259
			8:[looper_MllN<58.5849075] yes=17,no=18,missing=17
				17:[looper_lep4Pt<25.8096161] yes=35,no=36,missing=35
					35:leaf=0.0264848061
					36:leaf=0.079442814
				18:[looper_MllN<112.857765] yes=37,no=38,missing=37
					37:leaf=-0.034717489
					38:leaf=0.020234637
		4:[looper_vecsum_pt_4l<36.2811432] yes=9,no=10,missing=9
			9:[looper_MllN<116.953827] yes=19,no=20,missing=19
				19:[looper_MllN<68.9369965] yes=39,no=40,missing=39
					39:leaf=0.0136053711
					40:leaf=-0.0603390597
				20:[looper_vecsum_pt_4l<7.39747715] yes=41,no=42,missing=41
					41:leaf=-0.0393978767
					42:leaf=0.0166578945
			10:[met_pt<48.4339256] yes=21,no=22,missing=21
				21:[looper_MllN<115.577423] yes=43,no=44,missing=43
					43:leaf=-0.00407493254
					44:leaf=0.0327823795
				22:[looper_mt2<90.3180084] yes=45,no=46,missing=45
					45:leaf=0.046907302
					46:leaf=-0.0613689609
	2:[looper_vecsum_pt_4l<65.3087158] yes=5,no=6,missing=5
		5:[looper_m_4l<296.431885] yes=11,no=12,missing=11
			11:[looper_mt2<26.3007698] yes=23,no=24,missing=23
				23:[looper_pt_zeta<155.009094] yes=47,no=48,missing=47
					47:leaf=-0.028482927
					48:leaf=0.0532342792
				24:[looper_MllN<70.2755814] yes=49,no=50,missing=49
					49:leaf=0.0647459105
					50:leaf=0.0029653532
			12:[looper_vecsum_pt_4l<27.2614632] yes=25,no=26,missing=25
				25:[met_pt<112.979309] yes=51,no=52,missing=51
					51:leaf=0.0223454125
					52:leaf=0.0795843527
				26:[looper_MllN<117.522285] yes=53,no=54,missing=53
					53:leaf=0.05534181
					54:leaf=0.0888912454
		6:[met_pt<112.336967] yes=13,no=14,missing=13
			13:[looper_MllN<119.57592] yes=27,no=28,missing=27
				27:[looper_mt2<15.4581661] yes=55,no=56,missing=55
					55:leaf=0.0237109344
					56:leaf=0.0731652901
				28:[looper_mt2<94.5952911] yes=57,no=58,missing=57
					57:leaf=0.0943758339
					58:leaf=0.0383141339
			14:[looper_lep3MT<40.7919159] yes=29,no=30,missing=29
				29:[looper_lep4MT<50.6770439] yes=59,no=60,missing=59
					59:leaf=0.0476859584
					60:leaf=0.100542746
				30:[looper_lep4MT<17.6506004] yes=61,no=62,missing=61
					61:leaf=0.0899691284
					62:leaf=0.105903305
booster[18]:
0:[met_pt<46.9381714] yes=1,no=2,missing=1
	1:[looper_m_4l<254.096222] yes=3,no=4,missing=3
		3:[looper_MllN<70.7304382] yes=7,no=8,missing=7
			7:[looper_vecsum_pt_4l<15.5488548] yes=15,no=16,missing=15
				15:[looper_vecsum_pt_4l<8.52619934] yes=31,no=32,missing=31
					31:leaf=-0.0867970511
					32:leaf=-0.0551657379
				16:[looper_mt2<18.0487633] yes=33,no=34,missing=33
					33:leaf=-0.0385044664
					34:leaf=-0.00357775763
			8:[looper_MllN<109.600601] yes=17,no=18,missing=17
				17:[looper_vecsum_pt_4l<164.642792] yes=35,no=36,missing=35
					35:leaf=-0.0830811113
					36:leaf=0.0377979502
				18:[looper_vecsum_pt_4l<16.6267109] yes=37,no=38,missing=37
					37:leaf=-0.075995557
					38:leaf=-0.0115845595
		4:[looper_vecsum_pt_4l<12.6156902] yes=9,no=10,missing=9
			9:[looper_MllN<159.348328] yes=19,no=20,missing=19
				19:[looper_MllN<70.1343536] yes=39,no=40,missing=39
					39:leaf=-0.0360081606
					40:leaf=-0.0746779665
				20:[looper_m_4l<612.891052] yes=41,no=42,missing=41
					41:leaf=-0.0305486564
					42:leaf=0.0237319693
			10:[looper_MllN<65.2410736] yes=21,no=22,missing=21
				21:[looper_lep4Pt<23.0822105] yes=43,no=44,missing=43
					43:leaf=-0.010946854
					44:leaf=0.0503405444
				22:[looper_MllN<109.851822] yes=45,no=46,missing=45
					45:leaf=-0.0541253462
					46:leaf=0.00915118214
	2:[met_pt<92.3393936] yes=5,no=6,missing=5
		5:[looper_vecsum_pt_4l<44.3989868] yes=11,no=12,missing=11
			11:[looper_MllN<117.409607] yes=23,no=24,missing=23
				23:[looper_MllN<67.9586334] yes=47,no=48,missing=47
					47:leaf=0.0057399678
					48:leaf=-0.0526458807
				24:[looper_vecsum_pt_4l<16.0131321] yes=49,no=50,missing=49
					49:leaf=-0.00598772382
					50:leaf=0.0360920541
			12:[looper_ZPt<109.606949] yes=25,no=26,missing=25
				25:[looper_mt2<22.7840004] yes=51,no=52,missing=51
					51:leaf=-0.011256529
					52:leaf=0.0412506834
				26:[looper_mt2<94.1754303] yes=53,no=54,missing=53
					53:leaf=0.0603181906
					54:leaf=-0.0656458959
		6:[looper_vecsum_pt_4l<70.6167755] yes=13,no=14,missing=13
			13:[met_pt<125.25705] yes=27,no=28,missing=27
				27:[looper_MllN<114.390839] yes=55,no=56,missing=55
					55:leaf=0.025599489
					56:leaf=0.0727280825
				28:[met_pt<155.11203] yes=57,no=58,missing=57
					57:leaf=0.074765116
					58:leaf=0.105463482
			14:[looper_MllN<115.064896] yes=29,no=30,missing=29
				29:[looper_mt2<18.9952297] yes=59,no=60,missing=59
					59:leaf=0.0596522503
					60:leaf=0.0940492749
				30:[met_pt<116.24942] yes=61,no=62,missing=61
					61:leaf=0.097685352
					62:leaf=0.106726907
booster[19]:
0:[met_pt<79.0338135] yes=1,no=2,missing=1
	1:[looper_vecsum_pt_4l<23.0957336] yes=3,no=4,missing=3
		3:[looper_m_4l<276.365814] yes=7,no=8,missing=7
			7:[looper_vecsum_pt_4l<9.23248482] yes=15,no=16,missing=15
				15:[looper_MllN<72.6604691] yes=31,no=32,missing=31
					31:leaf=-0.0768524036
					32:leaf=-0.0940706059
				16:[looper_MllN<66.7896423] yes=33,no=34,missing=33
					33:leaf=-0.0294427909
					34:leaf=-0.0670618415
			8:[looper_vecsum_pt_4l<7.35795403] yes=17,no=18,missing=17
				17:[looper_MllN<168.802673] yes=35,no=36,missing=35
					35:leaf=-0.067220293
					36:leaf=-0.0271166917
				18:[met_pt<32.7274132] yes=37,no=38,missing=37
					37:leaf=-0.0277161952
					38:leaf=0.00605970668
		4:[met_pt<24.6326065] yes=9,no=10,missing=9
			9:[looper_MllN<148.515839] yes=19,no=20,missing=19
				19:[looper_MllN<57.8648529] yes=39,no=40,missing=39
					39:leaf=-0.0161139034
					40:leaf=-0.0539453626
				20:[looper_vecsum_pt_4l<193.624527] yes=41,no=42,missing=41
					41:leaf=0.000888427254
					42:leaf=0.0637440681
			10:[looper_MllN<110.778938] yes=21,no=22,missing=21
				21:[looper_MllN<74.3938446] yes=43,no=44,missing=43
					43:leaf=0.0182933919
					44:leaf=-0.0467811301
				22:[met_pt<47.2533836] yes=45,no=46,missing=45
					45:leaf=0.0213979948
					46:leaf=0.0478048511
	2:[looper_vecsum_pt_4l<65.3377228] yes=5,no=6,missing=5
		5:[looper_vecsum_pt_4l<16.3558159] yes=11,no=12,missing=11
			11:[looper_ZPt<73.3780899] yes=23,no=24,missing=23
				23:[looper_pt_zeta<110.872559] yes=47,no=48,missing=47
					47:leaf=-0.0477095358
					48:leaf=0.0191877913
				24:[looper_MllN<61.2423286] yes=49,no=50,missing=49
					49:leaf=0.0784146413
					50:leaf=0.00295589725
			12:[met_pt<120.761177] yes=25,no=26,missing=25
				25:[looper_m_4l<291.897339] yes=51,no=52,missing=51
					51:leaf=0.0167226549
					52:leaf=0.0578900836
				26:[met_pt<143.706177] yes=53,no=54,missing=53
					53:leaf=0.0692390203
					54:leaf=0.0998160243
		6:[met_pt<112.336967] yes=13,no=14,missing=13
			13:[looper_MllN<127.269753] yes=27,no=28,missing=27
				27:[looper_MllN<67.9224091] yes=55,no=56,missing=55
					55:leaf=0.0726338178
					56:leaf=0.0352697894
				28:[looper_mt2<131.97995] yes=57,no=58,missing=57
					57:leaf=0.0911819935
					58:leaf=-0.0741995797
			14:[looper_lep3MT<40.7919159] yes=29,no=30,missing=29
				29:[looper_lep4MT<52.2606125] yes=59,no=60,missing=59
					59:leaf=0.0403485261
					60:leaf=0.0971905887
				30:[looper_lep4MT<17.6506004] yes=61,no=62,missing=61
					61:leaf=0.0849069133
					62:leaf=0.103117578
booster[20]:
0:[met_pt<80.6883011] yes=1,no=2,missing=1
	1:[looper_lep4MT<47.755127] yes=3,no=4,missing=3
		3:[looper_ZPt<118.809937] yes=7,no=8,missing=7
			7:[looper_vecsum_pt_4l<15.5723686] yes=15,no=16,missing=15
				15:[looper_MllN<138.108536] yes=31,no=32,missing=31
					31:leaf=-0.072762765
					32:leaf=-0.030436283
				16:[looper_MllN<110.698578] yes=33,no=34,missing=33
					33:leaf=-0.0388498306
					34:leaf=-0.00313470932
			8:[looper_MllN<60.8516083] yes=17,no=18,missing=17
				17:[looper_lep4Pt<17.9296532] yes=35,no=36,missing=35
					35:leaf=0.0041295765
					36:leaf=0.0626424477
				18:[looper_vecsum_pt_4l<159.857788] yes=37,no=38,missing=37
					37:leaf=-0.0178274419
					38:leaf=0.0506743155
		4:[looper_vecsum_pt_4l<15.9579697] yes=9,no=10,missing=9
			9:[looper_m_4l<252.420044] yes=19,no=20,missing=19
				19:[looper_MllN<71.7482681] yes=39,no=40,missing=39
					39:leaf=-0.0372732542
					40:leaf=-0.0770453513
				20:[looper_vecsum_pt_4l<5.73414898] yes=41,no=42,missing=41
					41:leaf=-0.0519380979
					42:leaf=-0.00484294025
			10:[looper_MllN<53.4907799] yes=21,no=22,missing=21
				21:[looper_MllN<18.0104961] yes=43,no=44,missing=43
					43:leaf=-0.0202986225
					44:leaf=0.0516309217
				22:[looper_MllN<108.571198] yes=45,no=46,missing=45
					45:leaf=-0.0169312488
					46:leaf=0.0299691297
	2:[looper_vecsum_pt_4l<68.5451813] yes=5,no=6,missing=5
		5:[looper_MllN<122.17923] yes=11,no=12,missing=11
			11:[looper_MllN<70.7900238] yes=23,no=24,missing=23
				23:[looper_mt2<26.1507339] yes=47,no=48,missing=47
					47:leaf=0.00551901059
					48:leaf=0.0648776367
				24:[looper_MllN<104.347717] yes=49,no=50,missing=49
					49:leaf=-0.0426898822
					50:leaf=0.0250784811
			12:[looper_vecsum_pt_4l<29.5835552] yes=25,no=26,missing=25
				25:[looper_m_4l<422.289124] yes=51,no=52,missing=51
					51:leaf=0.01727462
					52:leaf=0.0637902096
				26:[looper_m_4l<296.962952] yes=53,no=54,missing=53
					53:leaf=0.0534413569
					54:leaf=0.0842018649
		6:[met_pt<112.309631] yes=13,no=14,missing=13
			13:[looper_MllN<127.269753] yes=27,no=28,missing=27
				27:[looper_mt2<16.1832066] yes=55,no=56,missing=55
					55:leaf=0.0207881723
					56:leaf=0.0666203052
				28:[looper_mt2<108.690765] yes=57,no=58,missing=57
					57:leaf=0.0902058706
					58:leaf=-9.46489672e-05
			14:[looper_lep3MT<40.8664894] yes=29,no=30,missing=29
				29:[looper_lep4MT<50.6770439] yes=59,no=60,missing=59
					59:leaf=0.0369326174
					60:leaf=0.0952311009
				30:[looper_lep4MT<15.7752819] yes=61,no=62,missing=61
					61:leaf=0.0816757381
					62:leaf=0.101777472
booster[21]:
0:[met_pt<45.5030212] yes=1,no=2,missing=1
	1:[looper_m_4l<242.427795] yes=3,no=4,missing=3
		3:[looper_MllN<71.6510162] yes=7,no=8,missing=7
			7:[looper_vecsum_pt_4l<12.1837139] yes=15,no=16,missing=15
				15:[looper_vecsum_pt_4l<7.29676151] yes=31,no=32,missing=31
					31:leaf=-0.0831318274
					32:leaf=-0.054783266
				16:[looper_MllN<17.583477] yes=33,no=34,missing=33
					33:leaf=-0.0742399767
					34:leaf=-0.0172313191
			8:[looper_MllN<108.870178] yes=17,no=18,missing=17
				17:[looper_vecsum_pt_4l<135.968491] yes=35,no=36,missing=35
					35:leaf=-0.0784546584
					36:leaf=0.00863365736
				18:[looper_vecsum_pt_4l<14.4619923] yes=37,no=38,missing=37
					37:leaf=-0.0770768076
					38:leaf=-0.0156268086
		4:[looper_MllN<67.5562439] yes=9,no=10,missing=9
			9:[looper_lep4Pt<19.0345993] yes=19,no=20,missing=19
				19:[looper_MllN<20.6999454] yes=39,no=40,missing=39
					39:leaf=-0.0815462843
					40:leaf=-0.0165330507
				20:[looper_MllN<22.8842144] yes=41,no=42,missing=41
					41:leaf=-0.0175997987
					42:leaf=0.0390020683
			10:[looper_MllN<108.373047] yes=21,no=22,missing=21
				21:[looper_MllN<74.9619446] yes=43,no=44,missing=43
					43:leaf=-0.0190022457
					44:leaf=-0.0669196397
				22:[looper_m_4l<410.700623] yes=45,no=46,missing=45
					45:leaf=-0.011692076
					46:leaf=0.0194653552
	2:[met_pt<96.0343781] yes=5,no=6,missing=5
		5:[looper_vecsum_pt_4l<47.5830765] yes=11,no=12,missing=11
			11:[looper_m_4l<223.582504] yes=23,no=24,missing=23
				23:[looper_MllN<74.338028] yes=47,no=48,missing=47
					47:leaf=-0.0172027797
					48:leaf=-0.0651598647
				24:[looper_MllN<55.3504257] yes=49,no=50,missing=49
					49:leaf=0.0529057495
					50:leaf=4.91239261e-05
			12:[looper_ZPt<85.8219757] yes=25,no=26,missing=25
				25:[looper_pt_zeta<55.5997162] yes=51,no=52,missing=51
					51:leaf=0.0391807109
					52:leaf=-0.0213875752
				26:[looper_mt2<94.0687103] yes=53,no=54,missing=53
					53:leaf=0.0492603593
					54:leaf=-0.0588473454
		6:[looper_vecsum_pt_4l<74.0791321] yes=13,no=14,missing=13
			13:[met_pt<134.695419] yes=27,no=28,missing=27
				27:[looper_MllN<121.919579] yes=55,no=56,missing=55
					55:leaf=0.0267129522
					56:leaf=0.0731523409
				28:[met_pt<156.881714] yes=57,no=58,missing=57
					57:leaf=0.0719213858
					58:leaf=0.100042701
			14:[looper_lep3MT<31.5570221] yes=29,no=30,missing=29
				29:[looper_lep4MT<66.9300842] yes=59,no=60,missing=59
					59:leaf=0.0323067904
					60:leaf=0.0926625952
				30:[met_pt<122.738029] yes=61,no=62,missing=61
					61:leaf=0.0817709416
					62:leaf=0.100117862
booster[22]:
0:[met_pt<83.5203857] yes=1,no=2,missing=1
	1:[met_pt<26.7510376] yes=3,no=4,missing=3
		3:[looper_m_4l<254.806427] yes=7,no=8,missing=7
			7:[looper_MllN<62.1359634] yes=15,no=16,missing=15
				15:[looper_pt_zeta_vis<49.7768631] yes=31,no=32,missing=31
					31:leaf=-0.0534125231
					32:leaf=-0.016580401
				16:[looper_vecsum_pt_4l<165.313965] yes=33,no=34,missing=33
					33:leaf=-0.0694990382
					34:leaf=0.0783753619
			8:[looper_vecsum_pt_4l<12.844883] yes=17,no=18,missing=17
				17:[looper_MllN<199.842346] yes=35,no=36,missing=35
					35:leaf=-0.0605897084
					36:leaf=-0.0179450251
				18:[looper_vecsum_pt_4l<220.957367] yes=37,no=38,missing=37
					37:leaf=-0.0154861286
					38:leaf=0.0566498898
		4:[looper_vecsum_pt_4l<39.7664642] yes=9,no=10,missing=9
			9:[looper_m_4l<224.040649] yes=19,no=20,missing=19
				19:[looper_MllN<73.0142059] yes=39,no=40,missing=39
					39:leaf=-0.0237540957
					40:leaf=-0.0697994158
				20:[looper_MllN<56.0177498] yes=41,no=42,missing=41
					41:leaf=0.0343130045
					42:leaf=-0.0108875418
			10:[looper_ZPt<131.040314] yes=21,no=22,missing=21
				21:[looper_mt2<22.096487] yes=43,no=44,missing=43
					43:leaf=-0.0117728701
					44:leaf=0.0206684303
				22:[looper_pt_zeta_vis<200.832993] yes=45,no=46,missing=45
					45:leaf=0.0485086031
					46:leaf=-0.0129036456
	2:[looper_vecsum_pt_4l<68.5887222] yes=5,no=6,missing=5
		5:[met_pt<125.25705] yes=11,no=12,missing=11
			11:[looper_m_4l<246.441711] yes=23,no=24,missing=23
				23:[looper_mt2<26.3089504] yes=47,no=48,missing=47
					47:leaf=-0.0338908061
					48:leaf=0.0247374624
				24:[looper_vecsum_pt_4l<28.5578918] yes=49,no=50,missing=49
					49:leaf=0.0149663417
					50:leaf=0.0536219254
			12:[met_pt<155.010788] yes=25,no=26,missing=25
				25:[looper_vecsum_pt_4l<18.5128231] yes=51,no=52,missing=51
					51:leaf=0.012163911
					52:leaf=0.0699584857
				26:[looper_lep4MT<28.7952843] yes=53,no=54,missing=53
					53:leaf=0.071938239
					54:leaf=0.101341024
		6:[met_pt<117.656708] yes=13,no=14,missing=13
			13:[looper_MllN<115.467461] yes=27,no=28,missing=27
				27:[looper_MllN<71.604126] yes=55,no=56,missing=55
					55:leaf=0.066431962
					56:leaf=0.0165496226
				28:[looper_mt2<103.944176] yes=57,no=58,missing=57
					57:leaf=0.087625429
					58:leaf=0.00441981433
			14:[looper_lep3MT<41.4939117] yes=29,no=30,missing=29
				29:[looper_lep4MT<46.9599457] yes=59,no=60,missing=59
					59:leaf=0.0287791248
					60:leaf=0.0917886272
				30:[looper_lep4MT<20.6660881] yes=61,no=62,missing=61
					61:leaf=0.0807459801
					62:leaf=0.100770608
booster[23]:
0:[met_pt<86.087265] yes=1,no=2,missing=1
	1:[looper_vecsum_pt_4l<15.5417709] yes=3,no=4,missing=3
		3:[looper_MllN<123.089996] yes=7,no=8,missing=7
			7:[looper_MllN<72.6204834] yes=15,no=16,missing=15
				15:[looper_pt_zeta_vis<71.8084564] yes=31,no=32,missing=31
					31:leaf=-0.0543149821
					32:leaf=-0.0107969474
				16:[looper_MllN<107.717438] yes=33,no=34,missing=33
					33:leaf=-0.0855670273
					34:leaf=-0.0547770523
			8:[looper_m_4l<458.214539] yes=17,no=18,missing=17
				17:[met_pt<32.1097565] yes=35,no=36,missing=35
					35:leaf=-0.0385393463
					36:leaf=-0.00784631073
				18:[looper_scalarsum_pt_4l<229.769363] yes=37,no=38,missing=37
					37:leaf=0.0925526023
					38:leaf=0.0087949466
		4:[looper_mt2<20.8013496] yes=9,no=10,missing=9
			9:[looper_ZPt<70.5827484] yes=19,no=20,missing=19
				19:[looper_MllN<110.743996] yes=39,no=40,missing=39
					39:leaf=-0.050709445
					40:leaf=-0.00766622368
				20:[looper_lep4MT<59.0867004] yes=41,no=42,missing=41
					41:leaf=-0.00358900102
					42:leaf=0.0406806879
			10:[met_pt<43.6465302] yes=21,no=22,missing=21
				21:[looper_MllN<18.4878693] yes=43,no=44,missing=43
					43:leaf=-0.0602575429
					44:leaf=0.00348915788
				22:[looper_MllN<57.8199844] yes=45,no=46,missing=45
					45:leaf=0.0452283174
					46:leaf=0.0162021052
	2:[looper_vecsum_pt_4l<72.761467] yes=5,no=6,missing=5
		5:[looper_MllN<122.17923] yes=11,no=12,missing=11
			11:[looper_MllN<71.2915726] yes=23,no=24,missing=23
				23:[looper_mt2<17.7135868] yes=47,no=48,missing=47
					47:leaf=-0.00798009057
					48:leaf=0.0583038442
				24:[looper_MllN<107.596779] yes=49,no=50,missing=49
					49:leaf=-0.0351519249
					50:leaf=0.0315344632
			12:[looper_vecsum_pt_4l<32.323555] yes=25,no=26,missing=25
				25:[met_pt<121.834351] yes=51,no=52,missing=51
					51:leaf=0.0250251051
					52:leaf=0.0807902291
				26:[looper_m_4l<260.222229] yes=53,no=54,missing=53
					53:leaf=0.0394323803
					54:leaf=0.0805374831
		6:[met_pt<117.656708] yes=13,no=14,missing=13
			13:[looper_MllN<128.43988] yes=27,no=28,missing=27
				27:[looper_mt2<16.2240982] yes=55,no=56,missing=55
					55:leaf=0.0163891427
					56:leaf=0.0646232292
				28:[looper_mt2<95.7237854] yes=57,no=58,missing=57
					57:leaf=0.0906538516
					58:leaf=0.0317342989
			14:[looper_lep3MT<41.4939117] yes=29,no=30,missing=29
				29:[looper_lep4MT<62.6289635] yes=59,no=60,missing=59
					59:leaf=0.0349039435
					60:leaf=0.0957554057
				30:[looper_lep4MT<20.1036587] yes=61,no=62,missing=61
					61:leaf=0.0791296586
					62:leaf=0.0997868106
booster[24]:
0:[met_pt<86.6365814] yes=1,no=2,missing=1
	1:[met_pt<24.6326065] yes=3,no=4,missing=3
		3:[looper_m_4l<307.183228] yes=7,no=8,missing=7
			7:[looper_vecsum_pt_4l<153.667984] yes=15,no=16,missing=15
				15:[looper_MllN<58.6784477] yes=31,no=32,missing=31
					31:leaf=-0.0267996099
					32:leaf=-0.0581474379
				16:[looper_ZPt<48.8577499] yes=33,no=34,missing=33
					33:leaf=-0.0397951566
					34:leaf=0.0609138086
			8:[looper_MllN<200.727692] yes=17,no=18,missing=17
				17:[looper_MllN<72.4742661] yes=35,no=36,missing=35
					35:leaf=0.00454046391
					36:leaf=-0.0299901757
				18:[looper_m_4l<540.430847] yes=37,no=38,missing=37
					37:leaf=-0.00169623957
					38:leaf=0.0254027583
		4:[looper_MllN<115.547249] yes=9,no=10,missing=9
			9:[looper_MllN<72.8049316] yes=19,no=20,missing=19
				19:[looper_ZPt<94.6268158] yes=39,no=40,missing=39
					39:leaf=-0.003076341
					40:leaf=0.0374052636
				20:[looper_MllN<105.300919] yes=41,no=42,missing=41
					41:leaf=-0.0519609265
					42:leaf=-0.00254726526
			10:[looper_m_4l<421.468445] yes=21,no=22,missing=21
				21:[looper_vecsum_pt_4l<28.276268] yes=43,no=44,missing=43
					43:leaf=-0.00784656685
					44:leaf=0.0216744505
				22:[looper_pt_zeta_vis<177.775345] yes=45,no=46,missing=45
					45:leaf=0.0480364822
					46:leaf=0.00379672903
	2:[looper_vecsum_pt_4l<72.761467] yes=5,no=6,missing=5
		5:[met_pt<125.916061] yes=11,no=12,missing=11
			11:[looper_m_4l<298.126648] yes=23,no=24,missing=23
				23:[looper_mt2<26.367342] yes=47,no=48,missing=47
					47:leaf=-0.0200491194
					48:leaf=0.025528837
				24:[looper_vecsum_pt_4l<19.0698967] yes=49,no=50,missing=49
					49:leaf=0.00507675344
					50:leaf=0.0557189956
			12:[met_pt<156.881714] yes=25,no=26,missing=25
				25:[looper_vecsum_pt_4l<18.5128231] yes=51,no=52,missing=51
					51:leaf=0.0123564871
					52:leaf=0.0650156811
				26:[looper_lep4MT<28.7952843] yes=53,no=54,missing=53
					53:leaf=0.0680993125
					54:leaf=0.0990013182
		6:[met_pt<117.656708] yes=13,no=14,missing=13
			13:[looper_mt2<99.2191925] yes=27,no=28,missing=27
				27:[looper_mt2<22.7502785] yes=55,no=56,missing=55
					55:leaf=0.0406410396
					56:leaf=0.0751399025
				28:[looper_pt_zeta_vis<363.193115] yes=57,no=58,missing=57
					57:leaf=-0.0211788937
					58:leaf=-0.227369308
			14:[looper_lep3MT<41.4939117] yes=29,no=30,missing=29
				29:[looper_MllN<52.7411346] yes=59,no=60,missing=59
					59:leaf=0.0299334805
					60:leaf=0.0927512571
				30:[looper_lep4MT<20.1036587] yes=61,no=62,missing=61
					61:leaf=0.0766631812
					62:leaf=0.0986937881
booster[25]:
0:[met_pt<87.5762405] yes=1,no=2,missing=1
	1:[looper_vecsum_pt_4l<13.5094757] yes=3,no=4,missing=3
		3:[looper_MllN<123.089996] yes=7,no=8,missing=7
			7:[looper_MllN<71.5883789] yes=15,no=16,missing=15
				15:[looper_vecsum_pt_4l<8.29673386] yes=31,no=32,missing=31
					31:leaf=-0.0608991794
					32:leaf=-0.0211013258
				16:[looper_MllN<105.0783] yes=33,no=34,missing=33
					33:leaf=-0.0843077824
					34:leaf=-0.0595088489
			8:[looper_vecsum_pt_4l<5.71932316] yes=17,no=18,missing=17
				17:[looper_m_4l<784.350464] yes=35,no=36,missing=35
					35:leaf=-0.0473736636
					36:leaf=0.046899911
				18:[looper_m_4l<612.12262] yes=37,no=38,missing=37
					37:leaf=-0.0113906218
					38:leaf=0.0314883962
		4:[looper_lep4MT<46.0566292] yes=9,no=10,missing=9
			9:[looper_ZPt<129.379364] yes=19,no=20,missing=19
				19:[looper_MllN<110.410095] yes=39,no=40,missing=39
					39:leaf=-0.0287071206
					40:leaf=-0.00105931703
				20:[looper_MllN<55.7071724] yes=41,no=42,missing=41
					41:leaf=0.0478646122
					42:leaf=0.0023311628
			10:[looper_MllN<53.0009956] yes=21,no=22,missing=21
				21:[looper_MllN<21.6511726] yes=43,no=44,missing=43
					43:leaf=-0.00612287177
					44:leaf=0.0448385775
				22:[looper_MllN<107.99025] yes=45,no=46,missing=45
					45:leaf=-0.0130824437
					46:leaf=0.0237541087
	2:[looper_vecsum_pt_4l<70.6496582] yes=5,no=6,missing=5
		5:[looper_vecsum_pt_4l<23.8077965] yes=11,no=12,missing=11
			11:[looper_pt_zeta<111.092255] yes=23,no=24,missing=23
				23:[looper_vecsum_pt_4l<8.42744637] yes=47,no=48,missing=47
					47:leaf=-0.0644878671
					48:leaf=-0.01113101
				24:[looper_mt2<116.438339] yes=49,no=50,missing=49
					49:leaf=0.03700969
					50:leaf=-0.161331117
			12:[looper_mt2<27.7144089] yes=25,no=26,missing=25
				25:[looper_MllN<110.255203] yes=51,no=52,missing=51
					51:leaf=-0.00472778687
					52:leaf=0.0604163818
				26:[looper_MllN<58.8523712] yes=53,no=54,missing=53
					53:leaf=0.0739269331
					54:leaf=0.0410432704
		6:[looper_MllN<115.466537] yes=13,no=14,missing=13
			13:[looper_mt2<22.7489891] yes=27,no=28,missing=27
				27:[looper_MllN<44.0028229] yes=55,no=56,missing=55
					55:leaf=-0.00232037413
					56:leaf=0.0557378717
				28:[looper_MllN<70.9162292] yes=57,no=58,missing=57
					57:leaf=0.08699058
					58:leaf=0.0495447367
			14:[met_pt<116.24942] yes=29,no=30,missing=29
				29:[looper_mt2<103.944176] yes=59,no=60,missing=59
					59:leaf=0.0844563097
					60:leaf=0.0114779091
				30:[looper_lep4Pt<724.55426] yes=61,no=62,missing=61
					61:leaf=0.0999157727
					62:leaf=-0.128586605
booster[26]:
0:[met_pt<45.9638062] yes=1,no=2,missing=1
	1:[looper_vecsum_pt_4l<12.1837358] yes=3,no=4,missing=3
		3:[looper_MllN<138.109741] yes=7,no=8,missing=7
			7:[looper_MllN<69.9576111] yes=15,no=16,missing=15
				15:[looper_m_4l<228.145142] yes=31,no=32,missing=31
					31:leaf=-0.060659308
					32:leaf=-0.0233665165
				16:[looper_MllN<115.495255] yes=33,no=34,missing=33
					33:leaf=-0.0815716311
					34:leaf=-0.0474629626
			8:[looper_vecsum_pt_4l<5.721488] yes=17,no=18,missing=17
				17:[met_pt<36.0749016] yes=35,no=36,missing=35
					35:leaf=-0.0500967763
					36:leaf=0.00194024784
				18:[looper_m_4l<482.413208] yes=37,no=38,missing=37
					37:leaf=-0.0183568224
					38:leaf=0.0155208111
		4:[looper_vecsum_pt_4l<191.469849] yes=9,no=10,missing=9
			9:[looper_MllN<115.573074] yes=19,no=20,missing=19
				19:[looper_MllN<72.0629425] yes=39,no=40,missing=39
					39:leaf=-0.00323842815
					40:leaf=-0.0501599684
				20:[looper_m_4l<474.610809] yes=41,no=42,missing=41
					41:leaf=-0.00332919182
					42:leaf=0.021772122
			10:[looper_pt_zeta_vis<201.043701] yes=21,no=22,missing=21
				21:[looper_vecsum_pt_4l<238.036423] yes=43,no=44,missing=43
					43:leaf=0.0451675765
					44:leaf=0.0882772952
				22:[looper_vecsum_pt_4l<283.111115] yes=45,no=46,missing=45
					45:leaf=-0.0479668751
					46:leaf=0.0279424544
	2:[met_pt<103.976227] yes=5,no=6,missing=5
		5:[looper_vecsum_pt_4l<49.5874748] yes=11,no=12,missing=11
			11:[looper_MllN<169.694046] yes=23,no=24,missing=23
				23:[looper_MllN<59.9721947] yes=47,no=48,missing=47
					47:leaf=0.0124418959
					48:leaf=-0.0197743401
				24:[looper_m_4l<439.919006] yes=49,no=50,missing=49
					49:leaf=0.0187809821
					50:leaf=0.0450321473
			12:[looper_MllN<149.398926] yes=25,no=26,missing=25
				25:[looper_MllN<65.9337463] yes=51,no=52,missing=51
					51:leaf=0.0370571278
					52:leaf=0.00535992766
				26:[met_pt<60.4194336] yes=53,no=54,missing=53
					53:leaf=0.0395339392
					54:leaf=0.0690043047
		6:[looper_vecsum_pt_4l<80.3824158] yes=13,no=14,missing=13
			13:[met_pt<143.94519] yes=27,no=28,missing=27
				27:[looper_MllN<130.470154] yes=55,no=56,missing=55
					55:leaf=0.0247600228
					56:leaf=0.0721925795
				28:[met_pt<170.092987] yes=57,no=58,missing=57
					57:leaf=0.0693280622
					58:leaf=0.0959123746
			14:[looper_lep3MT<27.4573021] yes=29,no=30,missing=29
				29:[looper_MllN<57.6082611] yes=59,no=60,missing=59
					59:leaf=0.0122550558
					60:leaf=0.0864869133
				30:[looper_lep4MT<27.5324478] yes=61,no=62,missing=61
					61:leaf=0.0664819852
					62:leaf=0.0930487812
booster[27]:
0:[met_pt<90.6925507] yes=1,no=2,missing=1
	1:[looper_mt2<17.6098652] yes=3,no=4,missing=3
		3:[looper_ZPt<63.496048] yes=7,no=8,missing=7
			7:[looper_MllN<109.592422] yes=15,no=16,missing=15
				15:[looper_MllN<75.8012085] yes=31,no=32,missing=31
					31:leaf=-0.0410965309
					32:leaf=-0.070786722
				16:[looper_m_4l<321.773712] yes=33,no=34,missing=33
					33:leaf=-0.0255592968
					34:leaf=0.0020467795
			8:[looper_ZPt<146.634338] yes=17,no=18,missing=17
				17:[looper_lep4MT<58.9392242] yes=35,no=36,missing=35
					35:leaf=-0.0168101341
					36:leaf=0.0210584383
				18:[looper_vecsum_pt_4l<239.915588] yes=37,no=38,missing=37
					37:leaf=0.0195983239
					38:leaf=0.073628068
		4:[looper_vecsum_pt_4l<9.25677872] yes=9,no=10,missing=9
			9:[looper_MllN<118.467682] yes=19,no=20,missing=19
				19:[looper_MllN<72.6205444] yes=39,no=40,missing=39
					39:leaf=-0.0424373969
					40:leaf=-0.077407822
				20:[looper_vecsum_pt_4l<5.57372475] yes=41,no=42,missing=41
					41:leaf=-0.0361962132
					42:leaf=0.0019672839
			10:[looper_MllN<18.296978] yes=21,no=22,missing=21
				21:[looper_lep4Pt<17.2924614] yes=43,no=44,missing=43
					43:leaf=-0.0701613724
					44:leaf=-0.0275505167
				22:[looper_MllN<57.8521652] yes=45,no=46,missing=45
					45:leaf=0.0326498263
					46:leaf=0.00228529447
	2:[looper_vecsum_pt_4l<79.8300629] yes=5,no=6,missing=5
		5:[looper_MllN<113.703987] yes=11,no=12,missing=11
			11:[looper_MllN<72.9754181] yes=23,no=24,missing=23
				23:[looper_mt2<27.652462] yes=47,no=48,missing=47
					47:leaf=0.0051744245
					48:leaf=0.0569477044
				24:[met_pt<148.623505] yes=49,no=50,missing=49
					49:leaf=-0.0360037461
					50:leaf=0.0834487453
			12:[looper_vecsum_pt_4l<33.917469] yes=25,no=26,missing=25
				25:[met_pt<124.206436] yes=51,no=52,missing=51
					51:leaf=0.0175435171
					52:leaf=0.0727157444
				26:[looper_m_4l<297.850769] yes=53,no=54,missing=53
					53:leaf=0.0508895032
					54:leaf=0.0804132223
		6:[looper_MllN<114.468773] yes=13,no=14,missing=13
			13:[looper_mt2<10.5018673] yes=27,no=28,missing=27
				27:[looper_MllN<39.0390587] yes=55,no=56,missing=55
					55:leaf=-0.0733936951
					56:leaf=0.049035918
				28:[met_pt<122.334656] yes=57,no=58,missing=57
					57:leaf=0.0539018214
					58:leaf=0.0843157992
			14:[met_pt<116.24942] yes=29,no=30,missing=29
				29:[looper_mt2<124.602753] yes=59,no=60,missing=59
					59:leaf=0.0820655674
					60:leaf=-0.0469200313
				30:[looper_lep4Pt<585.328125] yes=61,no=62,missing=61
					61:leaf=0.0983813405
					62:leaf=-0.0695719868
booster[28]:
0:[met_pt<42.3736763] yes=1,no=2,missing=1
	1:[looper_m_4l<234.905609] yes=3,no=4,missing=3
		3:[looper_MllN<71.6510162] yes=7,no=8,missing=7
			7:[looper_MllN<16.9272041] yes=15,no=16,missing=15
				15:[looper_pt_zeta_vis<55.3709717] yes=31,no=32,missing=31
					31:leaf=-0.0848000869
					32:leaf=-0.0557620339
				16:[looper_pt_zeta_vis<42.3588257] yes=33,no=34,missing=33
					33:leaf=-0.0338798538
					34:leaf=-0.00125574076
			8:[looper_MllN<105.155228] yes=17,no=18,missing=17
				17:[looper_MllN<77.9684296] yes=35,no=36,missing=35
					35:leaf=-0.0502387695
					36:leaf=-0.0777093694
				18:[looper_vecsum_pt_4l<9.28845978] yes=37,no=38,missing=37
					37:leaf=-0.0948305055
					38:leaf=-0.0183831193
		4:[looper_MllN<69.7338867] yes=9,no=10,missing=9
			9:[looper_lep4Pt<28.001173] yes=19,no=20,missing=19
				19:[looper_MllN<20.0029545] yes=39,no=40,missing=39
					39:leaf=-0.0600246303
					40:leaf=0.000611927069
				20:[looper_m_4l<535.337891] yes=41,no=42,missing=41
					41:leaf=0.0373224728
					42:leaf=-0.0297299959
			10:[looper_MllN<108.363174] yes=21,no=22,missing=21
				21:[looper_MllN<76.8391724] yes=43,no=44,missing=43
					43:leaf=-0.0215084981
					44:leaf=-0.0574245937
				22:[looper_vecsum_pt_4l<29.319912] yes=45,no=46,missing=45
					45:leaf=-0.0134886727
					46:leaf=0.00801077019
	2:[met_pt<110.318588] yes=5,no=6,missing=5
		5:[looper_MllN<109.870682] yes=11,no=12,missing=11
			11:[looper_MllN<75.001503] yes=23,no=24,missing=23
				23:[looper_mt2<22.4538002] yes=47,no=48,missing=47
					47:leaf=-0.00566570042
					48:leaf=0.0290674455
				24:[looper_MllN<104.277611] yes=49,no=50,missing=49
					49:leaf=-0.0449404716
					50:leaf=-0.0014110551
			12:[looper_vecsum_pt_4l<38.302063] yes=25,no=26,missing=25
				25:[looper_m_4l<440.023315] yes=51,no=52,missing=51
					51:leaf=0.00431868574
					52:leaf=0.03302259
				26:[met_pt<69.4955902] yes=53,no=54,missing=53
					53:leaf=0.0296772365
					54:leaf=0.0583339706
		6:[met_pt<134.246918] yes=13,no=14,missing=13
			13:[looper_MllN<119.592438] yes=27,no=28,missing=27
				27:[looper_mt2<11.6021595] yes=55,no=56,missing=55
					55:leaf=-0.0176574085
					56:leaf=0.0485717282
				28:[looper_vecsum_pt_4l<31.5415154] yes=57,no=58,missing=57
					57:leaf=0.0338446088
					58:leaf=0.0865574554
			14:[looper_lep4MT<38.1513977] yes=29,no=30,missing=29
				29:[looper_lep3MT<58.3698578] yes=59,no=60,missing=59
					59:leaf=0.00712346286
					60:leaf=0.083609283
				30:[looper_lep3MT<19.1691036] yes=61,no=62,missing=61
					61:leaf=0.0656059012
					62:leaf=0.0948326215
booster[29]:
0:[met_pt<66.4156799] yes=1,no=2,missing=1
	1:[looper_vecsum_pt_4l<10.6252356] yes=3,no=4,missing=3
		3:[looper_m_4l<290.258667] yes=7,no=8,missing=7
			7:[looper_vecsum_pt_4l<5.45112228] yes=15,no=16,missing=15
				15:[looper_mt2<30.2172852] yes=31,no=32,missing=31
					31:leaf=-0.0798713714
					32:leaf=-0.0541778691
				16:[looper_MllN<69.4338989] yes=33,no=34,missing=33
					33:leaf=-0.0352106504
					34:leaf=-0.0656013116
			8:[looper_lep4Pt<23.8293629] yes=17,no=18,missing=17
				17:[looper_MllN<25.3212337] yes=35,no=36,missing=35
					35:leaf=-0.111654893
					36:leaf=-0.0553240441
				18:[met_pt<32.1242027] yes=37,no=38,missing=37
					37:leaf=-0.0300166346
					38:leaf=0.00092318299
		4:[met_pt<21.4660912] yes=9,no=10,missing=9
			9:[looper_MllN<114.673294] yes=19,no=20,missing=19
				19:[looper_MllN<72.1659088] yes=39,no=40,missing=39
					39:leaf=-0.0160731282
					40:leaf=-0.0588818081
				20:[looper_vecsum_pt_4l<230.7453] yes=41,no=42,missing=41
					41:leaf=-0.00953997951
					42:leaf=0.0511805825
			10:[looper_m_4l<235.408875] yes=21,no=22,missing=21
				21:[looper_MllN<73.7326965] yes=43,no=44,missing=43
					43:leaf=-0.00254206057
					44:leaf=-0.0334280729
				22:[looper_MllN<53.096611] yes=45,no=46,missing=45
					45:leaf=0.0359066091
					46:leaf=0.00477422401
	2:[looper_vecsum_pt_4l<60.3521767] yes=5,no=6,missing=5
		5:[looper_m_4l<243.195679] yes=11,no=12,missing=11
			11:[looper_pt_zeta_vis<45.6292152] yes=23,no=24,missing=23
				23:[looper_lep4MT<68.7492065] yes=47,no=48,missing=47
					47:leaf=-0.0386777408
					48:leaf=-0.0043330295
				24:[looper_MllN<73.29953] yes=49,no=50,missing=49
					49:leaf=0.0227200929
					50:leaf=-0.0351196937
			12:[looper_MllN<52.2895355] yes=25,no=26,missing=25
				25:[looper_lep4Pt<25.3217201] yes=51,no=52,missing=51
					51:leaf=0.0223394725
					52:leaf=0.0756992772
				26:[looper_MllN<109.824776] yes=53,no=54,missing=53
					53:leaf=-0.0126559157
					54:leaf=0.0312266853
		6:[met_pt<112.792412] yes=13,no=14,missing=13
			13:[looper_ZPt<70.4470825] yes=27,no=28,missing=27
				27:[looper_pt_zeta<40.3645744] yes=55,no=56,missing=55
					55:leaf=0.0455223285
					56:leaf=-0.0397781096
				28:[looper_mt2<94.3214722] yes=57,no=58,missing=57
					57:leaf=0.0496126525
					58:leaf=-0.0501533225
			14:[looper_lep4MT<43.449543] yes=29,no=30,missing=29
				29:[looper_lep3MT<61.8911591] yes=59,no=60,missing=59
					59:leaf=0.00672005583
					60:leaf=0.0795843452
				30:[met_pt<133.308792] yes=61,no=62,missing=61
					61:leaf=0.0733732954
					62:leaf=0.0941269621
booster[30]:
0:[met_pt<97.3051605] yes=1,no=2,missing=1
	1:[looper_lep4MT<54.1874504] yes=3,no=4,missing=3
		3:[looper_ZPt<117.978714] yes=7,no=8,missing=7
			7:[looper_vecsum_pt_4l<9.83202648] yes=15,no=16,missing=15
				15:[looper_MllN<132.022034] yes=31,no=32,missing=31
					31:leaf=-0.0612103641
					32:leaf=-0.0248413794
				16:[looper_mt2<11.1015739] yes=33,no=34,missing=33
					33:leaf=-0.0278685242
					34:leaf=-0.00775748864
			8:[looper_MllN<55.7086182] yes=17,no=18,missing=17
				17:[looper_lep4Pt<17.9627514] yes=35,no=36,missing=35
					35:leaf=-0.00445290236
					36:leaf=0.0475907736
				18:[looper_vecsum_pt_4l<182.338913] yes=37,no=38,missing=37
					37:leaf=-0.00886907149
					38:leaf=0.0460897647
		4:[looper_pt_zeta_vis<201.481842] yes=9,no=10,missing=9
			9:[looper_m_4l<343.858704] yes=19,no=20,missing=19
				19:[looper_MllN<73.2299423] yes=39,no=40,missing=39
					39:leaf=0.022316888
					40:leaf=-0.00628275285
				20:[looper_lep4Pt<60.8659821] yes=41,no=42,missing=41
					41:leaf=0.0443594716
					42:leaf=0.0166893043
			10:[looper_lep4Pt<92.7135925] yes=21,no=22,missing=21
				21:[looper_MllN<161.806046] yes=43,no=44,missing=43
					43:leaf=-0.0289705191
					44:leaf=0.0430210195
				22:[looper_MllN<225.859482] yes=45,no=46,missing=45
					45:leaf=-0.0946371704
					46:leaf=-0.0212560277
	2:[looper_vecsum_pt_4l<83.2973328] yes=5,no=6,missing=5
		5:[looper_vecsum_pt_4l<26.6418152] yes=11,no=12,missing=11
			11:[looper_pt_zeta<110.590607] yes=23,no=24,missing=23
				23:[met_pt<155.1362] yes=47,no=48,missing=47
					47:leaf=-0.0280077588
					48:leaf=0.0806286633
				24:[looper_mt2<18.1386204] yes=49,no=50,missing=49
					49:leaf=0.000452205131
					50:leaf=0.051447589
			12:[looper_mt2<32.0669403] yes=25,no=26,missing=25
				25:[looper_MllN<128.132782] yes=51,no=52,missing=51
					51:leaf=0.00442769798
					52:leaf=0.0697324499
				26:[looper_mt2<93.8998413] yes=53,no=54,missing=53
					53:leaf=0.0608185045
					54:leaf=-0.00964872167
		6:[looper_lep4MT<43.4009781] yes=13,no=14,missing=13
			13:[looper_lep3MT<65.6508179] yes=27,no=28,missing=27
				27:[looper_mt2<8.15977764] yes=55,no=56,missing=55
					55:leaf=-0.0438526385
					56:leaf=0.0229126997
				28:[met_pt<124.495361] yes=57,no=58,missing=57
					57:leaf=0.0502943955
					58:leaf=0.087603502
			14:[met_pt<133.308792] yes=29,no=30,missing=29
				29:[looper_mt2<104.004631] yes=59,no=60,missing=59
					59:leaf=0.0719064102
					60:leaf=-0.0753584281
				30:[looper_lep3MT<20.7459526] yes=61,no=62,missing=61
					61:leaf=0.0703975782
					62:leaf=0.0971130356
booster[31]:
0:[met_pt<103.12999] yes=1,no=2,missing=1
	1:[looper_vecsum_pt_4l<26.7650642] yes=3,no=4,missing=3
		3:[looper_vecsum_pt_4l<7.03054905] yes=7,no=8,missing=7
			7:[looper_m_4l<315.813477] yes=15,no=16,missing=15
				15:[looper_pt_zeta_vis<66.1115875] yes=31,no=32,missing=31
					31:leaf=-0.0693053827
					32:leaf=-0.0447973534
				16:[looper_lep4MT<50.8782425] yes=33,no=34,missing=33
					33:leaf=-0.0398391709
					34:leaf=-0.0133875785
			8:[looper_MllN<114.300865] yes=17,no=18,missing=17
				17:[looper_MllN<69.3627319] yes=35,no=36,missing=35
					35:leaf=-0.00551990746
					36:leaf=-0.0501876585
				18:[met_pt<37.2798157] yes=37,no=38,missing=37
					37:leaf=-0.00728845457
					38:leaf=0.0124147562
		4:[looper_lep4MT<58.7298737] yes=9,no=10,missing=9
			9:[looper_ZPt<142.986115] yes=19,no=20,missing=19
				19:[looper_mt2<11.1016693] yes=39,no=40,missing=39
					39:leaf=-0.0213773735
					40:leaf=-0.00166625902
				20:[looper_pt_zeta_vis<203.795471] yes=41,no=42,missing=41
					41:leaf=0.0286617186
					42:leaf=-0.0189263634
			10:[looper_pt_zeta_vis<151.612244] yes=21,no=22,missing=21
				21:[looper_m_4l<405.540222] yes=43,no=44,missing=43
					43:leaf=0.0171880405
					44:leaf=0.0475353934
				22:[looper_mt2<80.2227859] yes=45,no=46,missing=45
					45:leaf=-0.00800925773
					46:leaf=-0.0596679524
	2:[met_pt<134.246918] yes=5,no=6,missing=5
		5:[looper_MllN<127.802689] yes=11,no=12,missing=11
			11:[looper_mt2<15.3134117] yes=23,no=24,missing=23
				23:[looper_ZPt<101.611832] yes=47,no=48,missing=47
					47:leaf=-0.0376132391
					48:leaf=0.00661322335
				24:[looper_MllN<65.4474792] yes=49,no=50,missing=49
					49:leaf=0.0625892505
					50:leaf=0.00524823414
			12:[looper_vecsum_pt_4l<54.1736984] yes=25,no=26,missing=25
				25:[looper_m_4l<341.348083] yes=51,no=52,missing=51
					51:leaf=-9.03433902e-05
					52:leaf=0.0597680397
				26:[looper_lep3Pt<633.699829] yes=53,no=54,missing=53
					53:leaf=0.0856243521
					54:leaf=-0.197185919
		6:[looper_MllN<43.1971741] yes=13,no=14,missing=13
			13:[looper_mt2<18.1265144] yes=27,no=28,missing=27
				27:[looper_MllN<17.093483] yes=55,no=56,missing=55
					55:leaf=0.0794275478
					56:leaf=-0.0304543078
				28:[looper_lep3MT<20.7613239] yes=57,no=58,missing=57
					57:leaf=0.0112160081
					58:leaf=0.0832406208
			14:[looper_vecsum_pt_4l<17.1550255] yes=29,no=30,missing=29
				29:[met_pt<155.276611] yes=59,no=60,missing=59
					59:leaf=-0.0369666331
					60:leaf=0.0753406286
				30:[met_pt<170.633636] yes=61,no=62,missing=61
					61:leaf=0.0798328146
					62:leaf=0.0952670425
booster[32]:
0:[met_pt<38.0216484] yes=1,no=2,missing=1
	1:[looper_m_4l<234.093628] yes=3,no=4,missing=3
		3:[looper_MllN<73.6979065] yes=7,no=8,missing=7
			7:[looper_MllN<16.5062485] yes=15,no=16,missing=15
				15:[looper_lep4Pt<24.3096085] yes=31,no=32,missing=31
					31:leaf=-0.0724037662
					32:leaf=-0.0427802801
				16:[looper_pt_zeta_vis<42.3588257] yes=33,no=34,missing=33
					33:leaf=-0.0312316418
					34:leaf=-0.00209993101
			8:[looper_MllN<105.155228] yes=17,no=18,missing=17
				17:[looper_vecsum_pt_4l<128.747482] yes=35,no=36,missing=35
					35:leaf=-0.0650079474
					36:leaf=0.00656195963
				18:[looper_vecsum_pt_4l<126.302048] yes=37,no=38,missing=37
					37:leaf=-0.0273933746
					38:leaf=0.0959451869
		4:[looper_MllN<69.7339783] yes=9,no=10,missing=9
			9:[looper_lep4Pt<19.9027634] yes=19,no=20,missing=19
				19:[looper_MllN<22.3481731] yes=39,no=40,missing=39
					39:leaf=-0.0547302365
					40:leaf=-0.0108825294
				20:[looper_MllN<23.89748] yes=41,no=42,missing=41
					41:leaf=-0.0199530683
					42:leaf=0.0280790385
			10:[looper_MllN<107.847183] yes=21,no=22,missing=21
				21:[looper_MllN<75.4624786] yes=43,no=44,missing=43
					43:leaf=-0.0130307889
					44:leaf=-0.0519039705
				22:[looper_lep3Pt<71.4466858] yes=45,no=46,missing=45
					45:leaf=0.0220897328
					46:leaf=-0.00529212644
	2:[met_pt<117.588959] yes=5,no=6,missing=5
		5:[looper_MllN<109.8694] yes=11,no=12,missing=11
			11:[looper_MllN<75.7934723] yes=23,no=24,missing=23
				23:[looper_ZPt<75.8135147] yes=47,no=48,missing=47
					47:leaf=-9.6266871e-05
					48:leaf=0.0263717864
				24:[looper_MllN<103.876419] yes=49,no=50,missing=49
					49:leaf=-0.0445435382
					50:leaf=-0.00326699996
			12:[looper_vecsum_pt_4l<36.3790665] yes=25,no=26,missing=25
				25:[looper_m_4l<470.151306] yes=51,no=52,missing=51
					51:leaf=0.0032843065
					52:leaf=0.0269101504
				26:[met_pt<70.6745148] yes=53,no=54,missing=53
					53:leaf=0.0239173081
					54:leaf=0.052730035
		6:[looper_MllN<107.396111] yes=13,no=14,missing=13
			13:[looper_mt2<21.035038] yes=27,no=28,missing=27
				27:[looper_MllN<44.0078697] yes=55,no=56,missing=55
					55:leaf=-0.0157588404
					56:leaf=0.0503211021
				28:[looper_vecsum_pt_4l<26.7648773] yes=57,no=58,missing=57
					57:leaf=0.00467086211
					58:leaf=0.0729747862
			14:[looper_vecsum_pt_4l<45.7311554] yes=29,no=30,missing=29
				29:[looper_vecsum_pt_4l<4.60518646] yes=59,no=60,missing=59
					59:leaf=-0.105301395
					60:leaf=0.0592452995
				30:[looper_MllN<1413.65063] yes=61,no=62,missing=61
					61:leaf=0.0917683765
					62:leaf=-0.0760628879
booster[33]:
0:[met_pt<45.9638062] yes=1,no=2,missing=1
	1:[looper_vecsum_pt_4l<13.9527779] yes=3,no=4,missing=3
		3:[looper_MllN<123.124481] yes=7,no=8,missing=7
			7:[looper_MllN<71.3831787] yes=15,no=16,missing=15
				15:[looper_MllN<25.2741737] yes=31,no=32,missing=31
					31:leaf=-0.0636307225
					32:leaf=-0.0230940096
				16:[looper_MllN<105.0783] yes=33,no=34,missing=33
					33:leaf=-0.074008584
					34:leaf=-0.0487161502
			8:[looper_vecsum_pt_4l<5.72153854] yes=17,no=18,missing=17
				17:[met_pt<34.9800797] yes=35,no=36,missing=35
					35:leaf=-0.0443271957
					36:leaf=-0.000656436663
				18:[looper_m_4l<503.424866] yes=37,no=38,missing=37
					37:leaf=-0.0108305728
					38:leaf=0.0189378411
		4:[looper_vecsum_pt_4l<195.317383] yes=9,no=10,missing=9
			9:[met_pt<19.4213905] yes=19,no=20,missing=19
				19:[looper_MllN<117.135101] yes=39,no=40,missing=39
					39:leaf=-0.0279800743
					40:leaf=-0.00909800362
				20:[looper_lep4Pt<17.6302261] yes=41,no=42,missing=41
					41:leaf=-0.0216205847
					42:leaf=0.000706746068
			10:[looper_pt_zeta_vis<202.511002] yes=21,no=22,missing=21
				21:[looper_vecsum_pt_4l<292.145203] yes=43,no=44,missing=43
					43:leaf=0.0456260554
					44:leaf=0.0876406059
				22:[looper_vecsum_pt_4l<283.111115] yes=45,no=46,missing=45
					45:leaf=-0.0423849635
					46:leaf=0.0236181561
	2:[met_pt<119.503967] yes=5,no=6,missing=5
		5:[looper_MllN<170.596603] yes=11,no=12,missing=11
			11:[looper_MllN<60.9560089] yes=23,no=24,missing=23
				23:[looper_mt2<11.830246] yes=47,no=48,missing=47
					47:leaf=-0.0211423319
					48:leaf=0.0273901876
				24:[looper_MllN<106.743622] yes=49,no=50,missing=49
					49:leaf=-0.0173002761
					50:leaf=0.0158761702
			12:[looper_vecsum_pt_4l<28.2775955] yes=25,no=26,missing=25
				25:[looper_m_4l<331.682007] yes=51,no=52,missing=51
					51:leaf=-0.0175876655
					52:leaf=0.0176925696
				26:[met_pt<60.4194336] yes=53,no=54,missing=53
					53:leaf=0.0315382741
					54:leaf=0.0580373891
		6:[looper_MllN<107.397781] yes=13,no=14,missing=13
			13:[looper_mt2<21.035038] yes=27,no=28,missing=27
				27:[looper_MllN<44.0078697] yes=55,no=56,missing=55
					55:leaf=-0.0134268254
					56:leaf=0.0488803424
				28:[looper_vecsum_pt_4l<14.4948549] yes=57,no=58,missing=57
					57:leaf=-0.0377106741
					58:leaf=0.0700266808
			14:[looper_vecsum_pt_4l<36.1753502] yes=29,no=30,missing=29
				29:[looper_vecsum_pt_4l<4.60518646] yes=59,no=60,missing=59
					59:leaf=-0.0913189501
					60:leaf=0.0525760241
				30:[looper_mt2<129.982849] yes=61,no=62,missing=61
					61:leaf=0.091000922
					62:leaf=0.0255086254
booster[34]:
0:[met_pt<103.976227] yes=1,no=2,missing=1
	1:[looper_vecsum_pt_4l<17.2838135] yes=3,no=4,missing=3
		3:[looper_m_4l<241.687836] yes=7,no=8,missing=7
			7:[looper_vecsum_pt_4l<7.35668087] yes=15,no=16,missing=15
				15:[looper_pt_zeta_vis<66.1741486] yes=31,no=32,missing=31
					31:leaf=-0.0679647252
					32:leaf=-0.0376149379
				16:[looper_MllN<64.8388443] yes=33,no=34,missing=33
					33:leaf=-0.0188036337
					34:leaf=-0.0507052429
			8:[looper_vecsum_pt_4l<5.70802212] yes=17,no=18,missing=17
				17:[looper_MllN<206.757446] yes=35,no=36,missing=35
					35:leaf=-0.0464051217
					36:leaf=-0.0126368077
				18:[looper_lep4Pt<24.5629292] yes=37,no=38,missing=37
					37:leaf=-0.0340418443
					38:leaf=-0.00162836164
		4:[looper_mt2<15.521759] yes=9,no=10,missing=9
			9:[looper_ZPt<53.7085953] yes=19,no=20,missing=19
				19:[looper_m_4l<316.865723] yes=39,no=40,missing=39
					39:leaf=-0.0356455743
					40:leaf=-0.00299096596
				20:[looper_lep4Pt<18.996418] yes=41,no=42,missing=41
					41:leaf=-0.0205493309
					42:leaf=0.00710295606
			10:[looper_MllN<19.2099323] yes=21,no=22,missing=21
				21:[looper_lep4Pt<16.0940266] yes=43,no=44,missing=43
					43:leaf=-0.0601292849
					44:leaf=-0.0217950027
				22:[looper_MllN<53.490921] yes=45,no=46,missing=45
					45:leaf=0.029035015
					46:leaf=0.00347621902
	2:[looper_vecsum_pt_4l<80.3824158] yes=5,no=6,missing=5
		5:[met_pt<155.339752] yes=11,no=12,missing=11
			11:[looper_vecsum_pt_4l<27.3521614] yes=23,no=24,missing=23
				23:[looper_MllN<57.7664337] yes=47,no=48,missing=47
					47:leaf=0.0205990784
					48:leaf=-0.0258275066
				24:[looper_mt2<5.44373322] yes=49,no=50,missing=49
					49:leaf=-0.0386453941
					50:leaf=0.0354832672
			12:[looper_lep4MT<26.9635315] yes=25,no=26,missing=25
				25:[looper_lep3MT<48.3734741] yes=51,no=52,missing=51
					51:leaf=-0.0610837936
					52:leaf=0.0733980164
				26:[looper_mt2<108.199181] yes=53,no=54,missing=53
					53:leaf=0.0848746747
					54:leaf=-0.00195099157
		6:[looper_lep3MT<45.4739609] yes=13,no=14,missing=13
			13:[looper_lep4MT<69.4125977] yes=27,no=28,missing=27
				27:[looper_MllN<91.2109756] yes=55,no=56,missing=55
					55:leaf=-0.00554597098
					56:leaf=0.0950052068
				28:[looper_ZPt<102.394897] yes=57,no=58,missing=57
					57:leaf=0.0265213791
					58:leaf=0.0843097642
			14:[looper_mt2<104.004631] yes=29,no=30,missing=29
				29:[looper_lep4MT<15.7737064] yes=59,no=60,missing=59
					59:leaf=0.0416143686
					60:leaf=0.0852168873
				30:[met_pt<142.670502] yes=61,no=62,missing=61
					61:leaf=-0.0984789953
					62:leaf=0.0699938461
booster[35]:
0:[looper_lep4MT<59.3943672] yes=1,no=2,missing=1
	1:[looper_ZPt<95.3995209] yes=3,no=4,missing=3
		3:[looper_m_4l<363.830322] yes=7,no=8,missing=7
			7:[looper_vecsum_pt_4l<8.29656601] yes=15,no=16,missing=15
				15:[looper_vecsum_pt_4l<3.98868322] yes=31,no=32,missing=31
					31:leaf=-0.068267554
					32:leaf=-0.0475425124
				16:[looper_mt2<11.6398363] yes=33,no=34,missing=33
					33:leaf=-0.0269773807
					34:leaf=-0.00858456921
			8:[looper_pt_zeta<104.013336] yes=17,no=18,missing=17
				17:[looper_lep3Pt<90.5754623] yes=35,no=36,missing=35
					35:leaf=0.0385681018
					36:leaf=0.010534212
				18:[looper_MllN<267.73233] yes=37,no=38,missing=37
					37:leaf=-0.0319579542
					38:leaf=0.0216470044
		4:[looper_MllN<60.8527145] yes=9,no=10,missing=9
			9:[looper_lep4Pt<29.7644844] yes=19,no=20,missing=19
				19:[looper_pt_zeta<63.256424] yes=39,no=40,missing=39
					39:leaf=-0.0165980961
					40:leaf=0.0163298901
				20:[looper_pt_zeta<82.8193054] yes=41,no=42,missing=41
					41:leaf=-0.0197631735
					42:leaf=0.0509298854
			10:[looper_vecsum_pt_4l<159.862335] yes=21,no=22,missing=21
				21:[looper_MllN<179.602936] yes=43,no=44,missing=43
					43:leaf=-0.0181456245
					44:leaf=0.0236584283
				22:[looper_pt_zeta_vis<206.600037] yes=45,no=46,missing=45
					45:leaf=0.0488551185
					46:leaf=-0.0136294886
	2:[met_pt<110.960541] yes=5,no=6,missing=5
		5:[looper_pt_zeta_vis<151.628845] yes=11,no=12,missing=11
			11:[looper_ZPt<129.252167] yes=23,no=24,missing=23
				23:[looper_lep3MT<77.1647949] yes=47,no=48,missing=47
					47:leaf=0.000319353916
					48:leaf=0.0227628946
				24:[looper_vecsum_pt_4l<215.42868] yes=49,no=50,missing=49
					49:leaf=0.0357430726
					50:leaf=0.0726803318
			12:[looper_lep4Pt<63.8020706] yes=25,no=26,missing=25
				25:[looper_MllN<162.092407] yes=51,no=52,missing=51
					51:leaf=-0.00459835306
					52:leaf=0.0569062196
				26:[looper_MllN<218.287201] yes=53,no=54,missing=53
					53:leaf=-0.0532942079
					54:leaf=-0.000658855017
		6:[looper_vecsum_pt_4l<67.3968811] yes=13,no=14,missing=13
			13:[met_pt<156.903854] yes=27,no=28,missing=27
				27:[looper_vecsum_pt_4l<16.3561077] yes=55,no=56,missing=55
					55:leaf=-0.0215283614
					56:leaf=0.0352053493
				28:[looper_lep3MT<2.30937982] yes=57,no=58,missing=57
					57:leaf=-0.071424149
					58:leaf=0.0853984654
			14:[looper_mt2<97.267334] yes=29,no=30,missing=29
				29:[met_pt<133.308792] yes=59,no=60,missing=59
					59:leaf=0.0700427294
					60:leaf=0.0923094824
				30:[met_pt<140.557373] yes=61,no=62,missing=61
					61:leaf=-0.0757281706
					62:leaf=0.0655519962
booster[36]:
0:[looper_vecsum_pt_4l<36.1914291] yes=1,no=2,missing=1
	1:[looper_vecsum_pt_4l<7.03054905] yes=3,no=4,missing=3
		3:[looper_m_4l<285.234619] yes=7,no=8,missing=7
			7:[looper_pt_zeta_vis<82.6821136] yes=15,no=16,missing=15
				15:[looper_MllN<122.46682] yes=31,no=32,missing=31
					31:leaf=-0.0627918467
					32:leaf=-0.0343624577
				16:[looper_lep3Pt<66.6130142] yes=33,no=34,missing=33
					33:leaf=0.00141177594
					34:leaf=-0.0405026339
			8:[looper_vecsum_pt_4l<3.91699505] yes=17,no=18,missing=17
				17:[looper_m_4l<362.143127] yes=35,no=36,missing=35
					35:leaf=-0.0612052344
					36:leaf=-0.0271707624
				18:[looper_m_4l<683.875] yes=37,no=38,missing=37
					37:leaf=-0.0194230136
					38:leaf=0.0333510675
		4:[looper_m_4l<222.8526] yes=9,no=10,missing=9
			9:[looper_MllN<73.6100235] yes=19,no=20,missing=19
				19:[looper_pt_zeta_vis<46.8012047] yes=39,no=40,missing=39
					39:leaf=-0.0251421016
					40:leaf=0.00201292569
				20:[looper_MllN<103.905922] yes=41,no=42,missing=41
					41:leaf=-0.058018811
					42:leaf=-0.0219490957
			10:[looper_MllN<60.9198608] yes=21,no=22,missing=21
				21:[looper_MllN<24.1217403] yes=43,no=44,missing=43
					43:leaf=-0.0241565201
					44:leaf=0.0281156544
				22:[looper_MllN<108.546631] yes=45,no=46,missing=45
					45:leaf=-0.0274621043
					46:leaf=0.00183805288
	2:[met_pt<69.777771] yes=5,no=6,missing=5
		5:[looper_vecsum_pt_4l<216.349518] yes=11,no=12,missing=11
			11:[looper_pt_zeta_vis<165.071716] yes=23,no=24,missing=23
				23:[looper_m_4l<409.195496] yes=47,no=48,missing=47
					47:leaf=-0.00138318562
					48:leaf=0.0266793966
				24:[looper_ZPt<203.453171] yes=49,no=50,missing=49
					49:leaf=-0.0474176519
					50:leaf=-0.00850168895
			12:[looper_pt_zeta_vis<251.673096] yes=25,no=26,missing=25
				25:[looper_vecsum_pt_4l<291.882935] yes=51,no=52,missing=51
					51:leaf=0.0414337255
					52:leaf=0.0709411651
				26:[looper_lep4Pt<88.882843] yes=53,no=54,missing=53
					53:leaf=0.0100294491
					54:leaf=-0.0608550794
		6:[looper_MllN<132.87265] yes=13,no=14,missing=13
			13:[looper_mt2<31.6545773] yes=27,no=28,missing=27
				27:[looper_ZPt<69.2627563] yes=55,no=56,missing=55
					55:leaf=-0.0451410115
					56:leaf=0.0187499356
				28:[looper_MllN<65.8018341] yes=57,no=58,missing=57
					57:leaf=0.0595657304
					58:leaf=0.0139168445
			14:[met_pt<98.6918259] yes=29,no=30,missing=29
				29:[looper_lep4Pt<205.232132] yes=59,no=60,missing=59
					59:leaf=0.0522453859
					60:leaf=-0.0142605947
				30:[looper_MllN<1451.87378] yes=61,no=62,missing=61
					61:leaf=0.0831155851
					62:leaf=-0.173466027
booster[37]:
0:[met_pt<21.7074776] yes=1,no=2,missing=1
	1:[looper_MllN<119.097717] yes=3,no=4,missing=3
		3:[looper_MllN<71.6651459] yes=7,no=8,missing=7
			7:[looper_pt_zeta_vis<48.2052383] yes=15,no=16,missing=15
				15:[looper_lep4MT<29.9274597] yes=31,no=32,missing=31
					31:leaf=-0.0389385633
					32:leaf=-0.00569074927
				16:[looper_MllN<21.5959206] yes=33,no=34,missing=33
					33:leaf=-0.0438961424
					34:leaf=0.00752845174
			8:[looper_MllN<104.816757] yes=17,no=18,missing=17
				17:[looper_MllN<77.0114136] yes=35,no=36,missing=35
					35:leaf=-0.0388461091
					36:leaf=-0.0674525723
				18:[looper_vecsum_pt_4l<12.6797724] yes=37,no=38,missing=37
					37:leaf=-0.0601620972
					38:leaf=-0.0179300979
		4:[looper_lep3Pt<83.5782166] yes=9,no=10,missing=9
			9:[looper_m_4l<355.633453] yes=19,no=20,missing=19
				19:[looper_vecsum_pt_4l<17.4453259] yes=39,no=40,missing=39
					39:leaf=-0.0327664353
					40:leaf=0.00837138202
				20:[looper_m_4l<552.49292] yes=41,no=42,missing=41
					41:leaf=0.0379694514
					42:leaf=0.105434395
			10:[looper_MllN<223.025543] yes=21,no=22,missing=21
				21:[looper_lep4Pt<110.653336] yes=43,no=44,missing=43
					43:leaf=-0.0188944098
					44:leaf=-0.121394038
				22:[looper_lep4Pt<81.552002] yes=45,no=46,missing=45
					45:leaf=0.0270496756
					46:leaf=-0.00512214703
	2:[met_pt<125.941101] yes=5,no=6,missing=5
		5:[looper_MllN<109.818726] yes=11,no=12,missing=11
			11:[looper_MllN<76.860199] yes=23,no=24,missing=23
				23:[looper_MllN<16.8564148] yes=47,no=48,missing=47
					47:leaf=-0.03951573
					48:leaf=0.00969883241
				24:[looper_MllN<103.34848] yes=49,no=50,missing=49
					49:leaf=-0.04627949
					50:leaf=-0.0084218476
			12:[looper_lep3Pt<62.4445496] yes=25,no=26,missing=25
				25:[looper_m_4l<345.873962] yes=51,no=52,missing=51
					51:leaf=0.0306101628
					52:leaf=0.0738478228
				26:[looper_m_4l<474.647278] yes=53,no=54,missing=53
					53:leaf=0.00346789765
					54:leaf=0.0273727216
		6:[looper_lep3MT<50.0023956] yes=13,no=14,missing=13
			13:[looper_lep4MT<74.9063644] yes=27,no=28,missing=27
				27:[looper_MllN<101.975288] yes=55,no=56,missing=55
					55:leaf=-0.00432057912
					56:leaf=0.0894947052
				28:[looper_ZPt<78.5086823] yes=57,no=58,missing=57
					57:leaf=0.0240810104
					58:leaf=0.0837839097
			14:[looper_vecsum_pt_4l<75.5793381] yes=29,no=30,missing=29
				29:[met_pt<164.212433] yes=59,no=60,missing=59
					59:leaf=0.0312560759
					60:leaf=0.0877151936
				30:[looper_lep4MT<11.6937904] yes=61,no=62,missing=61
					61:leaf=0.0437654629
					62:leaf=0.0875448659
booster[38]:
0:[met_pt<38.0216484] yes=1,no=2,missing=1
	1:[looper_vecsum_pt_4l<29.812233] yes=3,no=4,missing=3
		3:[looper_m_4l<222.774292] yes=7,no=8,missing=7
			7:[looper_MllN<68.1175385] yes=15,no=16,missing=15
				15:[looper_MllN<23.3418427] yes=31,no=32,missing=31
					31:leaf=-0.0510506816
					32:leaf=-0.0169081111
				16:[looper_vecsum_pt_4l<7.2130003] yes=33,no=34,missing=33
					33:leaf=-0.0819660202
					34:leaf=-0.0539958589
			8:[looper_lep4Pt<24.6874275] yes=17,no=18,missing=17
				17:[looper_MllN<62.6947594] yes=35,no=36,missing=35
					35:leaf=-0.0168559197
					36:leaf=-0.0501964763
				18:[looper_MllN<69.9467773] yes=37,no=38,missing=37
					37:leaf=0.0119563993
					38:leaf=-0.013898775
		4:[looper_vecsum_pt_4l<191.469849] yes=9,no=10,missing=9
			9:[met_pt<14.9471445] yes=19,no=20,missing=19
				19:[looper_MllN<48.459816] yes=39,no=40,missing=39
					39:leaf=-0.00401626574
					40:leaf=-0.0252629276
				20:[looper_MllN<57.1741257] yes=41,no=42,missing=41
					41:leaf=0.00969945453
					42:leaf=-0.00548989745
			10:[looper_lep3Pt<125.063637] yes=21,no=22,missing=21
				21:[looper_MllN<25.8973007] yes=43,no=44,missing=43
					43:leaf=-0.00336191244
					44:leaf=0.0624283738
				22:[looper_pt_zeta_vis<313.201782] yes=45,no=46,missing=45
					45:leaf=0.0195177477
					46:leaf=-0.0449966379
	2:[met_pt<126.999939] yes=5,no=6,missing=5
		5:[looper_ZPt<56.3827019] yes=11,no=12,missing=11
			11:[looper_pt_zeta<56.4575195] yes=23,no=24,missing=23
				23:[looper_mt2<42.1379471] yes=47,no=48,missing=47
					47:leaf=-0.00570843508
					48:leaf=0.0359904543
				24:[looper_vecsum_pt_4l<37.7585068] yes=49,no=50,missing=49
					49:leaf=-0.0168205705
					50:leaf=-0.0509773493
			12:[looper_mt2<93.878334] yes=25,no=26,missing=25
				25:[looper_vecsum_pt_4l<47.619133] yes=51,no=52,missing=51
					51:leaf=0.00221778429
					52:leaf=0.0213261433
				26:[looper_pt_zeta_vis<258.311279] yes=53,no=54,missing=53
					53:leaf=-0.0357654877
					54:leaf=-0.107150786
		6:[looper_lep3MT<50.0023956] yes=13,no=14,missing=13
			13:[looper_lep4MT<43.4529037] yes=27,no=28,missing=27
				27:[looper_MllN<56.586525] yes=55,no=56,missing=55
					55:leaf=-0.0242097527
					56:leaf=0.0508470535
				28:[looper_vecsum_pt_4l<120.726517] yes=57,no=58,missing=57
					57:leaf=0.0329220146
					58:leaf=0.0745872557
			14:[looper_vecsum_pt_4l<85.6551361] yes=29,no=30,missing=29
